	0	1	2	3	4	5	6	7	8	9	10	11	12	13	14	15	16	17	18	19	20	21	22	23	24	25	26	27	28	29	30	31	32	33	34	35	36	37	38	39	40	41	42	43	44	45	46	47	48	49
mon_bulbasaur	0.14466524040478412	-0.08761174218865612	-0.25443410679328243	0.09023694806803415	-0.19703506486719868	0.03203825983780132	0.056329395362598886	-0.058297190073052806	0.07386361387220103	0.19987313638513468	-0.10290623547633738	0.055129418339159186	-0.30946441272127545	-0.07860104146832468	-0.11949551160136335	0.11174583611192916	-0.09228632703177612	-0.11246974772723956	0.24236598481996613	0.08081989496421497	0.02662866386074459	0.10254676669796955	0.05121536451284765	0.05770559776316634	0.2243060165301936	0.1709365701040156	0.03190483194101361	0.04461350546993147	0.06064915687023713	-0.1293339574096386	0.04647750154038534	-0.045023735954995	-0.19134223343579607	0.03944377878522828	0.4061803021829435	0.0029441765881523217	0.07808514829707126	0.0003142289962762556	0.10644178727169001	0.09188972901156597	-0.2668973662478765	0.0027729795240638137	-0.0868704075635601	-0.09854006184934645	-0.23666031659282571	0.12136173530350883	-0.16823603072559923	0.08087161610457985	-0.09866412372317743	0.05011810638392476
mon_ivysaur	0.16858972354946622	-0.1056756001865436	-0.1788076372583181	0.12617267390466344	-0.17059389112125983	-0.013092217015472148	0.058025209760290415	-0.06777677999555691	0.09391566852656333	0.233401957472155	-0.10374383489157497	0.08075663235887114	-0.2500874268829512	-0.11099004926435121	-0.12933564135999764	0.12294482004867421	-0.11542472526843973	-0.08670583505578065	0.23515867083738873	0.06081250380838342	0.04197344310590653	0.13442744761361927	0.04745747059001442	0.05464252549463239	0.26358384871815094	0.14149557865362583	-0.0014080665274860506	0.026252787637344625	0.092146982578711	-0.1532659110563913	0.04336301000279547	-0.054084667652532704	-0.1597528546320611	0.055878933889271606	0.38526508822060285	-0.03747700609101994	0.05088723424011332	0.016770895413997816	0.09888762324274078	0.10216872369364921	-0.2987132021491326	0.03127280581183949	-0.09612707418794192	-0.11824977349159854	-0.22555070855668455	0.11071291291639533	-0.16307750687351016	0.12062274673921308	-0.13721952003992677	0.040219374959569135
mon_venusaur	0.16789647645209957	-0.07192535043759239	-0.20990870339822187	0.1430179284512962	-0.19132327322245957	-0.02188511834192489	0.04722281748352686	-0.04770397742848673	0.10170686122120128	0.20764030609779993	-0.07097201912917295	0.05970521976836258	-0.28731962363502045	-0.0786030689388985	-0.10708239315752321	0.13656163245770844	-0.051976596775223906	-0.09291709639565641	0.2875576929991836	0.06706825304356745	0.0363578426658306	0.15292709855013628	0.036746625229996936	0.06510635200605165	0.24624997718620198	0.14512021017661322	0.033806684786530664	0.024531906627456426	0.10135753685313932	-0.1602316356226417	0.019984372976246723	-0.07047746115868979	-0.14080040871183155	0.03680291400295535	0.3846526604764507	-0.014508448035801876	0.06949232555448565	-0.016179762913368895	0.08172276693892944	0.09861079785974691	-0.28765787693488537	-0.007198383018914077	-0.09242729984981078	-0.08521613006797792	-0.22161140445909944	0.10237878049245357	-0.1635002813235913	0.12679743331435173	-0.1280979956512396	0.019813805316821524
mon_venusaurmega	0.18256848795438493	-0.092296381397942	-0.1885623392387492	0.16014691181945886	-0.17830813444545685	-0.004277745845473693	0.05069913857897047	-0.08794862052516556	0.08994345905920946	0.2055324447857109	-0.10147707959451534	0.07878076452976722	-0.23471309030157492	-0.11458272767013106	-0.1199742388542822	0.12543033891581357	-0.06957892337879704	-0.07459126801420295	0.2448731954247099	0.0420584949351545	0.07731145041778309	0.12819001197220428	0.0391015382162197	0.08256375971213818	0.22573454870341053	0.13972206016625827	0.028763696554304	0.05723548854895304	0.11279437394986042	-0.1695391141583609	0.053911901901789704	-0.03043408338727679	-0.1796960139834786	0.03811805896428878	0.3691516706070847	-0.04402266333454074	0.05326659713091231	0.03494857475212028	0.09927216027963262	0.0858025650553186	-0.31096780206583874	0.03523013360453407	-0.0833689117385172	-0.07981133086399539	-0.2460032281737991	0.11385778271170657	-0.17313394951271469	0.09862319460732215	-0.17322723995173964	0.04353784728440491
mon_charmander	0.16616715843754812	0.14979102855283363	0.18997771905949257	-0.13298304590874235	0.13865258904765562	-0.004651808138108467	0.23882110285282213	-0.040162748888624415	-0.11383858423154604	-0.051641333083174076	-0.12460522075944774	-0.10242952331639925	-0.0964075449593875	0.07020252866642528	0.06329077373668507	-0.03626839280291569	-0.20770186249665662	-0.1454038331533998	0.03686163285631933	0.002203374274878232	0.05440875361733919	-0.03012475090076016	0.29453436535288846	-0.06547074469041621	0.1189658465518016	0.021083057728199215	-0.14868510180511282	0.12079835858330065	-0.023097496371226336	0.1235597347722137	-0.014355064671042818	0.03787071074197226	0.13057437574324754	-0.02452546254921327	0.3300701147466593	-0.23678508868048334	0.06368641172821328	-0.039752116810321675	-0.2810406786036902	0.02221218135286743	0.1972285139095937	0.04105675889208116	-0.15663150773534162	-0.0700244404704873	-0.0004874455712414728	-0.1258878759573311	0.09149616987287285	-0.10795219343060261	0.33535840442428977	0.007015715832898621
mon_charmeleon	0.15427326494289578	0.13961164555865357	0.20066762213524653	-0.1500456342297583	0.17744339853853616	-0.0888346384205576	0.2729134178328724	0.0039639774939119275	-0.11948531024959717	-0.07868113640095677	-0.1182755255878061	-0.07897743005089292	-0.07592054331421559	0.06081881325657279	0.03141100795078911	0.007835602327294734	-0.22311235833010945	-0.09192421587254337	-0.07450463103812342	-0.03902418891969394	0.10882768872836293	-0.09034918976908718	0.28812901623408577	-0.09737651314590248	0.15905342902476224	0.07612056609689845	-0.19111410494859726	0.117224214143138	0.004890655908484936	0.13655330845263877	0.00585220258235791	-0.03932987323107798	0.1155356934291943	-0.003429239674601375	0.21755548003081068	-0.2769602110384003	-0.01684286577007659	-0.009699367735595876	-0.2653191230107715	0.035589392954865434	0.15370749081485433	0.024813527314960986	-0.18424763582199988	-0.07134569922771627	0.028576604060051976	-0.10327862963599106	0.09486731747682398	-0.17773780011039003	0.3049556659375401	0.050196538999082815
mon_charizard	0.11657042531969304	0.06637309203476854	0.15701066897314808	-0.10664101732024045	0.15844924208237535	-0.1244758994436304	0.19181587405774997	0.04754441179674253	-0.16139097321009627	0.0873279342629621	0.06557199389860324	0.030459560272574744	-0.07419928341184145	-0.12838281929119383	0.08886290943563314	-0.024845364956183388	-0.32255716773200105	0.03340866648918806	0.061767319794272704	0.041499892156598196	-0.004781833026435942	0.029080769347846102	0.36151935437211313	-0.054382613076505965	0.14668176010793704	-0.11323638107877496	-0.25501936006647113	-0.0851510575183003	-0.1340818253190549	0.06559640274009029	-0.06068758515454301	-0.1115387568829225	0.2540707462845082	0.10466955223700991	0.22479252449168907	-0.10896807469807059	0.054105956682115305	0.04998294359873978	-0.20934734146087783	0.24993001550052374	0.12801086873411585	0.09636144559212875	-0.17593153742111897	-0.11712209412160467	-0.0162230901494213	-0.0826104783158339	0.14172494980553665	-0.00031444349982347593	0.16939850553794772	-0.061041520343577946
mon_charizardmegax	0.12889146478402602	0.04051262222402993	0.2257573214410114	-0.04865820768829507	0.15738155458769792	-0.18869642329450842	0.23088882405989988	0.04024295780969414	-0.041891425550191444	-0.011708100343828095	-0.05734444102364439	-0.10195687652735404	0.0593845616937604	-0.07013573827113746	0.0026034142490654394	0.1288308709827419	-0.17341637154135497	0.13838682070913522	-0.3388051082415279	-0.00024465760448863993	0.3233159903308984	-0.2122339073152311	0.17204023546405053	0.04096959386325565	0.1403052384330851	0.051543684181326176	-0.257585254972138	0.04732244248335841	0.012870905235234292	-0.0015579232086199606	0.050136911072706666	-0.022535289095398814	0.14037106663124121	0.07827738521321466	-0.14720700307816684	-0.30460918301919115	-0.08465458501777769	0.08821023023842038	-0.146545842501398	0.08861253581738869	-0.0076829936479671295	0.12056169032993656	-0.1129897042552518	-0.05452467389062037	0.044706487507145974	-0.004430196360762696	-3.3081327297223467e-05	-0.22210480913986938	0.004990149744854948	0.19027604073553214
mon_charizardmegay	0.07727040789676802	0.07634518132780119	0.07581480001164369	-0.013138648654783277	0.019962108136488525	-0.0471793560514496	0.11314328038220177	-0.006795872159084896	-0.10880873116430237	0.19897926282288927	-0.009120778982399349	0.01933681371889329	-0.17337024679874424	-0.15446143647027	0.054415383282162715	-0.010654895284410503	-0.2111825216039738	-0.043574299217363464	0.2314421369297407	0.15156215033853598	-0.03295344683156119	0.18071013943370642	0.3460913896819623	-0.040564249296917855	0.18889132406591444	-0.12448631298816644	-0.1414961868614885	-0.08159332622152127	-0.1785566513837043	-0.07203112871427535	-0.042163824006476405	-0.06656221902100148	0.2256631259240481	0.021252523362870424	0.34955702465672495	0.04254941356131264	0.16878905377440168	0.004147990735789338	-0.1940308748328409	0.2708812046708258	-0.021921734247565466	0.06376586985314865	-0.20581334690841271	-0.11440395638786852	-0.12312332544460523	0.0046755119836795365	0.06930934590917852	0.11718289645453708	0.08643631510563872	-0.07811150684032678
mon_squirtle	0.16164854306924553	0.10610330471931373	0.07358209342537593	0.14873718805544905	0.07080466929690063	0.213510816617018	-0.08363291048439793	0.010262775468980787	-0.01050329963944107	-0.20697238883958727	-0.14279514918629613	-0.144961817838187	0.16827121088784316	0.11786527165297675	0.003980497636694565	-0.001263929722805475	0.29829873597753487	0.03597458690616021	0.11928988698016049	-0.004750417338966349	0.11918913601296535	-0.12777460403016466	-0.09531273186421643	0.08757149103907937	-0.37462387724489726	-0.18821604216018367	0.1462825581007285	0.06568732484414135	0.19652213533892324	-0.052115531068769656	0.17649033108446283	0.31570370151892013	0.05622589792504974	-0.12777621828790978	-0.043515400358415286	0.12394320349075168	0.07137173791532705	-0.01568536012652811	0.06286016370239209	-0.2508318971019519	0.1265069425892178	-0.09685924480442054	0.14233666603552145	0.16706523832162226	0.052010085250990726	-0.12234243883059366	-0.004903344570735966	0.04571714465077012	0.04019677423832462	-0.024092253583430395
mon_wartortle	0.13228109146240383	0.07591979234656264	0.04872449182339189	0.12149403104104665	0.06947014909214706	0.1931648463849963	-0.10457892927513922	0.0027525610686109825	0.01992075989840965	-0.20583814487737517	-0.14601352593744288	-0.14719944184671357	0.17212281139231353	0.11461528253526276	0.018120595327505467	0.022695832847038376	0.3274147863722427	-0.004448810982146116	0.1076801711458321	-0.0037844243812863824	0.06863379905242965	-0.1347258412564755	-0.12009585685915457	0.08043904665605692	-0.36647026688455275	-0.18012700587267752	0.18929292466336026	0.034489148410772615	0.19692432188666686	-0.07671265838854197	0.177934564170242	0.2860456560914045	0.04705725224376368	-0.1527874481101426	0.008525067643718201	0.1234546539345511	0.06544041461269405	-0.0013844279333047576	0.07853381757319317	-0.2660246004235049	0.15763766419957326	-0.08400058514854342	0.12294355139457426	0.19220815564649635	0.06911821244904398	-0.13262135604235384	-0.004896499357964623	0.03755110922979017	0.03479293632658929	-0.0395255009223974
mon_blastoise	0.1588545015796834	0.11105635715667062	0.05135913389334583	0.08688170986829193	0.1002450468039209	0.1951962763709075	-0.0669369699786375	0.037541566758451814	0.016843005936813933	-0.2416850853301175	-0.1996989102146802	-0.15640454790572395	0.154842921131994	0.14039405824113738	-0.002623564400545646	0.04117915913177574	0.33189606324216026	-0.039218251852467974	0.12282790864552445	-0.020591481561325616	0.08460723598835515	-0.11658904643260705	-0.08063263478729656	0.04528716796595766	-0.31201097602807604	-0.17587206457862947	0.16922504333382304	0.0422353921470461	0.20164279369607108	-0.05894436464838368	0.20698694455447836	0.3016766843276731	0.035971956522032215	-0.1348631571009192	0.05183517746119572	0.061934354930012134	0.018115621202196546	-0.02630930208643836	0.04378448715934802	-0.25636707924499624	0.14635970638429557	-0.1092761037902965	0.11748495573307013	0.1933827708317406	0.05522157616595049	-0.1383337711721534	-0.02582065822585631	0.054871622695904204	0.09507918747237125	-0.027079844894213705
mon_blastoisemega	0.1698061313558878	0.07927249890648032	0.103296262248634	0.06073161620471329	0.08525293677197132	0.22550028115753845	-0.03184441363845694	0.013182468035099471	-0.028645352133913782	-0.24863776210353894	-0.18666816238592346	-0.1774904030511762	0.20015881744963876	0.1317314140756903	0.04953704464372959	-0.04609717285380595	0.2637382873863448	-0.05592036865494255	0.05831390150947672	-0.009466658516786864	0.07215032927450354	-0.11673142303565043	-0.009987274354047343	0.013782518658369117	-0.41165319276936896	-0.21978740757716764	0.13511740582856524	0.10653616806199001	0.13743922778103584	0.008533516078626976	0.18438514842358444	0.32034688402016	0.0774429093081443	-0.1102849604658482	0.03907640862670007	0.10036817816979192	0.039577137247656935	-0.02876502804144384	-0.003842119070776281	-0.19156083610032393	0.17726922545197285	-0.07443910828758286	0.08349356564005848	0.12176351360840551	0.043948500004072084	-0.16595730325364086	0.03765874003655895	-0.012046186355363354	0.1300393876357856	-0.09093757853328983
mon_caterpie	0.07119113691102799	0.03595952884678475	-0.21265168415402752	0.07778633352357701	-0.1924383273022252	0.029952347858396847	-0.045211860963733586	0.21449604279046292	-0.12194165719709958	0.08811682488063782	0.2061792856878086	0.1140808280631741	-0.23572155449104754	-0.14730228568778977	-0.07098019290768938	-0.06736144105279464	-0.1229455158092384	0.15707457813851974	0.06815212891642995	0.016936087764137776	0.10431116442466201	-0.10062750896695086	0.13632656182547326	-0.04296419244716085	0.029263573848705357	0.03788899525149049	-0.14326063078227444	0.01975396707299381	-0.17333368240962257	0.1088109640772628	-0.0876509655232354	0.03532480543340061	-0.0896232681964456	0.07655056893072235	-0.025285929213837956	0.2631919044483086	0.037522634167307306	0.021259915956876183	-0.0712204390652315	0.3348397385619621	-0.2037975776860383	-0.14110544189530158	0.037285750903497616	-0.19239289144546778	-0.17789371676604107	0.33956164998317273	-0.002525626309279987	-0.03664340144695487	-0.048923588268464116	0.09682367731434066
mon_metapod	0.06761525280871153	0.028544467323052106	-0.20176946088003211	0.052605040080479316	-0.18060644535826864	0.03447256450390381	-0.03178100923423054	0.21457024323276688	-0.11857082256748523	0.06518356971321843	0.20774032256133393	0.1120722871114562	-0.20397344030777373	-0.13541240174527572	-0.0616363265730519	-0.06561903308863466	-0.09761893191263192	0.1461304879804816	0.023037058417428632	0.022121127169079983	0.11091811920136588	-0.11140744234640358	0.12811086435192973	-0.06004498330862016	0.0043036324694951875	0.04875191085319749	-0.13317769366787352	0.028712507201926977	-0.1880261757307375	0.13222519385409395	-0.0656137704089584	0.03645150015041622	-0.10708507756836502	0.089253480458566	-0.053875877652643435	0.2545276258367624	0.014082768933452419	0.01787127999190647	-0.08441948826507112	0.326024382165752	-0.22116382126569334	-0.14539993645329907	0.052426810400395804	-0.1912470931267477	-0.1537237688991947	0.34591235631234324	-0.0106559348011088	-0.07304137844887147	-0.023516740129923996	0.1053814019500202
mon_butterfree	0.11403318526543363	-0.04345207685798588	-0.18395524947574945	0.047837419209822554	-0.18322082004974552	-0.02487052868864377	0.05725235954192118	0.12430806370438569	-0.10423006768506428	0.14238257910564703	0.0937318431802397	0.0723017588992771	-0.2924962907660076	-0.17842937320272334	-0.025705697067611843	-0.02730345786304263	-0.18171088354060297	0.06708354736068362	0.23779597033460273	0.1102172540579402	-0.003561099445654851	0.03335981433134673	0.2772054221201021	-0.036915941538063914	0.10560438317501439	-0.051918788001448175	-0.12577648574579514	-0.017391389760243726	-0.19269468040329635	-0.02525598423110124	-0.04395559340340766	-0.015850867883732706	-0.025118893072441067	0.09480136011257795	0.2067100665872169	0.2451754233385417	0.09978760152921945	0.005598411197894995	-0.03887504211713791	0.3519601110769454	-0.17943322954753257	-0.06814723146072266	-0.09697769719029675	-0.18559524124216392	-0.24338551625117416	0.22819026886133018	0.028730992994820608	0.0654886960652016	-0.035536080195324726	-0.020767287325442963
mon_weedle	0.07186247684694802	0.03574430624533331	-0.18616344774177962	0.0848708168428	-0.186633154074102	0.014225726428134952	-0.04181588333780361	0.2136252130610451	-0.10559741520495584	0.08242577037420187	0.2048803500834676	0.14360204684896113	-0.19851578769098133	-0.14178395645578684	-0.08579109352946994	-0.061636271511370494	-0.11267142715884489	0.1739084023235146	0.022003481432307504	0.009752538566769437	0.12631843892339034	-0.08737302840001332	0.1161355821602716	-0.0501073836710235	0.023587897117601196	0.03439316869020572	-0.15480648222607943	0.024941800352240813	-0.15919454495091725	0.11640347835082807	-0.09811947323525011	0.035502873095360814	-0.09557430396942534	0.09422091495087392	-0.06435281657084183	0.2303809538643319	0.02110635303948191	0.031304156204904565	-0.09488921831572475	0.34210245876831585	-0.22971145171671165	-0.14741850241181123	0.05633311043471121	-0.1865614684541513	-0.16570786153665523	0.35868369292993696	-0.01966609941783777	-0.05801653025654227	-0.061748969996892326	0.10287298723526322
mon_kakuna	0.08271624863495662	0.03287315297966228	-0.19711044971096825	0.06172004879707951	-0.1884400785493576	0.009438609546289242	-0.02420995452723742	0.19956601461289414	-0.10988943239328176	0.07706809903181837	0.2046224229428413	0.12843471248161667	-0.20142800481701242	-0.1455028970171473	-0.07371060346796882	-0.03504424849091542	-0.09256691372025584	0.15032059235728443	0.02803983589449255	0.024535101553845508	0.11500319973745692	-0.07560835748680084	0.1296491949439038	-0.06903483214353208	0.0522886469891498	0.04476914327213011	-0.15232759777199464	0.040335739049151324	-0.1800647633172809	0.11295532643574296	-0.08389890147782501	0.027566853828586573	-0.1193176019790426	0.12839325871350288	-0.049618913337220585	0.20490587023333928	0.008033241108189577	0.020576356998469363	-0.08948334576356408	0.3474493440527742	-0.2578236002594402	-0.14717209299480988	0.04099397513720564	-0.1791701490638942	-0.13793902091991828	0.35913674270419643	-0.02743558155887863	-0.0677905105811358	-0.04059821196290464	0.11020203509444872
mon_beedrill	0.058916407463450386	0.04754132384653967	-0.0841017621220011	0.12848048603635107	-0.13460052898964606	0.06061252253204329	-0.052626114750677404	0.1706486955549282	-0.11672568935399814	0.029354182269859534	0.292047365934356	0.1631951684927057	-0.03351930630080724	-0.09097011999682321	-0.08810004440712056	-0.053222586873486466	-0.07954409257167179	0.2735936112021791	-0.09149699792680199	0.016959546207731425	0.1897230582026505	-0.023431833547368316	0.03374242781791177	-0.026625717830400887	-0.10819629144491417	0.010753901478369741	-0.15706264118120944	0.043569803665711844	-0.0789517381532912	0.11052945843657187	-0.11035691955065682	0.10439624010174706	-0.025278503423513777	0.11555962512861884	-0.21917577064906069	0.1217980276506567	-0.005839712012392837	0.11357052698755275	-0.11310807761160459	0.3501569205097928	-0.2544556579698649	-0.16769080233409933	0.12183449013311448	-0.12770264897619055	-0.08866468767180796	0.3667665026970907	-0.024056114468276744	-0.056380357022555214	-0.19170130273847855	0.03583062847684785
mon_beedrillmega	0.040915764054712415	0.06861584109228624	-0.059195493827958995	0.14647601401942972	-0.10137079661074379	0.08124552255926572	-0.061215971597100266	0.10447873583368265	-0.11543298567542025	-0.05204244252831255	0.29993604665553253	0.15547234652305814	0.04860855611186573	-0.06300732735771264	-0.08296229671487818	-0.16986043697647213	-0.13851926454817945	0.2223876059587794	-0.18770750161330432	-0.02861239690399325	0.20424318424394147	0.09047416007688147	-0.02898906357056319	0.033860905612967625	-0.17920535519686	0.07160269773248354	-0.1689698224289882	0.07646604401163487	-0.07758829016596319	0.050394270975674234	-0.05478739664509524	0.06189997747001875	0.01764124742219245	0.14373788464104723	-0.29921703631805485	0.04195644798419088	-0.0992201790188721	0.0333796815928492	-0.11613430128978708	0.28535271967159664	-0.32063019627993083	-0.022709848100438607	0.17186098751406859	-0.059473544284732366	-0.10390079590028498	0.24031712328002436	-0.008604079475568542	-0.07093508674290273	-0.23612923356190507	-0.05022964782161863
mon_pidgey	-0.027553949615288592	-0.11963582471607426	0.17097625101841094	0.06983398773059378	0.030288835199578118	-0.02845653193822215	-0.0019480750409935814	0.07352326280212555	-0.05521035590626191	0.23166461421182905	0.11431283303033402	0.05789996166941135	0.09228371108526248	-0.1340007840408039	0.10250480356878555	-0.16797566905458292	-0.31466877234276763	0.2613406275469175	0.0025337728860299097	-0.01660620138148782	-0.14335793348062173	0.09136584078627467	0.2226285547349131	0.021178948595577715	-0.04250267688854646	-0.19063107217280836	-0.2081125691017013	-0.11567682375997963	-0.13062330918070017	-0.12506201794622743	-0.08132840161592735	-0.12192360525739691	0.26940375548401857	0.06225614648016061	0.026220807187093628	0.2149187740337667	0.054082497165274	0.057988671326224685	-0.037212458780908994	0.2696688990853298	0.041914713025241274	0.18057915263031202	-0.039977676304630276	-0.14387134991986653	-0.0812210539859206	0.04691776251897745	0.11493278871277746	0.17964011228383459	-0.1523018244821628	-0.22093461387931737
mon_pidgeotto	-0.03491051132368298	-0.11060009030182452	0.1726669352120535	0.08921386589953614	0.0460232951715645	-0.020618092142825888	-0.023284162754757906	0.08278928655657443	-0.044693245985716654	0.24078344735058183	0.13015761709905468	0.05462783097224675	0.12220099840024948	-0.1009734647917223	0.10149777156381122	-0.17236317244259036	-0.3242273248115165	0.2673207462539743	-0.022827126585593827	-0.030733172083748657	-0.1332828563714039	0.054054593396871124	0.1955214173674016	0.03259292812740068	-0.06581789091632805	-0.1858460576121045	-0.18930892481178885	-0.12479455638092271	-0.12346141961674084	-0.13485452990173544	-0.0835492993761341	-0.10032874420438209	0.2838023139844291	0.04321410251394999	-0.006716270524736881	0.23285526894579922	0.06796785279422811	0.06787286607969766	-0.0130202122132559	0.24164248345411127	0.09136425385383357	0.18716944354927625	0.0025320282629016986	-0.12080549646816179	-0.059312845781397894	0.038649025903868005	0.11878766289888967	0.18168709322779936	-0.17151657764629802	-0.22337479293481005
mon_pidgeot	-0.05454840083326617	-0.11546796822964857	0.19037213492914287	0.07935209452063662	0.07294576303223611	-0.058148128884036386	-0.01251549389381204	0.10396914583780187	-0.04310730074335846	0.23403099118203374	0.11490714526952263	0.06244418754596625	0.15969753396486333	-0.14069808204136583	0.09810085490889563	-0.15557436401405983	-0.30374995831268564	0.29261845263691083	-0.06640458050882417	-0.0341097669126027	-0.10290516820531194	0.06051579070387077	0.18632167385223183	0.022926120579846897	-0.07447344090609186	-0.1865539337181317	-0.19696230689019628	-0.17477409289228446	-0.1082795266011898	-0.14063117872266004	-0.06588686009296028	-0.12107070379269669	0.28549233931187695	0.055806869532364474	-0.07401724941575687	0.19588837418701588	0.03933999562653099	0.10683472486928318	-0.01992250475065258	0.22000297102144445	0.08228013041250959	0.16593186816601527	-0.005969164368323831	-0.12517142573685694	-0.02965388556037309	0.032229963502226885	0.11954992357882156	0.16409450152301017	-0.1647054034803743	-0.20731913200512447
mon_pidgeotmega	0.0012810196211590682	-0.07043708245355629	0.1876505612272307	-0.037391348995409704	0.09240620724864472	-0.02658448828152111	0.0554515263712045	0.0535249873301852	-0.11405702635367712	0.11542431406940862	0.0971632482374067	0.011605981578901959	0.04377791848793073	-0.11946754721364235	0.13616914233695046	-0.18571458643829025	-0.22780296770698025	0.223758048340979	0.05460439879413676	0.01817691727063568	-0.17342418493340975	0.08790284942064697	0.3152761317122028	-0.0558412901935402	-0.028735788555168094	-0.2173646411075817	-0.20000817376408647	-0.1202235693793397	-0.19235973272580092	-0.1016702953905684	-0.04314112426056589	-0.08765192406823055	0.27291838556443754	0.06424492640310543	0.08170133081912336	0.21073193041788343	0.06598809597086523	0.03028518885891216	-0.08718761883160493	0.2779741665291015	0.11345712628224762	0.13393268814495857	-0.12602752500910477	-0.130163820522287	-0.011363879443972448	0.00339544418519194	0.18451158560763145	0.18497200085454812	-0.029842271511207073	-0.2081344826013229
mon_rattata	-0.10898102042491963	0.02541512842582671	0.26243746583781186	0.213107506214904	-0.04853433839165504	-0.0932627369880294	-0.04426392998865316	0.023669281912044492	-0.0407918614125959	0.19896088990628696	0.08777703799993043	0.24770153523578364	0.14505856142900306	0.08194844035313348	-0.07680036861633704	-0.24970182665844526	-0.21610009020781426	0.15446383129077207	-0.23062199164758926	-0.20644716508272462	0.10406979240121238	0.07427869156576769	-0.12008600927691164	0.0937919207211675	-0.006950061669221867	0.015195522445214944	-0.1405875256282151	-0.03165382895255239	0.1292529842186435	0.00937101806551812	-0.22810158471183184	-0.10277131933356151	0.07830219034539901	0.0032429197347393366	-0.27108085059346765	-0.07112964802309725	-0.1110694116168037	0.04684215102885776	-0.15582025948116782	0.1386046754861484	0.05846591958940684	0.16820450450731514	0.12816808144058983	-0.08793113301814677	-0.13276987331911652	-0.14059950037478502	0.026162239457018795	-0.002792895229086506	-0.23290587533917742	-0.1698251101746128
mon_rattataalola	-0.23111418146836557	-0.08642016865699469	0.08139811538003955	0.19169036103008524	-0.1556623798058639	-0.04134124238490511	-0.13287429662702568	-0.11421601043358316	0.0861945626186318	0.1917969303289695	-0.04045351948494216	0.20582865922885263	0.24557739669864662	0.08545005390528343	-0.1181977088907884	-0.14359727722897994	-0.052115685632084574	-0.10217188601067166	-0.11584604264347297	-0.1011346832893999	-0.052447346793522295	0.27967116896652927	-0.1975778605404881	0.07346957262166882	-0.04223550602015311	-0.07040469015783535	-0.03262446468297213	0.08327985856598162	0.12747150332233434	-0.060879314188718746	-0.1396554417619237	-0.07900936203294122	0.08757207036125166	-0.017628684237504917	-0.12483832854687607	-0.16256584524226037	-0.08778904916591106	0.10591256450085222	0.003464389664461045	0.04283722075791984	0.02933605647720142	0.2140673989811004	0.16217510295069096	-0.028362379766906833	0.0737327543723745	-0.11554022842635411	-0.025790201023558678	-0.0026687559645829253	-0.272108626238365	-0.2592392062937341
mon_raticate	-0.12858710175638421	-0.01787442907124109	0.24674200287304526	0.1982446395468051	-0.07892266860061392	-0.10622911505558022	0.000928879418758012	0.00019416311949136178	-0.020191042086915394	0.2148278185404267	0.12810503229346823	0.2668743011585426	0.15188709664219147	0.0575114435040122	-0.07393740176570773	-0.20244241177959324	-0.23005663496744239	0.1360623605560712	-0.24591616328968915	-0.17837417204801684	0.08463594020372076	0.1267994778505208	-0.13404173374980283	0.10173541170370527	0.004279403963521303	0.02911071056247651	-0.15673734187083646	-0.010214108011220139	0.1172742899897622	0.020463257281326624	-0.22099150337946918	-0.11987019928245721	0.07458833418582268	0.036582333914644674	-0.2658628673216723	-0.08941539679189427	-0.12689701692710897	0.0833099854107119	-0.1451508649216063	0.14698504240508167	-0.009151509910575768	0.1945708704223985	0.11163198923356873	-0.08437032356744532	-0.11146358308746743	-0.09173329705782877	0.018967361567337332	0.010251424922580528	-0.22795952978495768	-0.1571673402350385
mon_raticatealola	-0.17991615313926315	-0.1282852774493244	0.16969988985904694	0.24581948391895905	-0.08467438159759066	-0.042208541516057206	-0.11253635648159858	-0.04429540788311463	0.06970027557103314	0.2192780344194408	0.08786267739451585	0.13176612094301707	0.3455111419024293	0.0023046077126255456	-0.039189410628206425	-0.13896952422310843	-0.14993437443936414	0.09037096694006579	-0.25659865357497763	-0.08865988813436143	0.04631331030804055	0.09582023046984137	-0.2121829582736376	0.0954775352555716	-0.11504199305344599	-0.06194343061895575	-0.05013653559952066	-0.015929595347744505	0.10554722590172327	-0.08547836867999004	-0.11051725953120677	-0.062078668394149834	0.13507175663025905	-0.029644793589948187	-0.2310289090105352	-0.09730529508913369	-0.07161731930906388	0.14780217887300787	-0.017610538121703555	0.040277560656901516	0.010994072689770191	0.21613586909859991	0.15043574262261442	-0.077295163004716	0.07402697574689775	-0.06331915358292807	-0.05544829193747217	-0.01682942558941771	-0.32738582289766704	-0.19292005909502954
mon_raticatealolatotem	-0.18318543434924076	-0.13924825645805125	0.14541489074164335	0.16370815242290837	-0.10180531049734168	0.007741318536643689	-0.14058707983102517	-0.07943217178059293	0.054774338469748	0.1734469176005598	-0.06980777295150499	0.11151040959934773	0.2937749450808125	0.05037687812565161	-0.06675085078761153	-0.14341683619626094	-0.16439163870451093	-0.01930350184823136	-0.1589347226856321	-0.1496652754811543	-0.05632576201113533	0.15176052950475652	-0.19258384624716038	0.07926589798199883	-0.07170137480296215	-0.07953968878778343	-0.026461127622279555	0.06754686777842615	0.12844855363743754	-0.07893110928379948	-0.10826016208416464	-0.05167507165751914	0.12600207781726339	-0.05439806770883953	-0.10620991945362784	-0.12607476832164188	-0.01775547070140575	0.12365022654921358	0.02574702158356135	-0.001092706952341084	0.08241342126436604	0.3026633921116615	0.13248793932520259	-0.06723562874972867	0.09348978089823437	-0.13864184357180495	-0.015118164931512688	0.05080049701957962	-0.22239730717190517	-0.25002477123206995
mon_spearow	-0.08271594124665547	-0.13502084785503202	0.1944022061658136	0.16674686624747334	-0.006424659366669489	0.009880846223124552	-0.09365088773725434	0.10792078165009689	-0.022235181960879983	0.20899594317988981	0.17501697495428487	0.07103063015174223	0.26577508541960204	-0.06780210168157705	0.0591349359638636	-0.20891954057245568	-0.3000312823686053	0.3084170747816475	-0.15846392395844913	-0.059072739947495345	0.003856962489500884	0.00973354649174037	0.015405976302940761	0.06050085574939561	-0.1725038449928928	-0.14353191355962025	-0.14136646366590366	-0.09933141921956429	-0.013829951491982682	-0.10666119817727544	-0.0737686529456782	-0.05101629346293229	0.2060156386172841	0.04108963696051444	-0.19569093548064867	0.18873419037893366	-0.006706511805616981	0.06679164751120671	-0.014647443436138656	0.1943423160491919	0.016345100311226154	0.14714928847998432	0.07795035685318946	-0.1310164879068187	-0.040798310190497344	0.011819097300819127	0.036271048111219735	0.11959724137157514	-0.28203219527512335	-0.20629554853040272
mon_fearow	-0.10681020808346953	-0.1535993045941499	0.18792445072554972	0.1582695941264692	-0.024431496374340042	0.018525869000028266	-0.10227394797772531	0.07720424150333069	-0.01083290023711269	0.21186034313376242	0.196852507366181	0.07936555719182159	0.2653121206169563	-0.06584445446400562	0.057515496728488893	-0.22519323359373514	-0.2972122271143729	0.3001575896196625	-0.18862294630263193	-0.0694347746862166	0.0019294822859144052	0.03428181609326095	-0.02255430530673397	0.03634434566173653	-0.1707217317121853	-0.1255120716022591	-0.12412511725051027	-0.10503355180386331	-0.026729635162587813	-0.11594319331487242	-0.06980979640421175	-0.06007038204262742	0.17372939355598216	0.04643974299587486	-0.2045778541671391	0.1499700034017675	-0.017699469508045847	0.05555131845288776	-0.028161627584446177	0.17716001089918965	-0.01030131408057372	0.1489904898531364	0.08029172571808767	-0.12283319085692167	-0.0388527363191495	0.008052646774548715	0.024443819712604526	0.11236986283854834	-0.30872742669616954	-0.1994321766574539
mon_ekans	0.16386227218131078	0.04897256561553603	0.1641864286164601	0.06911795058067738	-0.04799156968682209	-0.06875888362051077	0.004040974723992185	0.13900433029441378	0.17095298102353412	0.11372925990817766	-0.0941885632499647	0.182053193125292	0.24530119260755784	0.10084304820838734	-0.16888963383877686	0.13016606097266048	-0.037422375186085696	-0.08148932430241125	-0.16981903060379452	-0.11099084565986281	0.16005229071037588	0.10775888455772652	-0.33499931085257134	-0.012378605828108643	0.24740207410247642	-0.037667990833412164	-0.10658673260402718	0.0021023307245873783	0.147152838679773	-0.03449337437095356	-0.0859885082028275	-0.06780227464028238	-0.04918365866237442	0.045461761592825556	-0.18480881803440735	-0.31796663563625693	-0.11707315842415802	0.1832708333956177	-0.143169884633419	0.013257818538495355	-0.22396667280834465	0.011172703575016393	0.07962312537208627	0.016059756921132623	0.025611144198840627	0.14933907168107674	-0.24166141202429997	-0.09129189655573572	-0.14442571980175534	-0.03705924406847241
mon_arbok	0.09106466802990214	0.05239270037534337	0.18413630132285363	0.13791599574098748	0.03227860124352395	-0.10632235229833627	0.023657513098054726	0.12505514641657745	0.08514928973083957	0.11417533514710164	-0.016243590918829702	0.17374856983213982	0.29591605380626057	0.0034890619758472102	-0.077961113976736	0.08168629921049281	-0.05411770542366146	0.03652897414109367	-0.3483601246189293	-0.04091342063245435	0.23390811178475357	0.007370648558242186	-0.2879078162889269	0.04291090027319808	0.12515387029674108	-0.005656643200661039	-0.1388445045519436	-0.04738491104735757	0.07440197136711434	0.0532157465733629	-0.0831039123783846	-0.0012659078437159414	0.03586268478487009	0.03537508144624061	-0.35103672651894513	-0.27925269593939434	-0.08921838578989257	0.19223943466692467	-0.15630986150205486	-0.01768681685086652	-0.14060759376909454	0.024332048684792877	0.14368553491103286	0.006096064312645061	0.08691559255419758	0.12545589065189272	-0.13237871802976517	-0.17852319484932136	-0.16177703750132977	0.009851407523224456
mon_pikachu	-0.22042244080162174	0.0720778777798025	-0.19067631067349122	-0.38149390070950956	-0.003277590910158679	0.08725847281780076	-0.06795218420565319	0.03337107149821836	-0.14419032353423922	0.07320251195167536	-0.041172255861096456	0.0028397483843997495	-0.12097849799121155	0.23380062682395425	-0.07365450129555189	-0.2710710210777385	-0.15141983134677028	-0.3207617732061724	-0.0999185913859719	-0.049964626595755866	-0.2673616260566785	0.051460059886772276	-0.03101260561238472	-0.0551118850446501	-0.14567821073477424	0.0633444842723235	0.13087051680194578	0.05928909835225013	-0.18253849643001588	0.3118887675980626	0.09928443124119223	0.02478404917016508	-0.09942002704960264	0.041134179684043606	0.14520113019183495	-0.012175004725053876	-0.02529659033437711	-0.005556265461842017	0.04463438375600287	-0.054717015556051955	0.12447012529899452	-0.06557840060331818	0.13849041225274145	-0.12405942673440415	-0.08960255903775845	-0.092018668384575	-0.026330292941281336	-0.05494227600936941	0.14336386246136845	0.12727195179164322
mon_pikachucosplay	-0.1358537374284073	0.009255892161846899	-0.022509832798367126	-0.2616861752827611	0.09303839566768136	0.1360386767958033	0.04610566879595809	0.11260429747859263	-0.061637209908853394	-0.025332269764326242	-0.15094802103448374	-0.0713015798854455	-0.08776299969853815	0.22248738426932035	-0.03560218119328848	-0.20753393172835344	-0.18705676411985117	-0.1725570849039688	-0.15482727928855763	0.02433204672520644	-0.17435263829837197	-0.11341489095173818	-0.04458400706657248	-0.11349859075102331	0.0019192247948359698	0.11742524809443741	0.07094741658643329	-0.054291085729824023	-0.18590887507785925	0.27008502693072234	0.17329288984482977	-0.03964616387841463	-0.13100064004806444	0.07371045505062365	0.09795370597353882	0.09867870818862577	-0.0449365103480102	-0.07085638686727318	-0.04939072051882432	-0.06597810747932224	0.1363530257320651	-0.06478941344284454	0.03290441065855998	-0.1877743672305988	-0.14373229012883806	-0.01682332188327269	-0.022427152773689046	-0.031130047016298033	0.23986936300460174	0.0755891746759685
mon_pikachurockstar	-0.1092410065764624	0.03365852545715005	-0.051481539989779335	-0.3151852656640569	0.07907360979365019	0.08676319814114554	0.07317254441026279	0.12753329931149224	-0.07924711451418145	-0.06302649245184858	-0.1062011190270062	-0.09176644622259265	-0.10871654516696355	0.24554030379004696	-0.006604471029773503	-0.13996394234612358	-0.15853745437078393	-0.19945227935089874	-0.11485794937439195	0.005906518028358096	-0.1718242185386504	-0.07288701188436801	-0.01371983448667399	-0.14085753448045366	0.02692678429025904	0.10241133429825028	0.08625886266053509	-0.033778177610957985	-0.18839930189478413	0.25023039651742257	0.14436097857806315	-0.04910420469363306	-0.15030723497795367	0.10338944006349654	0.1145864111477805	0.041812233079547054	-0.06605102301039889	-0.07727805538834837	-0.06431101098125873	-0.050502915932083975	0.07202984029623419	-0.12120282183986096	0.0154868046106064	-0.15136544662275295	-0.1315018401780897	-0.03264498877415903	-0.04532773048763381	-0.06139047230249449	0.2771084158755378	0.10072882316690607
mon_pikachubelle	-0.13539170055028346	0.025219139369786123	-0.04118150927099463	-0.2960332317045299	0.06821720049626587	0.10530297272972489	0.0544639537872672	0.08731959051068096	-0.05898779212002654	-0.032509263161589	-0.11354875277375118	-0.05790934758288542	-0.11828651228190941	0.2121178390958809	-0.026123723465268197	-0.18161281364635698	-0.17212596477200853	-0.2231478388601626	-0.09340976610751801	0.0018822944732188541	-0.20725671306971863	-0.05417846789225773	-0.016174929295683732	-0.11990080721506528	0.020305548261932076	0.10826848961546733	0.07461738272512405	-0.04213133469382204	-0.17577366264946928	0.2608969977929652	0.12062440748049223	-0.04799520068133308	-0.10836241879443483	0.06424191361798108	0.1585663739999447	0.07435340044211865	-0.02804833005066195	-0.07901534440955507	-0.06474723984286315	-0.0654308249128883	0.1407792715970292	-0.057229436149935864	0.0065172029999204795	-0.14602185594308323	-0.11443545335951025	-0.044938385534088354	-0.02391253914667165	-0.016391133018825086	0.2830591123027031	0.0655848762493296
mon_pikachupopstar	-0.12156947260393315	0.03311170046465044	-0.0665172718517139	-0.2684164856607118	0.032787080459585914	0.10606761515747698	0.0540782994775306	0.09993580070619605	-0.07437572016990707	-0.02708154299141722	-0.09304538840883331	-0.05309203428654953	-0.13541760780935802	0.20202929331511119	-0.03234294767341404	-0.18480913864734058	-0.1650933489542833	-0.20841863189490684	-0.09311293729833224	0.00046795323808489464	-0.16978465684684085	-0.061240683939528105	-0.0004495179919410437	-0.10478017518763529	0.003552595592403181	0.12091287777045927	0.08400738261251356	-0.01899745709305802	-0.18244484058629465	0.26116675469235384	0.12060194574968343	-0.03659889034656353	-0.13091078666559744	0.07525762929109292	0.14187436172863108	0.07781395110844586	-0.04048622560515886	-0.06404834137687744	-0.06142265518246954	-0.039905153896427	0.0959336836805947	-0.07557575736414632	0.03623194205805403	-0.15893456161679612	-0.13012196213995592	-0.026185600702688293	-0.024127837125284143	-0.047198517109099676	0.2596902662917174	0.07266381764897441
mon_pikachuphd	-0.14043752434184265	0.019442453133383976	-0.062274800954168374	-0.2839683706859493	0.04742100044846124	0.10077913085957095	0.03943419341593371	0.09747297808213734	-0.04653989205649478	-0.028211132317357956	-0.11745480211103698	-0.0442252248813186	-0.13503595201279184	0.22658326173073667	-0.04370340560081164	-0.1704529626009943	-0.1478348575677343	-0.2151008559914898	-0.08317421304449148	0.0011125798148238304	-0.18960403697198622	-0.058333004658845784	-0.04287018062187888	-0.12230970219662417	0.029971033288364896	0.12167182202668976	0.08897403157510841	-0.030098954348822052	-0.16058767678576727	0.26035174160493285	0.12702875413014206	-0.05785942977508641	-0.1460998248028304	0.05926718113043886	0.1254595328084227	0.0759995732647967	-0.04549014002609691	-0.07904769325913302	-0.045662095509743525	-0.07001533763180164	0.10091506830396403	-0.08232092012286807	0.02437318417029205	-0.15809171257835608	-0.12453875476773879	-0.02089791368530942	-0.037334769388166884	-0.03373181243767156	0.25604217602007706	0.07416627819384976
mon_pikachulibre	-0.12726246437127472	0.02936707730178503	-0.05729196247212909	-0.2927263224200472	0.07803443685787978	0.09124079809693272	0.043232703010451526	0.11495402278551071	-0.05562851551509391	-0.03832353906674798	-0.11507768125620739	-0.05336464691535642	-0.13411704750585285	0.23040272316574054	-0.04416103190208301	-0.1698858775663746	-0.16317124628363067	-0.20877968245545128	-0.1131064359245006	0.011316974960444684	-0.17953513326163545	-0.08097965701919775	-0.049169497907347134	-0.12197585891181646	0.038556871925683904	0.13030672251358266	0.08706148243820237	-0.055663092951684486	-0.17573638918844792	0.2658471694739113	0.13793131610218498	-0.05398415950852445	-0.14170357521762741	0.06927395053588283	0.11546214036458573	0.07137294054064024	-0.046793361633194405	-0.08032232840032735	-0.04530954094724551	-0.07322087842875358	0.11007578051281194	-0.09708330796465735	0.027990505920419975	-0.15260837237731462	-0.12485111204139768	-0.013971288563337153	-0.0484007208891946	-0.039149435302179465	0.26506421705361854	0.10138398683247882
mon_pikachuoriginal	-0.12786449955342274	0.03574664906333804	-0.047984350055537764	-0.2992287857443648	0.07464179210615776	0.0905358405468347	0.03253438310968182	0.10463282139112375	-0.061820988633030524	-0.047130794799349666	-0.12238273585667478	-0.05526016388604386	-0.1429096491180046	0.2288875801514746	-0.040519515630940604	-0.18347580965414986	-0.1603054117158542	-0.1977973997671789	-0.07579084972710884	0.007961089420479798	-0.1966447303435033	-0.08093554075747054	-0.008909285143242473	-0.14180861869622355	0.028264051327245743	0.10792881773105703	0.07089909336200716	-0.022821914317250336	-0.16060735437431353	0.26166057245300095	0.14478924234372928	-0.06406095660549468	-0.10492127257588547	0.049454530854372555	0.1414633685853101	0.10605673967326738	-0.04320120516297674	-0.1028878216944355	-0.05826334602382964	-0.056454739037750085	0.14504578366164286	-0.0737609957815966	0.01202443722460284	-0.1579245554697166	-0.12066790641069411	-0.024758129192452592	-0.026438029928545926	-0.027367362323065154	0.2836487170122923	0.08899282972677736
mon_pikachuhoenn	-0.11805721838377521	0.027005058947940228	-0.0608920208048887	-0.2901982695217147	0.06878640607147217	0.10217415739474962	0.04313651906227261	0.11344448910610457	-0.06256264606480884	-0.03067446200337723	-0.1225661456671798	-0.07555500047323202	-0.14639423112749597	0.22295158529539133	-0.0319798962299671	-0.17396467220449965	-0.16206150581419362	-0.18554096515400198	-0.07771215314295536	0.015907000061180596	-0.19130347779052143	-0.0956577932896897	-0.016674437716530526	-0.14691625478776416	0.04446754589098818	0.11550341999594399	0.06327124895804943	-0.05297156673244045	-0.1707407204876397	0.2476395899564997	0.16118096632462692	-0.08034555711180393	-0.10230888751854662	0.035005322959106994	0.15568223879426982	0.11039196751830284	-0.03653646302002045	-0.07739395998378179	-0.051571482547151395	-0.06351415411945643	0.1584166876459604	-0.06709573038493442	0.011311546124413532	-0.16640757092330974	-0.12005465634807871	-0.02519683905420271	-0.03713162015370455	-0.010146897159166657	0.27950733193965754	0.08593069308445037
mon_pikachusinnoh	-0.10187649567546822	0.04183458707918805	-0.045238639417892024	-0.30125937890897153	0.08321850456090256	0.08673288156121846	0.035887416733353376	0.096444901479609	-0.06576520625022336	-0.043179547297819774	-0.12344982807051769	-0.0727463332440181	-0.15195125351955438	0.22221401292696122	-0.03003633704576483	-0.1688387261595089	-0.1505707761829543	-0.1905133629837312	-0.05320533445296282	0.0153937304678815	-0.201718264582273	-0.07480066274232303	-0.002162002175155849	-0.1408196066192809	0.04524179509381479	0.10046412629636456	0.05712793035312768	-0.02688471510568523	-0.1643215207292268	0.2425660055100121	0.136024826082886	-0.05971875300057541	-0.08066555779196107	0.03901151509724056	0.1746120497529327	0.09249106163748472	-0.029058746598961672	-0.10485014879470815	-0.06378653669147255	-0.05180810955360473	0.15162326965397807	-0.0639631731985324	-0.0074751806809802285	-0.15484702746084814	-0.1151813002749168	-0.030552725654350705	-0.028642725184427596	-0.012349054695483017	0.28727633365835714	0.08804950019987881
mon_pikachuunova	-0.12453493249865247	0.036321893816615616	-0.042472135268656466	-0.29670139160683945	0.06008019413269081	0.1100146658336647	0.035235315485228014	0.08118419420753656	-0.051116529568948924	-0.038571362858700727	-0.11653076929079831	-0.06939939694221244	-0.13469938941537118	0.22740542418503515	-0.033407778296752066	-0.17263874688923378	-0.13898221882171524	-0.20984046369463807	-0.053615240158544776	0.005956942776016274	-0.2176875839048562	-0.050769367484100235	-0.011956435977457233	-0.13263991626631966	0.022803290842995448	0.08409757644176138	0.06744575105646251	-0.02604080023190274	-0.1542960509897998	0.24374340079292242	0.1377167167146832	-0.05991012258678366	-0.09250680354198565	0.03399366619013115	0.16219762049865188	0.09261520425124704	-0.029809877356072486	-0.10025985406694078	-0.06162456478403046	-0.06511828488752043	0.16059930821250343	-0.05862458034497367	-0.00157260380675312	-0.14568732179646596	-0.11515977959749536	-0.044272969217404	-0.026921735725906743	0.009965612602318364	0.28460694213495313	0.06604716168558586
mon_pikachukalos	-0.12989867858645301	0.03230424911301101	-0.049959636666109725	-0.30162354246013534	0.08043010257930684	0.10360085022279232	0.017548496466845545	0.09653042146140481	-0.07233334777289074	-0.03285074740112873	-0.1204362417813915	-0.0641847681237123	-0.1358278787986782	0.22137623318424238	-0.039814661129238905	-0.19897400956936434	-0.167732193195475	-0.19644428308961248	-0.07651202690956546	0.018496823804910655	-0.20520309459526345	-0.0799599354451426	-0.009171460587143758	-0.13642028481223128	0.012104021865893709	0.10509089642861418	0.0769601831646139	-0.04335863751502865	-0.16952834152127877	0.2647453125878849	0.13441400550262603	-0.04915164082709135	-0.08740424158231848	0.042027435871261655	0.14621473362745427	0.10925897017879306	-0.027965636781246136	-0.09518436382656872	-0.06028848889997964	-0.0711783314563206	0.15893631911345715	-0.06354400951140238	0.019341576671729994	-0.16976697605364743	-0.10905437096381253	-0.036524127315829165	-0.013545327692555098	-0.008234980712101742	0.28365167494912696	0.09192587549910523
mon_pikachualola	-0.12754755688757985	0.029290519257052127	-0.06110477099309702	-0.28954910335957457	0.048678365291067976	0.09805715527606124	0.022410751442068277	0.09509001962280557	-0.06530270499379112	-0.041202243605872796	-0.10370284364367315	-0.04725725241483267	-0.14753519370079302	0.2218603535356611	-0.02968835745301603	-0.17441470128512734	-0.13664654054019254	-0.2007130836391095	-0.037371612971751	0.006006844469310196	-0.21140795240412905	-0.06419280583482707	-0.004710636241151188	-0.1409196474467618	0.015837102122617873	0.09580349156000782	0.07819620906956487	-0.02458050894112579	-0.1639097751277278	0.2461719592789044	0.12137801902687702	-0.06350430403647417	-0.08809384285931011	0.030323761458672337	0.15883392463323565	0.11789418436883979	-0.02805673214117367	-0.10194025261543166	-0.06539461373795076	-0.053487750572711365	0.15363274161750448	-0.06468541401798193	0.009483845612126103	-0.14816577247355092	-0.10740242306896662	-0.03204174512030558	-0.012204120758812142	-0.010036739669986635	0.2743097067062474	0.06179595465521533
mon_pikachupartner	-0.14263040656862558	0.03372055843135167	-0.05779515905431674	-0.305426168370703	0.055237092916383214	0.10222466454317311	0.02498111382727612	0.08712893740245328	-0.05151527116595681	-0.038252150165356116	-0.10614627150829894	-0.056500154950974636	-0.1427411271248904	0.2317120631823667	-0.03505867434669701	-0.17824367727466803	-0.139311205200309	-0.2127852987288198	-0.05514160862168701	0.002225826235292761	-0.22710161567113488	-0.055003051543703455	-0.021823042553468994	-0.14457980223723496	0.01932204055175809	0.09565259915238106	0.0822680865268114	-0.02587604556950657	-0.1678526644467019	0.2533290288892965	0.12632465292317693	-0.06923514251896472	-0.10059888762054657	0.038009283992867085	0.15053433574389338	0.10589569986739752	-0.036241968693685817	-0.1066111776672694	-0.05740342189913919	-0.06412229731698155	0.1581544160419087	-0.062283666956211355	0.006238044538924078	-0.14392422588601772	-0.11072346351366977	-0.04413726040217941	-0.02004991502165342	-0.0008934266169120838	0.28284551309065276	0.062459949032303515
mon_pikachustarter	-0.13622963116168088	0.042878420344993194	-0.037688660759379836	-0.31587756953616203	0.08258270008190387	0.09570392196515318	0.04429780089827449	0.11925449948644054	-0.07216131692404176	-0.03844928670811448	-0.11275259176426132	-0.06555740741731429	-0.13883937091278914	0.24497919406801133	-0.031142730709706697	-0.19420156090056537	-0.17424885812411026	-0.20071134102188778	-0.10262076472632681	0.0013735473624402219	-0.21175445357644784	-0.07311057247677963	-0.006747147039981469	-0.13755960714148585	0.020559844704805333	0.09649907905803416	0.06915348777398427	-0.018109281210804122	-0.18852719609057764	0.28117929475996567	0.14515943958814834	-0.04087370748179277	-0.0982190791830758	0.06863601160455893	0.1483112427451	0.07438166849948019	-0.04650101511943092	-0.08401756756213115	-0.07206363239392212	-0.05872162798183988	0.15317202418879203	-0.0639456540214333	0.026510901082497013	-0.15951648783964373	-0.13310465085421366	-0.0369692057448722	-0.018808795201501468	-0.022069079894310877	0.2860784054974643	0.09484269391172045
mon_raichu	-0.24506624023540707	0.03068286346117654	-0.18500151685563593	-0.2715937847164353	-0.07170384659587524	0.15330674866074462	0.027936894324260136	-0.03755976050491784	-0.0662550032364084	-0.0027439726300615775	-0.03571518558760285	-0.02399876270211186	-0.22111263319463675	0.15052336262718594	-0.022828415658086975	-0.18018720623000514	-0.15134587909932418	-0.3603748279935053	0.026699805916706107	-0.0058489129029239565	-0.3112401268534514	0.05862753234127051	-0.04632621595592946	-0.08356239884439345	-0.05432444397936856	0.12038185686234115	0.14603562559796723	0.01825662769984394	-0.21814016987168497	0.2653717982700404	-0.004148145764362169	-0.08989181450209865	-0.10530804352933983	-0.015813613005978767	0.23880856086849675	0.0748376219208854	0.034576955713781526	-0.07716471206759466	-0.03513907280998814	-0.10151529498505547	0.18359702617259815	0.026955465926558772	0.008564815411859697	-0.06810300864616257	-0.11214770987441267	-0.0783199322930108	0.048311696727425184	0.016822377350830527	0.2913024269383933	-0.025550010274605347
mon_raichualola	-0.185249593524586	0.006225145120477958	-0.19131756198857766	-0.2506183516479389	-0.03456147280713187	0.19127031116765414	0.04640891926857601	-0.0222540721720017	-0.03238046338673383	-0.026571286335332685	-0.11875044615763021	-0.06297226559078258	-0.21310265166843323	0.1411472484773286	-0.005048749739098061	-0.12336572078872374	-0.0426952911350809	-0.32728666112943416	0.04183942889226949	0.04065348001515223	-0.29961506716565867	0.02412809795747418	-0.044213757926688406	-0.04762455466944603	-0.048447433014610984	0.11470041776222618	0.16332450396844445	-0.026884647789554007	-0.19943016749396125	0.2354326736077521	0.09318916698951861	-0.019387681579004338	-0.11556361534207518	-0.0011504082115234818	0.316593661009498	0.1197778919194271	0.0765400088618464	-0.09456064686587315	-0.03478642656126163	-0.1145685319125312	0.20115684279690152	-0.021025214193880037	-0.035491866032058415	-0.05534428405683251	-0.11810613235423623	-0.07050429336405395	2.805032494226311e-05	0.019701410511411846	0.32950186963786904	-0.013239295322916185
mon_sandshrew	0.06434669971224634	-0.05214066844365528	0.01803074197609713	0.15138895777929243	0.0023920059662000527	-0.19662210724976553	0.021224142231224832	-0.006167739396457731	-0.01332164529924021	0.006430981708566786	0.14810569955294234	0.09477687533548557	0.11532970210626083	-0.16037967898107308	-0.0718887358764603	0.1126966803962669	-0.08342491027765023	0.18474390970736423	-0.31822898322866416	0.00024192704064759094	0.30973261435730376	-0.06671354227829272	-0.07981142587174798	0.10703133145553442	0.1116479917842688	0.14937576332837676	-0.1405109839576059	0.007151053323504036	0.06088696862952744	0.011652452456000032	-0.035272659020150844	0.0192732717044751	-0.06912583981188991	0.08787873175658265	-0.2739873110980229	-0.2855985438637219	-0.18260214942369182	0.1579405767421609	0.04267648982384801	0.05996902507117041	-0.27202096647093105	-0.0007994078545462439	0.13405464045323037	-0.03769656065289629	0.1322096094561033	0.1695203596783832	-0.05744969619702531	-0.19522917599676665	-0.15975638141151807	0.2346659496893451
mon_sandshrewalola	-0.2096508949465253	0.0028200836364751596	0.003354438626971527	-0.03824937135980362	0.09886418655012341	0.045271995404773314	-0.2532921539120655	-0.07685155516905573	0.05347402604869661	-0.14000013201839948	-0.22905667643651903	-0.1239434995445239	-0.0857156559789398	0.13143571776768886	-0.06512280002661917	-0.03427036613164603	0.07789654860656783	0.12359288745640329	0.08532106321891955	-0.11688787084711129	0.1043253925545679	-0.09588823658680912	-0.16282272117980115	0.09125412241525065	0.0285450134339822	-0.004337576389878293	-0.04789837163326346	0.1340513343406967	0.18707583888678347	-0.1015543510884929	0.024207317981713314	0.16208554874119552	-0.03075834930276948	0.1041531954348802	-0.10969846795343809	-0.2605450064109111	0.32911126654038414	-0.049227794026039357	0.2645968438952601	-0.04816194182214979	0.04598983602770739	0.05162396205646121	0.031017840139434965	-0.102767724227525	0.10487723576212668	-0.0051875870846911955	0.07618858959527779	-0.06593152111682644	-0.05919753128793783	0.29917928702859603
mon_sandslash	0.01286474267445683	-0.050372905628451335	0.05827685062206105	0.1450443600732112	0.13918210906631276	-0.18077528740271664	-0.0008921501590383491	0.050315235033734376	0.05016715773913085	0.05266624038511018	0.045424296793667364	0.067116704236715	0.1788351736864715	-0.08038139815119544	-0.03272212682813726	0.1307421380346069	0.017411290389855647	0.20511386820877955	-0.3064592937424907	-0.032869055708310745	0.29608860356369704	-0.0957349527798375	-0.17316763959799716	0.12016336332998813	0.15565131275325	0.05366301810352448	-0.14483015001630686	-0.05315272613680387	0.1743959656776628	0.07152883192296516	-0.06610601930826611	0.04632557242278397	0.02987294655792175	0.08013732963290542	-0.3340135476562267	-0.274664149973553	-0.17279446752274868	0.15959583753580123	0.09242509230432686	-0.05677020447517589	-0.16054055772107365	-0.01740670816434276	0.1342751947371822	-0.005881806694747165	0.13779150608906257	0.12519866197602655	-0.051686944669031065	-0.13604036979024162	-0.2052809193444456	0.2089868834939843
mon_sandslashalola	-0.26522067531653276	-0.09315658643163638	-0.05897208005561152	-0.06624733437195895	0.051556063457493397	-0.07561014334640818	-0.18641174038645522	-0.05580542659561426	0.030108318522023763	-0.10562552097640726	-0.10669646148042898	-0.014422649243183223	-0.011912435598731244	0.042050850872151914	-0.047747974841944985	-0.020208377762263446	0.019922561262417333	0.1364178324972344	-0.1242298042574944	-0.07228887992285525	0.2067330102689388	-0.09350713112151668	-0.20862784592977854	0.008414387454092044	0.0794990800538223	0.11343074902067236	-0.07837845002697207	0.08032001090372803	0.0723850639326338	0.003345874486273267	0.013482152216558014	0.0690257773738701	-0.13876364377561282	0.16125527113824964	-0.27752616692108467	-0.29299279033777	0.15029807531484804	0.03093051408868675	0.24330350546004262	0.020815248598174328	-0.131618781043388	0.04612076743359794	0.08179696471964779	-0.17505260416547316	0.21677737734255853	0.09813035431817316	0.04566851632542366	-0.24096247146724908	-0.06022289926480965	0.36940391749782897
mon_nidoranf	0.10666261789685189	0.10975651814132774	0.09060023567876474	0.13418697075706554	-0.13736312995871075	-0.034656253527084284	0.055367410933794346	0.03855516717921346	-0.006069484002619789	0.006658659974606386	0.12635453463673316	0.20480713214520851	0.07577802118861944	0.16377203998029197	-0.18517072598154666	0.011266014277914441	-0.02998757350478448	0.056009683271066035	-0.18124467735460267	0.024017517381703386	0.2634971311521728	0.12453957684803733	-0.06073021669756013	0.030600188815173603	-0.12293149802752307	-0.057663648989170535	-0.18474547939371144	0.20229243861992624	0.05680025476726796	0.037150353486118955	-0.0553576156049491	0.04069921757628369	0.029441587914964647	0.15869381214890296	-0.29167839914949767	-0.20117508370044274	-0.1308956811579322	0.07145189669144907	-0.19119393310379842	0.24377686756507433	-0.22821080864208076	-0.14270211482675352	0.1615862142145986	-0.07607806141361094	-0.127849183015813	0.19125902968682967	-0.09434810356104603	-0.1479976593924874	-0.2582385508637812	-0.03360159516835778
mon_nidorina	-0.046085469856576876	0.0844239622351945	0.05183680641592971	-0.0035386268226504564	-0.17971197461437108	0.05351395791923923	-0.06440664762766264	-0.09120808173299402	0.12598540454855378	-0.13879670350379258	0.026949098822432793	0.15881314339740676	0.04664226757473351	0.41735528350678286	-0.25299607174143995	-0.04714116074909369	0.08012268666937541	-0.1161603332137428	-0.09851579942671092	0.03735179033225861	0.05332833344901441	0.23155695445204655	-0.10749468107184403	-0.026344100551796645	-0.19094601567148953	-0.15647114243658125	-0.1021253107220525	0.11704822787574908	0.026616524254810512	0.09355796157293082	0.0014669361267647004	0.05998487898728876	-0.11691196666665783	0.16567149072198903	-0.17395578464911277	-0.08103570073390565	-0.11073896556600286	-0.07381783746995817	-0.04300053700497683	0.10380878046915609	-0.06115173264561769	-0.2946957728781558	0.31817650233937317	-0.09394820538887291	-0.14484603589777434	0.11570782693891046	-0.07270857085392489	-0.15877330508011916	-0.13747823148838703	-0.06073438329390232
mon_nidoqueen	0.37599282323920513	0.3202080292616284	0.13537020809027994	0.014019438263193003	0.10077018382350209	0.11322854090457173	0.16635410524520203	-0.04156260350853535	-0.055915592532796266	-0.19157997595924747	-0.10063065280109465	-0.11291219570210247	-0.06535711357616109	0.17632944063827807	0.010977584017276509	0.12365869219529589	0.10588132235497817	-0.1189582606848446	0.16521425802203052	0.021414964365599472	0.18588775844094899	-0.03304333046907854	0.03624509356513862	0.06688409107038609	0.033811350728673306	-0.04682794408692267	-0.047476617687489356	0.1681057989654771	0.16341639047931422	0.009429919974810925	0.018743049150577156	0.30080640767670513	0.06611715924758949	0.03878849559091041	0.11357007828989371	-0.19582088515664742	0.09092074770639576	-0.09184487536799169	-0.12245966941137477	-0.14645028090000184	-0.03271182107755375	-0.22637271233938466	0.04100083173459635	0.15227689116255935	0.05302998568622744	-0.023072749267313945	-0.09315468525491621	0.03608288094330165	0.24857747061048327	0.1609748293999938
mon_nidoranm	0.02271828847556307	0.048912330239621396	0.06471102408551282	0.07613708562363702	-0.15246747840537486	-0.10196648906696072	0.050197813591972444	0.017226039995151834	0.04010601848580839	0.052707791759622015	0.0785411118382927	0.23951986713136367	0.03730002121360254	0.17354261921162584	-0.2379634504592979	0.03951780657012436	-0.06956225278976007	-0.02781456991013042	-0.09695791980862642	-0.01612874990712649	0.17571409268421714	0.2429234335025565	-0.0678407607410646	-0.04167105473009372	0.017527223346509826	-0.02971087523815509	-0.14605516633371085	0.19406217576717358	0.06029137962584035	0.09293293329761808	-0.07914299053715207	-0.05820987793086631	-0.08664784711853907	0.18441530110783957	-0.24111307084687947	-0.2350255365670694	-0.2126995622221507	0.06258786743269848	-0.13314072301233107	0.22218853236995537	-0.31867931051437753	-0.1385219728215471	0.12446134596845984	-0.10806996082950977	-0.12677381479718822	0.20360506366507505	-0.12154331351472739	-0.0924457388717005	-0.24931831068284374	-0.022341851004248778
mon_nidorino	0.014908178325547505	0.10736592757484047	0.09164596395879863	0.06816835462071749	-0.14113263023038847	-0.09235135866397068	0.06831586514413795	-0.0013488563423572069	0.035195357348693876	0.009354405236917713	0.07563720430412221	0.21909570409876966	0.05891319997781423	0.19879710770115006	-0.2252207315750395	0.06014538058309371	-0.04597002977142542	-0.020878787368587486	-0.15849479062278787	-0.0004658186605589895	0.2032871661756814	0.21233108562848665	-0.05861072116687938	-0.005398962932615273	-0.029440045923030463	-0.029926280469938848	-0.16732220778916396	0.21092632266809366	0.045688778475246966	0.096503369217296	-0.08936692723311948	-0.0323906663833293	-0.0525610345291963	0.18919116144338774	-0.23059174788206738	-0.2682231471758873	-0.20584816041004989	0.05069574750004981	-0.18445522058672476	0.1986749997577017	-0.27191491728720046	-0.1594159613316514	0.14059240588540906	-0.06317943006066794	-0.11152890649172292	0.18929047058035392	-0.11152820595748299	-0.16010960550248562	-0.21426167157111747	-0.013210013991917069
mon_nidoking	0.3070861321790234	0.32390504025142264	0.16815863872607625	-0.059296196023063075	0.09661180102932795	0.10236573004261618	0.17530677026860475	-0.09913244928260197	-0.10452484586125908	-0.1283538130633355	-0.07614668888384712	-0.13293834898352055	-0.11887234912570273	0.14179713593077714	0.0005497131519525613	0.05897537489989501	-0.05895656568565612	-0.1783017099247658	0.08932898171355627	0.007650945253723842	0.14932899078698816	0.01209527375680596	0.13649306029635477	0.11867552682254605	0.01341782075752455	-0.01388643918173798	-0.09821143603001015	0.24322603608500254	0.10434724856854866	0.04240838322763781	-0.040633383437242716	0.2326142872573309	0.16661547036530464	0.06416799401247296	0.22351833935370724	-0.26983815089437124	0.18662200181885616	-0.04419257953361572	-0.22199297124347317	-0.06700609685929743	0.03494673182648778	-0.07101604676791316	-0.015966869844646157	0.08124587223675839	-0.023795408460762762	-0.09261335369400446	-0.059594457599059146	-0.03747832886460874	0.2467219432691137	0.09404046358516442
mon_clefairy	-0.09034872306992123	-0.0060759692927672216	-0.19900561050830867	-0.055321528565843485	-0.0208218343561885	0.020214668217168583	-0.1973243744521168	-0.034072715059949014	0.10080475822409382	0.004097282847092417	0.041374966074710334	-0.10713664803480763	-0.17370577266556678	0.08451178076872765	0.011285131027797745	0.06270373399370958	0.21496101517929048	-0.00808150495415567	0.2985448098941764	0.06540852238922439	-0.20211547972497335	-0.12518922925780507	-0.09807595913071754	-0.1256514038312503	0.09824736424360947	0.04344090879290742	0.14801719868805277	-0.18892725169437022	0.024562819947986807	-0.2363568920217269	0.07489759471694392	-0.22110447369681915	-0.023779106294929856	-0.27421005840972235	-0.020559667171531085	0.20734278218171545	0.15910053781296848	-0.02991935471410534	0.21341157314683987	-0.14216156611278374	0.27067604587899696	-0.05202430509724504	-0.17052881014915397	0.10484772728806335	0.037382035733156065	-0.056916635536022976	0.0696503963823534	0.21212473627097642	-0.14125913325390657	-0.15626907490713654
mon_clefable	-0.055788089157348356	-0.011023765878367595	-0.21014946080286465	-0.09291370321173695	-0.0143440449964927	0.01961017856973854	-0.15173161800582338	-0.04653808007889578	0.0810706919571426	0.01625035461512258	0.027692263605892546	-0.16381481669512848	-0.1923491567624627	0.11390242449171828	0.02147561787447712	0.05643868734704021	0.18705041508856046	-0.05529503797740294	0.33158856360625977	0.059526991870310346	-0.1889257704776817	-0.0919786522407663	-0.05110228286320095	-0.1108034037487514	0.07557000310689677	0.026758346552057683	0.1856172485857881	-0.1830681372148676	0.024837081650140407	-0.26668525704853	0.10523061087555219	-0.20820825636536647	0.004633521912200349	-0.26851645199193663	0.03125629107742525	0.17180866337903705	0.17138897007736834	-0.04819399888210578	0.17765355905182398	-0.13922730193259417	0.2794308223884001	-0.0699402901641634	-0.20683305641144595	0.04977858763275148	0.028429759691298757	-0.08962711475741815	0.06395787740238905	0.175103366267225	-0.08788484187991	-0.16781036673209176
mon_vulpix	0.019604291486583058	0.19858169064632095	0.09555086078212228	-0.23166858796102507	-0.034868254657958175	-0.17009361130055012	-0.0125959074455377	0.07232329005660815	-0.011865434611524778	-0.08882720351944591	0.02031553351055116	0.05871090977873421	-0.17273826997471925	0.11470376222508107	-0.09981159439053376	-0.0017452299855699152	-0.10587004556686971	-0.2738025378457254	0.20260848505290313	-0.14819657348601803	-0.11245548968713927	0.18392050374732175	0.2497263395689966	-0.13243663092573818	0.21577687249295077	-0.047678206684370825	-0.004910780824256796	0.20312988068389745	-0.03955627266224799	0.08286912437671526	-0.18938615559579516	-0.07754969469202327	0.06011581981081145	-0.0019145892123957305	0.24786466435838864	-0.12238825815831154	-0.053037450143582465	-0.20488498400572444	-0.22916156022514683	0.01570051300979667	0.04957478067577131	-0.015018742926731714	-0.1472686274423198	0.03971584840082847	0.012027360870717664	-0.18703327906100947	0.10304541671625213	-0.02460345570230371	0.31249259987270217	-0.01506269526895353
mon_vulpixalola	-0.17687605618443142	0.016572233619165586	0.004359213791199778	0.01727147752506325	0.08187192904615023	0.03923871685878164	-0.2546486823598638	-0.158938048618121	0.13965458452794643	-0.03872880688689305	-0.2440158637537849	-0.11137193050938805	-0.08010440842337468	0.06996567061893434	-0.07399281667663733	0.03281556324492135	0.06027024257419206	0.06765752955027485	0.14905909450115573	-0.05874435568160753	-0.00354888105112363	-0.04553246620150206	-0.21266070042110108	0.06371267402576913	0.13424819249616157	0.01033167373515807	-0.025435291517147865	0.07012100674055713	0.18650405782259932	-0.15826017308581783	-0.027827657868725885	0.12033232717828109	-0.0493152297999733	0.11018046227895471	0.004687436461527423	-0.28095213984501577	0.3158684689682065	-0.0746510678622927	0.2651473903433006	-0.008043461164119445	0.04079691151461593	0.10824922427550114	-0.06921431194854494	-0.06133968585952752	0.052880420288478044	0.01513559435312072	0.024091783040286082	-0.0028010900559421784	-0.1324973170984281	0.2665722003156113
mon_ninetales	0.05357233056549429	0.0931206512262537	0.049936131348625186	-0.1250895827209055	-0.09303178530409581	-0.06979062651911597	0.10076541170003178	-0.08770657499402419	-0.002536813604911636	0.10065450023501363	0.018751656681678507	0.03640637311196643	-0.25901222173259003	0.013556027581429063	-0.06698005634693038	-0.018884206830833535	-0.1550201422423238	-0.34382020693931636	0.2179304541673086	-0.05648720397034667	-0.100295155640876	0.2657833484482886	0.17243324266747811	-0.03130684402959145	0.21180273374113226	0.04227428110375426	-0.012132356394851619	0.10186314899523909	0.03703753118303664	0.04726464077110658	-0.15575652621612293	-0.07406372142512986	0.09307842669195411	-0.04958758799573178	0.4314774019387948	-0.13383081782226483	0.05303295781644922	-0.1302234624764701	-0.2083230772441825	0.004938971162462967	0.005232093960302213	0.032428177674010156	-0.18999759530332752	-0.037435904814556616	-0.06402522206665623	-0.14539455715257102	4.8315231310119165e-06	0.09154059444689133	0.26095002089389946	-0.05547378284578811
mon_ninetalesalola	-0.054781351385764385	-0.017415154548490103	-0.197279603750914	-0.0015964116365608481	-0.07614663751369685	0.005632845513402941	-0.15159677383217418	-0.20280198742366062	0.13772101413846277	0.06770889339618245	-0.18300619653555694	-0.10343543631326654	-0.3095599905613045	-0.04332669107588566	-0.07337966266172014	0.13169712550756058	0.051481190810866675	-0.10225418309098398	0.339905511195283	0.0199086267819857	-0.05571090581633477	0.0257568893631164	-0.09381540533893942	0.043041402330193684	0.23082277028424278	0.10525477305785828	0.0616518158364946	0.018292220428724793	0.11487305223538803	-0.28635736240489723	0.01361130658368683	-0.08511202666849262	-0.13546629480713257	-0.03640031484721222	0.24910451008685813	-0.15270398955686973	0.2700654124044961	-0.044987543430045115	0.21890521672863678	-0.017210305840619767	-0.014464915256268604	0.08195480859464102	-0.1901283899126304	-0.04403697786178904	-0.09356642536853343	-0.01954112084678802	0.0175142777155061	0.10034357831979977	-0.13195066589955143	0.09614859379636051
mon_jigglypuff	-0.19647202449951695	-0.03654738867862253	-0.20810308410399173	0.009878705520093902	0.006092323045759598	0.029417098983055237	-0.2434357344950716	-0.11560673248893918	0.08647302796700257	0.04250787879637602	0.021784711349254453	-0.11548479662178696	-0.11798625999435236	0.08649739991586954	0.03666524641268463	-0.0021088293848742076	0.16434913196660966	0.01375563534630191	0.236741294296932	0.09042675777160677	-0.240817152354392	-0.10573908512506248	-0.13134636920197962	-0.06944930429330673	0.01548890114398667	0.047176119319697056	0.1303012559220079	-0.1606870480147427	0.03301625738694266	-0.22778867738685243	0.08739827130468067	-0.21478048350597684	0.007163743041593353	-0.26088650310022155	-0.03632796238677241	0.20400357473811698	0.10682752374571461	-0.0017043637957958452	0.2578315153786575	-0.1043106135937337	0.28702431733082495	0.02047444047230046	-0.15366359584182454	0.13297989528949092	0.06337257868008242	-0.1410197721294943	0.10331572151609855	0.13417569968930618	-0.18112006111322354	-0.18241485579978717
mon_wigglytuff	-0.09532051750515273	-0.0061146894639077685	-0.14148246386468372	-0.0364722889921968	-0.02557806663209074	0.06646474289051955	-0.1743346165306671	-0.11293141281377181	0.10343064173048849	0.023267573025465105	-0.0029324538056450696	-0.16836387516035245	-0.16580079636290762	0.09406428745024718	0.028112869730294813	0.045662792277320306	0.17732261299620572	-0.0596098185075431	0.3183286848002709	0.08837347342899304	-0.2634577352307114	-0.04878136355343078	-0.05624445990306999	-0.09982305860051423	0.03652641504429861	-0.011904636739494144	0.13482387863879	-0.1401127833943149	0.008996861171335893	-0.24011681066787088	0.0950336858292556	-0.20321948595062708	0.0468297229142821	-0.23130485509491414	0.048443650690684424	0.18885512479339622	0.16349559169005068	-0.06662988889328972	0.1877499481773216	-0.13719410762149556	0.29739374664044194	0.00583179580981014	-0.20037833017905451	0.11202965543053423	0.011439083671396743	-0.1479068085141954	0.09938134232431149	0.2137472747312974	-0.08943553586600497	-0.19520202098235523
mon_zubat	0.04386501764834273	-0.12610933003667232	0.07430669805623849	0.05556658615339375	-0.042913518132559066	0.0006253009629001782	0.01784685181220452	-0.019899969800996075	-0.05390845236860487	0.23734098200515108	0.07069208168091475	0.10687004281977645	-0.018950020564984058	-0.1353755477071536	0.04031433190147557	-0.11368058531665527	-0.2613489299155178	0.10014714890645188	0.19267332053569203	0.04335210818509872	-0.20563268529249032	0.15041032165886128	0.28476095245921557	-0.03314645490437561	0.053785306503635465	-0.16296244462968446	-0.1696951782875839	-0.07102009788419936	-0.1446173747301029	-0.08628466507113365	-0.10744460376553575	-0.15363771870043677	0.1719538214850426	0.07459031478350284	0.17602568447051956	0.24899935949136665	0.0656173073189929	-0.002786100321115615	0.0007569058789572428	0.3045432788744051	-0.026134364233429748	0.1978667623485219	-0.11961103647138717	-0.1335068350558496	-0.10639795628120662	0.07865330562083789	0.0742841383197103	0.25683230672654195	-0.11964526886087855	-0.22517363285204164
mon_golbat	0.025785552260388107	-0.12116405112690252	0.1690067184265632	0.09325146955142734	-0.0058394467185468694	0.030242036599566233	0.014358577005842794	0.008318493346836087	-0.09281552788719294	0.223669668081979	0.07743162144710422	0.053425734586457635	0.08205623035600683	-0.12569193462282532	0.10722852628873251	-0.2064498140674908	-0.2817341450360431	0.20203442787770762	0.06679622556014557	0.019784966244365428	-0.17628976596160342	0.13065331240984482	0.272062237071143	0.04174332660525238	-0.06097008530876099	-0.19981059817641905	-0.18767551550191647	-0.0798282425437699	-0.12974198554655886	-0.09640919792212034	-0.08410461412757099	-0.06279056649300041	0.23302882988619528	0.05793531830218282	0.10333102749350266	0.23157375079084425	0.059598169085569766	0.022454096035751717	-0.0018941095269970245	0.2596745468302174	0.027504701520958838	0.19838856219204662	-0.043584246717483954	-0.1285369285053951	-0.12118927669022506	0.042448837534702175	0.09419801330180319	0.2188732703458572	-0.1459955529917815	-0.24474979947445463
mon_oddish	0.16030713276821082	-0.07742402119434376	-0.20332722441894294	0.12394472543155398	-0.19703368700995466	-0.013338924923965016	0.030136840305688917	-0.07347209036018319	0.09010569608414397	0.20881921174440435	-0.055050446080860634	0.07534614359499507	-0.3011395260497322	-0.10016521996944848	-0.10465747970793457	0.11327632945973344	-0.04654910963501507	-0.09892325995530102	0.3206764478047424	0.03155158607691611	0.018265594860529758	0.14343491177245093	0.07439163437329603	0.04794651914738736	0.23626408294900766	0.12606685179931382	0.043025566924672576	0.04261489747263638	0.08340182467929726	-0.1680854015150386	0.02601794719212614	-0.08284146554871943	-0.14451346051751296	0.002446607766083335	0.3853652514850012	0.004205716486420477	0.08025804607915547	-0.008215383321658838	0.0612257646345271	0.0859507323517214	-0.264133103369121	0.026404500420491195	-0.1283626650625548	-0.07750905214488578	-0.24482207806662618	0.09635978839131724	-0.13014267978971247	0.14922491938389149	-0.13179727740859273	-0.0030801782486397783
mon_gloom	0.1813808554437021	-0.08068828526030987	-0.20617650797830628	0.12768361368814993	-0.2105658613473675	-0.013443609380033666	0.045688692593262824	-0.06596814635314338	0.1068248169892189	0.20742453091362664	-0.062002863788904274	0.07947990995073796	-0.29079214081997873	-0.08510720859419331	-0.10941392482883752	0.11517108285391417	-0.03741508261206084	-0.10391423127895667	0.2961226737532108	0.038598920061305796	0.038725761528948535	0.15494159674722421	0.045319710297594476	0.05674371902450798	0.22437136600962446	0.13952489525245454	0.03374312539844039	0.05573768050318228	0.0922125263301942	-0.15198523901743313	0.012813726528800655	-0.0426819390880909	-0.12764407007285708	0.04259021582390486	0.38915820837583465	-0.018619066510040274	0.07781485522647122	-0.014038914381904806	0.047420711266302464	0.09246813358735043	-0.2803545676137536	-0.0022981290064747265	-0.10808970269241286	-0.09085979711126316	-0.24928844900110816	0.10563617373422379	-0.1588718382306225	0.12732701221304915	-0.11445053604988711	-0.006863551111243785
mon_vileplume	0.13790320540655068	-0.10042728816560433	-0.24248496559844665	0.09723247942469561	-0.21287628993447782	-0.0185031299782253	0.012623757793403198	-0.08241392337138276	0.09080398960773008	0.19437224955033736	-0.03327054485011821	0.07165195861346306	-0.2944964947969726	-0.09053042689109228	-0.10417592866548565	0.11100131062744491	-0.04469382080175122	-0.11369402738418453	0.33047280353287717	0.04307999414765188	-0.009666650383262115	0.14827514782582565	0.058918633825173754	0.015085799899193935	0.20990563313539423	0.12160573788589697	0.06281727876182194	0.04228861966661335	0.07407706065093009	-0.17700776483622443	0.014345446371282478	-0.08981977437658097	-0.15882610056627144	0.011614170446668303	0.3593622281060044	0.024859720005698166	0.07092594629129197	-0.01692092769441146	0.08395344867771995	0.10730832468503923	-0.25657344975318747	0.0071964248962199644	-0.12930074050066423	-0.08071953299937523	-0.22425830128843224	0.10852140732492942	-0.1360319992297578	0.14807747484789224	-0.15228841727944425	-0.03096755967030832
mon_paras	0.15959336682849715	-0.12584617903312395	-0.19829971001334948	0.17513295050256328	-0.21298169229329653	-0.05141493358730862	0.03067502600500848	-0.09706648269060783	0.06343598550759019	0.1881746709901814	0.04561510003378072	0.1324811239745661	-0.19998464951445558	-0.1599672662482551	-0.15498643289801403	0.12768627134257116	-0.028162721484405476	0.008887070581718075	0.15549743409510816	0.01522934236479689	0.16439553720150019	0.055393964102761546	0.02856510507401021	0.015064129257859766	0.2063319967461044	0.20173177653271313	0.011116191118758702	0.03889494841466338	0.10896006462117556	-0.14588827758246192	-0.0184914192530291	-0.06337911614173018	-0.23799147824599529	-0.004563830250733447	0.19392404781096784	-0.028216426723449508	-0.02902239164020852	0.09607566820277569	0.11890480608893667	0.10583902238801106	-0.3454458775820602	-0.026797383456789933	-0.054326179286525944	-0.08415099101697196	-0.17258494226086965	0.2350863131009347	-0.17610349573955472	0.06813427096108515	-0.2904308351161023	0.04084744099945117
mon_parasect	0.15095780103818693	-0.12725003888351466	-0.20196125385180866	0.16844677785723577	-0.24117403185883804	-0.04902369325841503	0.03907433278301246	-0.09037965713986394	0.051872586754184144	0.20311505097876367	0.05266004335599163	0.15789786206650935	-0.18997191679476175	-0.17592387956687483	-0.13516978834846372	0.11673287305233403	-0.054127378965632085	-0.018432749354891753	0.14805668791524862	0.00935049361200618	0.10560821683789519	0.10414091965130139	0.03173902089605479	0.020315036207338807	0.2226885096085038	0.18807674990728412	0.00393748185354322	0.0627242655682756	0.07647798863232734	-0.0971041065729196	-0.03287977064030293	-0.06513398117541955	-0.23195358579657482	0.025084287965584248	0.21624986113126632	-0.033380381045427725	-0.0794710882552394	0.0757027486889556	0.09016216167107864	0.13620549724408257	-0.3648526111570634	-0.021088297619481108	-0.043689262631027	-0.07695920971074108	-0.17418239847282585	0.2334316311056574	-0.1892641836960069	0.06715206649013468	-0.24658666597814916	0.0303039590090405
mon_venonat	0.1623756505318856	-0.07073209577968098	-0.2550538603795702	0.10830147978223863	-0.2041435314082404	0.013822437881738252	-0.014253112682089076	0.0019390294979301542	0.08768145478685074	0.17791881193750558	0.09467340009731344	0.13779295310924117	-0.3802898909624789	-0.025103622944458948	-0.08996254072501164	0.05259504311452906	0.0426880096114826	-0.05752484205109655	0.3051144908671457	-0.03830203558045335	0.02946744901209175	0.046235485832998184	0.10332030206006988	-0.03487573146421468	0.14287978712380928	0.07831855882255086	0.08445825921746222	0.0693090251174429	-0.013355003445995871	-0.13361601251633384	-0.08418504677099617	0.010950278297633611	-0.1261005987917423	0.037627574414249694	0.3351970765900676	0.11724176447723207	0.06854040369559125	-0.07015703821922649	0.004897581099810921	0.11631278086978016	-0.2960639658846715	-0.0365586748869205	-0.11278276094834047	-0.028003649623946934	-0.3030776144239843	0.13580615697588916	-0.14350256575669298	0.06931788557099718	-0.12722254915457148	0.03868967201247076
mon_venomoth	0.12550049356585422	-0.05716753269787226	-0.2367858419910051	0.12100467402045542	-0.22716407044182177	-0.026646213926659973	0.024627541776074832	0.07258598153626909	-0.027095207981536796	0.17666966144656882	0.09030529471738419	0.10289725945855059	-0.3145778591163338	-0.16424896468129155	-0.057393051730456925	0.014994531308933665	-0.14174732421143807	0.04037019149720222	0.2644437528260426	0.0719008325644092	0.045154602127705876	0.044224231428213606	0.20445350754733296	0.0012850255931129342	0.1399614215227962	0.03219987080177314	-0.06417347595711927	0.0045975107034584885	-0.10852870570904281	-0.07378736578806415	-0.06422126238506377	-0.02641214109443966	-0.08002485992815518	0.07654637904418285	0.22773447067689245	0.21223203406446436	0.09850115050417285	-0.011172909896949725	-0.01104367626068614	0.31075031087905386	-0.25462446969675007	-0.056393018245634086	-0.08534282966340247	-0.14519763365049337	-0.25286492288880436	0.24127712095735593	-0.06342891578612767	0.07586888043909283	-0.12440578143810589	-0.010573812007793002
mon_diglett	-0.013582299589893132	0.0076074249513815185	0.1572290101455467	0.10012023320152638	0.17502316907024215	-0.19414982999978875	0.013456071764329846	0.01786712157340389	0.09697005460426412	0.0032396954131276553	-0.09239496071827365	0.0538589759135448	0.22796216248424983	0.02407919004309931	-0.11982895022266636	0.1764187142014196	0.023615934562203327	0.1015376435744115	-0.24507928570266188	-0.03158555402364477	0.26791713318968474	-0.024023964093745145	-0.18771107947123125	0.0830344153538482	0.19975619161856625	0.0550536570575057	-0.1017425707463207	-0.056492507866693915	0.1793254369248074	0.08257799709268954	-0.024370932017598598	0.04603715048935957	-0.04949287170890206	0.12864393373653035	-0.342139144074306	-0.3109966882490305	-0.1748469496646273	0.10391048913543133	0.040042201035465706	-0.13231758223277468	-0.18375983557616252	-0.02005247587590594	0.10164309714336181	0.03306523546844223	0.1696533122700543	0.0888837016713077	-0.10817138152413984	-0.15033804362429382	-0.08285424330303937	0.20206945596741868
mon_diglettalola	0.030669813182650583	0.007016297515401466	0.13082443801850085	0.007679142117134396	0.2938667454003457	-0.15883421290566105	5.206011204326117e-05	0.08029907596683222	0.09291018525278714	-0.0661867463128513	-0.14947784565805045	-0.0426618949039081	0.14458738930388582	0.008343835442779234	-0.04040463388500632	0.206084731423838	0.07893774757506618	0.1699838655574246	-0.18692988429562707	0.019523165404319462	0.15290362930150575	-0.1547371078482391	-0.1644586009844152	0.02603179635525999	0.2799139161480107	0.027807126296863854	-0.06543810208572097	-0.19334700748834624	0.08966342031722292	0.0855807298279209	0.04370787421120803	0.08330392245538266	-0.06773754196987083	0.1468879842479581	-0.26509111985359807	-0.1997553050162423	-0.08315005985610034	0.026878412914793728	0.11397095931097402	-0.18264935341513214	-0.08339802365635975	-0.09646382615922604	0.014505567511083764	0.06199723224904101	0.18067095276666245	0.09515243093896202	-0.0900674001706891	-0.09566449491522008	0.05422993364337603	0.31880242536985304
mon_dugtrio	0.016375336437823095	-0.010865067136762722	0.20303529103851398	0.08575732826757657	0.2487356182111072	-0.2275494156997374	0.08325383656897911	0.04916678680120433	0.05389291885982845	0.016819755999533666	-0.04598863325100163	0.002807834832563588	0.24387812229572875	-0.07567940191314891	-0.028560818921117562	0.17761836559184202	-0.035161469631555156	0.1611526441276297	-0.3423353820440698	0.03213673665940689	0.2280801012961251	-0.10378209097967069	-0.12441063250285743	0.07652526957425448	0.2046374142524979	0.0418637039907424	-0.13309229685644666	-0.1608582584334141	0.0681828916424877	0.068317010162817	-0.034894719397133525	0.04154367027960312	0.025572433483818293	0.13675363520060316	-0.32777799034564603	-0.25781356484834717	-0.15333048619781695	0.11707454984541554	0.012809007318060672	-0.10317146821423293	-0.09561394378105774	-0.008225692783622672	0.039554367716211784	0.038564973216523024	0.178095936748477	0.07270852923373594	-0.060381886240009106	-0.17623995573832882	-0.03379771371424555	0.2101669533786112
mon_dugtrioalola	0.01638913002971593	-0.007709950093139723	0.16750968598923172	0.013548241803871819	0.2609227577359519	-0.1965914233592699	0.03964425231612325	0.06743878517704287	0.11601218227525142	-0.023231703059474654	-0.15246682045048265	-0.03063739314225217	0.18008678949611953	0.02841513270873262	-0.06981185538107566	0.23801636587568983	0.05434460897533309	0.12474455014227247	-0.18582096016265	0.014912913808551326	0.21752662416467947	-0.09896758801201005	-0.12983252229524056	0.04397869869120085	0.2882648087233896	0.03152642963726885	-0.10560357351129396	-0.13226399221854943	0.12744035978430585	0.0639104063413062	0.04641214721401265	0.0669662196568661	-0.05039012963377283	0.16762438468906796	-0.2949159596601844	-0.2680723964563546	-0.13932826692939268	0.07358997346459607	0.07846649154371521	-0.16307662778392856	-0.14741766028099637	-0.04976863498192457	0.047761563166676596	0.03763402439610159	0.17032165599030727	0.09212172204123444	-0.0987137247957442	-0.11953528129572903	0.004689150503835196	0.25521708342486615
mon_meowth	-0.21255596648796782	-0.22003858084062639	0.14955612909470548	0.1515049306914129	-0.11424953752706453	0.03572506059405925	-0.16354359962203466	-0.057621007759189186	0.048593761541481914	0.24330299690913654	0.11949279177465445	0.09288245097755836	0.2312573633529138	-0.10989073759339683	0.013068961179538376	-0.23155757216714576	-0.27738070869738923	0.07960361371415982	-0.1591814158315923	-0.1290477918474657	-0.20763585157666586	0.09014349883114708	-0.011538697511490625	0.02852062961138852	-0.08930339673640146	-0.095791264635604	-0.04420249002092221	-0.027764083800433086	-0.050847428095450564	0.011826561646799329	-0.19727771404703473	-0.1578714051444388	0.09824236136659555	0.028332574878243588	-0.1107580347809086	0.12491294637900292	-0.04848303409480609	0.05853603958945485	-0.01140571856882568	0.12232220768809127	-0.008969952177531536	0.2658820399870419	0.13831924388218522	-0.10152620615059854	0.005235382153740678	-0.005510849753531795	0.07246901222737981	0.08294363155091512	-0.27777075364169396	-0.26284811625170784
mon_meowthalola	-0.26791398186478527	-0.12115483552202005	0.09371090843805524	0.07067140713148239	-0.1658728884886974	-0.029463212960536073	-0.1190575818900035	-0.17815013319952394	0.12264102718505404	0.1408738825806636	0.04152307053868548	0.19287023821032623	0.21367191422675103	0.07443263866870768	-0.09741052685095532	-0.11233333491755566	-0.11781106990838602	-0.19661827156005526	-0.11175022625538013	-0.17254203996234055	-0.1514494948978357	0.2380520230221629	-0.2035231351331685	-0.024073415122446668	0.015565642037614121	0.05661539275872643	0.019419049870928993	0.10587637379223974	0.07302213682181291	0.07802563858184752	-0.20413577391858967	-0.16991200578754634	-0.05078991524214609	-0.039723392260891596	-0.1388888929575619	-0.08282108339805438	-0.15433144252821848	0.07126504038755037	-0.06289307694444993	-0.06283923912426102	0.0006249595024940924	0.2179153333856383	0.10652013921886919	-0.03079549289102746	0.06288962697081667	-0.059350065739626694	-0.022675865942792417	0.03245145691127722	-0.17044114465699045	-0.20554292931046503
mon_persian	-0.2700904585909077	-0.17044006065247355	0.056835645955042896	0.15266145981017487	-0.1552289300046798	0.04236661826048098	-0.07293335033535614	-0.06308696117592652	-0.05053711206557613	0.20143227210241785	0.2261520891240234	0.11661139582466623	0.21751614156807655	-0.17008799392660148	0.0446746392842843	-0.27244292101603457	-0.2609933395561446	0.09013200274596246	-0.2582750491955647	-0.05098030525140863	-0.10854497991121206	0.07488851781538629	-0.020675451312378506	0.002112040520548231	-0.25296372496877195	-0.049883053422644354	-0.042363112395961564	-0.03980081124823595	-0.11273557416435989	0.0937129808031403	-0.19118954083131154	-0.06835401372496157	0.07469105652476767	-0.0216733511551337	-0.12274027551276867	0.12872217593181667	-0.02409965017407471	0.10515580347725702	-0.0779094074291886	0.11835349683163651	0.025519592926540453	0.24122649964043946	0.11865855142557385	-0.12048707057758663	0.09150952861085354	0.03226872385551784	0.07864717990369902	0.005825907454984116	-0.19159105205925553	-0.19399798848152078
mon_persianalola	-0.2921569300645871	-0.01682898114810473	0.005748874469376456	-0.12006649966475612	-0.14101607278320025	0.08199600946592935	-0.11737440267775409	-0.17560310533588236	0.038396487788957614	0.05568391001839142	0.014335962615599126	0.062277494837516295	0.09569669029160781	0.03298615343507563	0.04099606818004395	-0.22509995106451558	0.004833383192001855	-0.2467734281539803	0.0526656873527746	-0.11082735381292244	-0.38841119228059595	0.26351040205264004	-0.14627436230093446	-0.0661803422591912	-0.05232196718799411	-0.009224968655366747	0.04521241738248942	0.01308493393186356	-0.13195857920501944	0.10661773253354771	-0.24697174219062187	-0.15093931881266934	0.0754706755777982	-0.041087570301308565	0.0604466021570388	0.15264155227484982	0.0007613162596828302	-0.06360125194992806	-0.11206278723356389	-0.014784688689148454	0.19040124871355685	0.14421057720635422	0.008708350799324117	0.011127527970307558	0.10163329512070297	-0.1476965201821759	0.08710140019165112	0.06758307552729897	0.08381180513364954	-0.31011544018390047
mon_psyduck	0.09702307741789	0.1582439394263172	0.0364665920080498	0.006145455413986551	0.08599753031944979	0.26857268734216194	-0.08192611097916014	0.001545583340625876	-0.02536123798192794	-0.2378083580210753	-0.1862376373617256	-0.16171529531764764	0.00037151240435010207	0.17244764372294402	0.006437679666504708	-0.08026857008466731	0.22584457799988417	-0.1359348784180346	0.12879038716914618	-0.0006851812386735673	-0.030220523695854207	-0.09398055416951263	-0.008076523107343648	0.06398946574908451	-0.3299579259475906	-0.14893660878023893	0.16530339609908146	0.10988606733137944	0.09747232131004853	0.03789988637915851	0.13281234199637923	0.2651117717429813	0.10492314619493952	-0.19231273998761625	0.13832105014314094	0.1390193027416237	0.10765245492243662	-0.09798385740033051	-0.025052949505062348	-0.2469289954240572	0.25150673768963583	-0.09656133348969816	0.09365202854540512	0.1346843170726572	-0.03155151137745943	-0.14439970419402354	0.03916168538090078	0.04006549618059272	0.2074495236233421	-0.04925495599762572
mon_golduck	0.10160643789236955	0.11798343176920421	0.006077711966021039	-0.0033266578270970677	0.054432142070002174	0.26209378756986446	-0.07908830974860226	-0.010183769697986081	-0.027763640252015737	-0.22940401107443278	-0.14417259340178307	-0.18223931938273755	0.020301530462202715	0.16170338507871945	0.031110321398809468	-0.05660929821664915	0.26390458670669287	-0.12161641158825938	0.19664943075326324	-0.005357157915874977	-0.038311155007318416	-0.0761757443793728	-0.02491380142962412	0.039927945278140725	-0.35938304968551404	-0.17839109228819686	0.19840957368446363	0.09057144892133734	0.09009390007489389	-0.023114047369076518	0.15782215311994108	0.25535963017544744	0.09377005857019334	-0.16556795832985507	0.1498297021324881	0.1608994920096919	0.11952005247814224	-0.08143961811781887	0.016723235304232736	-0.2178485441017863	0.21737498127780883	-0.07473588355384204	0.07001707661492979	0.15746883187224767	-0.02741083426540038	-0.15828418634697444	0.03061844252923074	0.0892558343724955	0.14927691741627094	-0.09889097326672865
mon_mankey	-0.1581407520272307	-0.04931152274311667	0.11940942307798683	0.10050601172910414	0.0166071978784722	-0.1286869270034673	0.03213063966085794	-0.038958740972973825	0.01099145953614548	0.0708180446499486	0.16075363512589394	0.20702624417848575	0.26025193059282914	-0.12341810638415118	-0.0016641923894191862	-0.10126060293106148	-0.10747677937032503	0.09787491951895325	-0.48527173527664286	0.03873817230186071	0.14529741578892214	0.03775195961530984	-0.17101223468975735	0.04706941386844281	-0.05829388137093911	0.09874759288626346	-0.07606519306432605	-0.08320335952029145	-0.08430767549705488	0.14934671531664703	-0.11569569141126079	-0.009667198575904376	-0.06180673594423245	0.09019666800884847	-0.373232111667648	-0.16886995164384794	-0.14835960735954765	0.09990567201249927	-0.04773716738755204	0.0011945903043207207	-0.05121441197700275	0.05416272452367921	0.12233262623083552	-0.03922433304076541	0.21378758280278484	0.03728528514571493	0.03332005416852658	-0.2284887264946659	-0.07567909308981507	0.12441965932021058
mon_primeape	-0.11886745223996276	-0.05879204729167414	0.0860480461164669	0.07127637375437179	-0.007312476727682327	-0.10526005783914216	0.04420115679031148	-0.048341077430260365	0.009120649640530228	0.10755843059428379	0.1945825648557294	0.2545964367775685	0.1930182618426325	-0.15792892656051177	0.015254510800787538	-0.08650737538499999	-0.08814513328810121	0.03333905287059026	-0.4440612250815886	0.11436428769599737	0.0666873336227637	0.0877725621441516	-0.19835885450549842	-9.981733131539868e-06	-0.011871811452419966	0.12966222047041123	-0.04134119476696388	-0.15301776535483363	-0.21319867223728023	0.1926225579437379	-0.12873440839885159	0.005202972460364877	-0.14740256934679688	0.12613648733035543	-0.34371618126048537	-0.11388853453551144	-0.09519102956992403	0.08812035751915995	-0.0683230261754453	0.038698517362230136	-0.09798107178326113	0.007603236923614374	0.042073803366638206	-0.02712276734115294	0.21011728751907377	0.06365293121120927	0.04251403218923104	-0.24861600195922312	-0.012924113108857901	0.13832098271738585
mon_growlithe	0.08215900102735846	0.1714554842865768	0.11389743282753556	-0.07797604594797256	0.06578279576366393	-0.1545413060993347	0.06834891799479068	0.1242712074429428	-0.054754089739293764	-0.005072999097239288	0.06578106172450195	0.19631341325728446	-0.13595876965592657	0.18796049357491548	-0.07260310625065501	-0.25703174080941793	-0.26412976663908716	-0.17863050246025036	-0.1168948140790943	-0.3233335763621519	0.11605214138201599	0.027843010988060076	0.07926503562412544	-0.05185882692517582	0.10151460263282107	0.2238715373562007	0.03057313250259397	0.16848555455541017	0.105841815188458	0.15975420674258506	-0.2633951401993209	-0.09859390967598809	0.08127638788354634	-0.154019833121759	0.05648023119787637	-0.28571927565735966	-0.14864825262783457	-0.040739154577685295	-0.14926743516507132	-0.047225962497722145	0.12993189391346818	0.035782375216898116	0.04761008142763388	-0.01035708559107902	0.00423136689229892	-0.18771333242915283	0.03277331512459901	-0.12817270800814592	0.09771243616603024	-0.0019760938128063777
mon_arcanine	0.12891229986753966	0.08378763757813949	0.1926812532771321	-0.07815982874854407	0.005991625798207153	-0.23943612695327188	0.02776498752708539	0.08899875450336571	0.04298721290461916	-0.022893818403828505	0.06783816223029186	0.12395899050899854	-0.04542246523249202	0.14011624775411688	-0.04082764373137387	-0.10633583141988705	-0.17257594591005165	-0.17539001596961035	-0.19632794040181786	-0.2554660074747988	0.28391960321815835	-0.03939969388846336	0.10921593444447689	-0.061246411081192255	0.08328278755911236	0.16468315655007265	-0.032970802523251214	0.19673556395402297	0.062460603210935585	0.06293502436964864	-0.2030392250874733	-0.1062442494568097	0.02250243512473963	-0.01906856699661023	-0.007935297052822804	-0.3835055162030429	-0.2597185677335141	-0.10108359802203715	-0.14278370573337262	-0.0409078246331213	0.007656879314445511	0.02206480611852667	0.06993196230748215	-0.0073468566848837735	-0.02911476377395364	-0.20515457023369874	0.03216260481014306	-0.273640833772528	-0.06960198183181282	0.07774741109375881
mon_poliwag	0.1111689056830473	0.07620630270247952	0.057587490449093434	0.1312831350288594	0.049029686862088306	0.23093770856738766	-0.13150430186739429	-0.04442586355179247	-0.05536285469694432	-0.2027612263131776	-0.11618365383006611	-0.18311531218371366	0.16025951082890788	0.13162817634687277	-0.0019408514163047376	-0.057940201605068256	0.19830437377301913	-0.0014623251959500242	0.08611142589317182	-0.023838877157825657	0.07488472654874627	-0.08200441389558268	-0.027946618303769058	0.13593435557073835	-0.45804256193939585	-0.1991345255738416	0.1671834591190026	0.1426807344617955	0.1701238981952506	-0.03693891071863164	0.1169031914015506	0.2470003392959369	0.15560572423388017	-0.15547033325796103	-0.07178456926331436	0.16575210560728365	0.10906670258831573	-0.03291757259388925	0.026304663025590282	-0.22957299531861736	0.16025456659726975	-0.021398982571035063	0.10373168821349286	0.13106166344329784	-0.0033918644882409963	-0.15504821854408996	0.008594857972174276	0.0954408493561417	0.015129278417719784	-0.08975360241317835
mon_poliwhirl	0.10456799085907113	0.0889432663062645	0.10912927486185908	0.12611942270984675	0.08151122270147564	0.211947960543551	-0.10056542734957964	-0.005342394296603582	-0.04521123808627233	-0.21054541185787815	-0.1285751275078139	-0.14919089830260027	0.17398288533486117	0.11769493557085343	-0.00924035376811663	-0.06792655205462003	0.2169933341742317	0.027019380204255747	0.053213947278957334	-0.02058736528458568	0.12061518416475041	-0.11688488193900706	-0.022597530180872058	0.12382390236827825	-0.4480491765010884	-0.20652296425584019	0.14529078523899092	0.1046738969540408	0.18620034429011276	-0.024073592672671763	0.1316660822721996	0.2916207221802184	0.15538611208526115	-0.17089801392433437	-0.09178571438150991	0.11582184410849311	0.07458605692544351	0.007429838587780374	0.031210530734575984	-0.23365311124496477	0.16305126691588429	-0.03110682432281139	0.13689743679065464	0.1281104591390499	0.01801063218175521	-0.14058751849121656	0.04203494964407262	0.06465000410044904	0.004521123834612378	-0.08166350795220605
mon_poliwrath	0.1078364140054204	0.11289424489071787	0.07954571492748552	0.11335287514474418	0.07186600143862211	0.20840701043550536	-0.055141153556327996	0.000948726991501612	-0.03694603130036723	-0.21723364947084906	-0.17048022952694428	-0.151802103462593	0.2304128372189305	0.08346664883467096	-0.002236640090306601	-0.016320004050664885	0.26940848884214463	-0.016181701160133382	0.035997098630292296	-0.02378705056015833	0.14714713428343337	-0.08003840985728955	-0.07168678364307432	0.12921198039218287	-0.3821561801729907	-0.17678980596071167	0.16241019728078265	0.10765263520483931	0.2059365562545999	0.011119711651488604	0.1691461369993348	0.27869548847524106	0.11330987985691657	-0.1326077731792801	-0.08287534272113449	0.01612896764862073	0.02745766678637163	0.04762588706942212	0.03915225851205149	-0.2796395168491219	0.1325248243413457	-0.05353029036894708	0.18444180412990765	0.16278447864828255	0.10186283086221185	-0.14284221001343622	-0.01956031510055071	0.057044078452718944	0.011411076347087356	-0.024777125959349125
mon_abra	-0.20231097867569797	0.024160091104363915	-0.2611550323387783	-0.23289517227636708	-0.1228775495133401	0.08689652515992875	-0.03818000692202533	-0.05404450519622043	0.007012742489402881	-0.13454785489034757	0.10505327556804189	-0.0943624768767887	-0.24859825496395213	0.005909366941280914	0.15252740278925625	0.0685821513405109	0.27240726013357724	-0.162806762400346	0.2654836425484037	0.008431560631291092	-0.32698437037036987	0.10277807812803075	0.017981985544971383	-0.03326239859738342	-0.06733685736043404	-0.02460831737157501	0.18705536636081233	-0.012002299094064802	-0.15180229026283423	-0.026107489558750613	-0.0564753797636551	-0.1128253579487116	-0.024783411995506873	-0.0900001048975049	0.21616788895206612	0.14833641839061226	0.07335408705705293	-0.14564730582289576	0.02231548833041523	-0.07814524509427762	0.15899189474628495	-0.009659428654033218	-0.1103426328430387	0.2566586976793717	-0.009427576420498211	-0.1123977046319406	0.09102033116476256	0.05581144215040669	0.1959424660130742	-0.10591419048221551
mon_kadabra	-0.1818902094659419	0.011753072886836033	-0.21885715726345079	-0.20319498507625125	-0.07469144596029462	0.10957076686377652	-0.03985134147811814	-0.05060388229633078	-0.003912879332349811	-0.11361301019590628	0.12117938775305598	-0.12250095674122337	-0.199027704794764	0.02679866833317834	0.17393085343151876	0.028964094754812143	0.24662192712055162	-0.1468093893256455	0.25009553011979013	0.020122630124877305	-0.36622097037465573	0.0709620799268004	0.002888162763455164	-0.06127142315124521	-0.11665800851956319	-0.05845356933170093	0.20081106245917074	-0.05044147768595091	-0.16439834949903573	-0.03022279555156669	-0.06657887631538474	-0.08417433953951503	0.028284773841034356	-0.10550174101818507	0.21013511377207067	0.18926764913700558	0.10660903264866298	-0.13493902708298586	0.009917854790630665	-0.06132803530638116	0.21640269570719273	-0.02644586002429184	-0.10836690042468371	0.22886691357106384	0.016407409805455513	-0.1284762750569393	0.10298914737610237	0.08867448916778137	0.1846484994933896	-0.16182986382158468
