	0	1	2	3	4	5	6	7	8	9	10	11	12	13	14	15	16	17	18	19	20	21	22	23	24	25	26	27	28	29	30	31	32	33	34	35	36	37	38	39	40	41	42	43	44	45	46	47	48	49
mon_bulbasaur	0.13205856062443566	0.059238091919472734	-0.0024038093352684114	-0.09229704421530753	-0.09468442885508765	-0.08355060360904057	-0.1451372568814236	0.07020165480492145	-0.0466704456888293	0.060070491293588615	-0.2145874125704409	0.030358103270283352	-0.14927894393204694	-0.19803443096543932	-0.207752649073646	0.08345260614278559	-0.037509620168798344	-0.12432347754164474	0.17978499353452732	0.25427933658632607	0.10741917355218805	-0.17014030097845254	0.09179438819619597	0.05168921044444046	0.1100266416927827	0.10819923563730263	-0.1380314593180682	0.0429535779403536	0.3797693122568596	0.07500511234095263	-0.2414022618279115	-0.024176189787235344	0.0725004447284896	0.11883849658809208	0.13788747620567288	0.041497953626908154	0.042327522132495556	0.25123880088260553	-0.17015472966368292	0.010391126410983201	0.0970279791967948	0.11964225042819725	-0.07891335063137768	0.07054696853721484	-0.03377473999228741	-0.036279800051364886	0.0646274464243316	-0.04671068398323459	-0.17135415107225743	0.18438687494419753
mon_ivysaur	0.11163923468905786	0.04383450859393981	0.005951822395673835	-0.08071117339495659	-0.09009789709787669	-0.0896042729009969	-0.14663499986563136	0.03944148800603898	-0.06912755620033484	0.03734555042522217	-0.2239261640046965	0.0570739873062102	-0.1266811715515537	-0.1920485248399066	-0.1758383108815113	0.095357430353162	-0.02767179680910226	-0.14325055115699814	0.16500419542571063	0.23698857784618024	0.07424050018355195	-0.1770179801015649	0.06463221806180866	0.05311180088728179	0.104414727586574	0.14763466202104003	-0.12342253530961052	0.01977171341433537	0.37605478701073625	0.0670316755298673	-0.22210007943397916	-0.012574040926724235	0.05285759277311718	0.13667594094726282	0.12412053558830169	0.0330596188143586	0.08225463862372666	0.24060456968715474	-0.14183282795079682	-0.03267080691283511	0.09332744413879471	0.13143425313443122	-0.08419944532612911	0.11482933096751256	-0.048120667059202794	-0.025221896195870026	0.05638451119009416	-0.035176953805965055	-0.1764337753398606	0.17879188446626043
mon_venusaur	0.1633322219677653	0.05389000536352741	-0.014704598187357283	-0.07358888868763766	-0.09877174054850632	-0.04805240835469927	-0.1466206498158761	0.09473219144676454	-0.03225959996376605	0.033063707026866763	-0.20295030660934496	0.05381371638631616	-0.14395970430056793	-0.19613676908285824	-0.2212415055543125	0.10333601396124467	-0.026594391133027587	-0.12907518655196185	0.1959548259500528	0.2611559223832252	0.12514872770369234	-0.1748329473721817	0.11012135546777506	0.0525022382465971	0.0970382341000956	0.09244474373898118	-0.11848081610490578	0.047740512844078695	0.375983113395327	0.08935486438847029	-0.23362770158887392	-0.02028862055477949	0.07220091967098	0.13381478384125406	0.10982007954221956	0.06517438959142116	0.05647344454506732	0.24970809082527598	-0.16210089253807133	0.025677945709146024	0.1278126866843022	0.08703779883145328	-0.059963793053002756	0.06807926888016484	-0.020650427402344834	-0.033282766153737355	0.0517368756214619	-0.05057048660323332	-0.1843794286170815	0.18533830534611423
mon_venusaurmega	0.1439815220854981	0.043187652684982626	0.04483933235034126	-0.022726043660690597	-0.10014544274898574	-0.07908487306736295	-0.16322389815213997	-0.009548443912912168	-0.057798514001588946	0.0848364183877447	-0.21111890460197894	0.037991938298805136	-0.10839964639932759	-0.104814656404733	-0.23150338293625575	0.14046029094171472	-0.03390775348955988	-0.18736253421119048	0.20332599807057078	0.19132488461085545	0.13393901325854357	-0.1586918524580393	0.10572328056092146	0.08756822672352745	0.09577025861563744	0.16772782809389458	-0.10949236407978725	0.09851925286803143	0.37041663963331345	0.053797879031770725	-0.21169387473585702	0.018758270204835253	0.06737825758783504	0.15219050554843686	0.08568364336254627	0.006918375580487205	0.08855958858824367	0.24263579172222222	-0.1235161831859818	-0.11282517191340839	0.14811817596932816	0.06686432173677741	-0.03246395187799464	0.11510140647124778	0.0056912106209872975	-0.08787027906952395	-0.0019796496199670933	0.004113169535978046	-0.175842095751378	0.13189304576835448
mon_charmander	-0.03163105290096481	0.13717990481490241	0.11271840943706421	0.18164907462542257	-0.1654426315957069	-0.0637994636216899	0.10478545650759663	-0.03595087664978367	-0.06652776513702643	0.21647462826956723	-0.18097441378673718	-0.15758322077890977	-0.008889018943314462	0.06364514697901694	-0.08319318732971365	0.04038752869612074	-0.3335093868488358	-0.05497206233464457	-0.010713412727614956	-0.03414331969883853	0.15670732978071752	-0.12535279120805184	-0.07513552377030089	0.002015603233340156	0.1696722880814705	0.10327182179420862	-0.30525719750101993	0.1721289260452169	0.08748053968655067	-0.051885618633870846	-0.16964417916858077	0.02897254380611519	0.11564240627257491	-0.10184034734065783	0.15277383140357592	-0.32874046777981825	-0.12138703724636582	0.12176108714269519	-0.10524770641015782	-0.029422960493515532	0.010369994819627214	0.13659847707883668	-0.07706239530560419	0.16608731283179817	0.02451395922711449	-0.07348533475799379	0.018387627331093497	-0.11015159135565017	0.001956999942741722	-0.048095571410356766
mon_charmeleon	-0.04707298243831271	0.12580103586418717	0.12220432605411881	0.1980267100765963	-0.1946225160860636	-0.09102314391711501	0.08392687106581737	-0.046878790730166126	-0.03941609987997025	0.22325231281167807	-0.16002778674884457	-0.14614796708301062	-0.0207895618685865	0.06006036381901027	-0.10044004478849836	0.058782265218833146	-0.2967846542705605	-0.06977282036596046	0.010335359802125004	-0.021524026765397667	0.1417949400936822	-0.11517855894330525	-0.06562703048010374	-0.010596244074039652	0.1742565357925811	0.09432510294908465	-0.31595511068919746	0.17040709065894377	0.09484256396449829	-0.039778745213314703	-0.1575511572636372	-0.0006951503127098643	0.09107036172110584	-0.10459260637492193	0.1579686874745074	-0.3230634910984408	-0.12770422969942052	0.14118509703373627	-0.1021228832979762	-0.04967256428585532	-0.030715620792142243	0.1507126328650047	-0.10157612913024242	0.16637966430113618	0.014276803828598035	-0.051292777905879834	0.046769559356940466	-0.09321791367108809	0.03800142892797568	-0.08092397318033336
mon_charizard	-0.05556507267656466	0.13297824801296604	0.1186608796019244	0.16690774784187815	-0.14959184239700446	0.0002315396984200941	0.18257388826026016	-0.04069612136681759	-0.03904020351496761	0.28760909894408115	-0.11656187807998417	-0.1369768072951801	0.008683988555366331	0.034466548531261666	-0.02416811159957442	-0.000576797272427365	-0.3673989824420023	-0.0025784853523185564	-0.029047818174315024	-0.08155452672653608	0.10165398404100581	-0.08938881317476323	-0.05001801143809973	0.024993005021721422	0.12182576933609206	0.0809308840482569	-0.3089285860517048	0.18112621069914625	0.05340387782208662	-0.08458808731546102	-0.19467436808320773	0.05002000938686523	0.13506373942920338	-0.10540981957443035	0.17522135738327513	-0.34732050737735976	-0.11074768094964921	0.08430781887883519	-0.09136231822332778	-0.025874416672547154	-0.004284192982046195	0.12854710379152667	-0.0732455873721615	0.15839293634714177	-0.0392022431953032	-0.07842415382803589	0.033857127442509315	-0.0808956000121008	-0.05133262136402721	-0.09579346588943041
mon_charizardmegax	0.054942535860367056	0.07327605484611707	-0.015953108509513165	0.24160129458403506	-0.0777856992979982	-0.04076566780177266	0.15698217206855813	0.12357654622330333	-0.07264445155681472	0.08371145856527867	-0.3743873623675265	-0.2841347859351215	-0.061719976258746735	0.08096330744345724	0.058441925387813974	0.09242381860626113	-0.23711813769080148	0.007889411543333207	0.04186262276988248	-0.06356142267650101	0.12544993747034677	-0.13842601691966153	-0.062157417018411966	-0.02367652832995642	0.04223912519912088	0.09992663671544363	-0.22015558180713563	0.009714895495588455	0.06199737979223396	0.02581508834988901	-0.024914388976043304	0.10403347295737689	0.3317207857014506	0.012111572244867787	-0.01634340312052548	-0.29230625408081873	-0.16621028663160817	0.07979754815047992	0.02887594417242027	0.04929072695578157	0.02304096123991855	0.11892186051589015	-0.054323874050943716	0.17914910865140107	0.03909317607068706	0.05594626753966101	0.01313990758745625	-0.0016737271585985352	0.07269435698457509	0.07592416042584589
mon_charizardmegay	-0.03634318318517998	0.16997219165503974	0.07831477648027377	0.15930324032515789	-0.09266223913614975	-0.005532119701770115	0.18426215397519138	0.0694325417664104	-0.015559500364172857	0.19428421578855856	-0.19175338064833744	-0.2327550594510357	-0.07108036356140852	0.026885149053466787	-0.05244148621444521	0.021147088108242593	-0.32511678609947026	-0.017955587552873582	0.016634043951928967	-0.021499161207245703	0.09056775597140854	-0.07689733817695621	-0.0028627192117710587	-0.0017219967070070117	0.13555797056245908	0.07121829863226158	-0.27613016012409225	0.16075339561586555	0.06857516711246371	-0.0783790887732353	-0.2185630987905653	0.03595257755175357	0.22533620070013027	-0.08167364159956977	0.1252410016021758	-0.3119218372764405	-0.10927693058498186	0.07284597150655259	-0.07772439847246262	-0.009727161000602747	-0.05087329568164307	0.1289668474514592	-0.06667482138808398	0.1587727277035809	-0.004914094787792991	-0.07149794151614496	0.04238599759641795	-0.07518547123284237	-0.015785827915969976	-0.019334666227126193
mon_squirtle	0.2869976228886765	0.019748459651313284	-0.03318707216165978	0.12294858412646685	0.14577109740242047	0.12618634475041604	0.02565088928709733	-0.04842207282384113	-0.0777572817665863	-0.13251616388602666	-0.05037936647935831	-0.030876447538030895	0.3514141136918376	0.16992089059700216	0.1985422621535556	0.10790547127694071	-0.019869669645174066	0.00725122598281748	0.10491922566636891	0.05020442141955494	0.34606373517436917	-0.13571068688743917	0.10505679611906579	0.07458023596391693	-0.1937132807461701	0.07246693316395199	0.11076639104160745	0.11073002920862443	0.027764849567891808	-0.007583851794045948	0.008068438311025534	0.13374300292020722	0.07843668993582552	-0.047297561586862505	-0.09398197202156088	0.11016833732389751	0.05315825965246553	0.002190510960806526	0.0021053758013562995	-0.12824973047918253	0.22399597177277167	-0.09375317422449114	0.17259378852720833	0.11444472389052926	0.04970797165732362	-0.16683849908644074	-0.13051020822247392	0.09686400780119646	-0.1413010184999833	-0.01001662383492927
mon_wartortle	0.30855715695361485	0.010765744672145174	-0.033111875572206524	0.12951632330707438	0.1699678487168975	0.11113134765423102	0.06795620251426342	-0.04748134321863623	-0.09263690738859767	-0.10181646865179776	-0.0689947846212279	-0.05138685894461006	0.3417820244884023	0.16065495254688825	0.1985455772657438	0.13401008240235524	-0.053805824636018657	0.0058941061729943425	0.12354177564642825	0.047284182962746384	0.3680580961618947	-0.13855819789693877	0.06954989289899419	0.08292209204548379	-0.16549370004037534	0.06669990349478712	0.08738075613537379	0.10152819984541758	0.022157075444623423	0.01026939999034241	-0.023406469553043586	0.13916942948370625	0.09954717527973886	-0.06630110177731491	-0.1101600655153194	0.08220551229769618	0.03564134144650655	-0.003939574034243895	-0.016792034337302947	-0.13562199988882753	0.18873611927995923	-0.06468363363485098	0.15809714609564496	0.13082465099387489	0.037388316148881516	-0.15044102759937722	-0.12454053476010303	0.07766719374215625	-0.12783376363343682	-0.00744022580079054
mon_blastoise	0.29785949501875775	0.00046844812922085683	-0.03779026631592713	0.11286411317937758	0.16019446551351224	0.11134320501868651	0.020631721617188657	-0.04608510186498216	-0.08216636357306888	-0.11580619555514601	-0.048813898946552706	-0.02901179797199004	0.3313671850341101	0.14875154275606803	0.17585147004560042	0.12504299265530802	-0.021311097606214375	-0.001486588897701506	0.1081077226840739	0.05211041493146269	0.3662891603846422	-0.1467460858144455	0.08051508805301548	0.07623863641184768	-0.16803314911012476	0.0629123802304488	0.10755052847049834	0.10964342763129188	0.052214827252160305	0.019010163378890804	-0.017149461672306184	0.12987523014576963	0.07178565332210088	-0.05737120020407089	-0.09586913375192566	0.10501924434207988	0.06012154360011235	0.020439556746237375	-0.014534703530115678	-0.13168751993264896	0.21433433702769394	-0.08047802216981866	0.16705667573233865	0.09814238019895415	0.045044948656515656	-0.1453709861397717	-0.12176503577562382	0.07276952141500674	-0.13346982653993347	-0.006397315171097991
mon_blastoisemega	0.2984732903996573	0.007756542516164356	-0.0884452971623583	0.05904254349718133	0.19476856649674226	0.06767846153760879	0.02584473142893991	0.012265006277233441	-0.10808202545834124	-0.18167381917012532	-0.10743529840712772	-0.08529564853226759	0.3002041893365109	0.1950410493883711	0.1989187584570146	0.1129227560865217	-0.025161380691053087	-0.02159092117167005	0.13204695617511064	0.07160218648940028	0.29765405600976746	-0.11044029709437005	0.07557448239810184	0.09779139612349502	-0.17857560670793027	0.0585812629890114	0.13544150623693896	0.08600377387069102	0.018402188198901687	0.005441332549284428	0.021536557677196963	0.09494626110339865	0.09935635294045216	-0.03984201407930229	-0.1301143340078324	0.1466337082677113	0.020114008733999263	-0.017024936833651916	-0.002006964335309149	-0.08992504318308875	0.21043603884089712	-0.09019776158535497	0.17545478852450105	0.11852490342301737	0.07691898181306447	-0.13011714324412035	-0.13146181582420036	0.051045753593778796	-0.05479013601173557	0.04804276925838588
mon_caterpie	0.13145659386229427	0.051087721440611834	-0.17249207802625724	0.006860758656554242	0.048358828151439194	0.14238373194362144	0.13440587116776048	0.2550867265556687	0.11335978333883745	0.13258119019365602	0.18379312156714633	0.015344302892197712	-0.17306338386927356	-0.24615377224535157	-0.19082471781209043	-0.002262404156131541	0.008663514846981704	0.18952654606537994	-0.05738827359494275	0.003971775736312423	0.16436006273195902	0.012380685768111232	-0.017622623552991053	-0.03128343817281609	0.10448534246921348	-0.3000848935863067	0.023022676638197546	-0.06854660120940642	-0.01135802881432385	0.18291596638281007	-0.07742709453769543	0.00469023497906267	0.0579510038318396	-0.028939882686333872	-0.02946402940636511	0.05793545970337594	-0.04287398928731671	-0.07514483708651493	-0.08438305553125466	0.293077062641772	0.05171975430393542	-0.15853661327770013	-0.007252758953804676	-0.2481247818419215	-0.038530735956123004	0.05750364260723311	0.05071637551169507	-0.12264082692305504	-0.013990084046027782	0.08965527577499359
mon_metapod	0.16283099593881245	0.034606541186644794	-0.1367132980593297	0.003278802719005073	0.049025036170477265	0.10174387635987701	0.17923661563760585	0.24965340016905915	0.0922001896956972	0.10296004644916158	0.13960201053247592	-0.008514830388768609	-0.11317554269270319	-0.15383500530405328	-0.15286986960594565	-0.017715161246606867	-0.06140690756972984	0.16702945787163578	-0.041893797090981635	0.01351908849631	0.20183274475226243	-0.005834873643252341	-0.00854533611049932	-0.048614329369627465	0.07014141164030335	-0.27539404770693504	-0.03354266839949135	-0.028648740804719068	-0.009790362780476727	0.16534886110126434	-0.07072083262872257	0.002375513141706304	0.058811517791618424	-0.040705579918643625	-0.04206591333717422	0.02921475963725468	-0.07584622216427404	-0.04210382097721906	-0.07928269342521671	0.2996323992671086	0.016020428731763153	-0.13369635499302968	0.011417670010162468	-0.22171059623237319	0.02160678425366355	0.06983438809528132	0.03979550868898812	-0.12691756419791014	0.04225784462492262	0.061473887976702064
mon_butterfree	0.099035827041278	0.03600417779672697	-0.13218304431381478	-0.10285947401631974	0.06708611402157821	0.13939391008136806	0.2200930892126245	0.28641440047711586	0.12959687755781776	0.14044189957682932	0.19865680802292576	0.017623876189223776	-0.19847758642856667	-0.26927799174432226	-0.13673972583119612	-0.0904187256254718	-0.030244519089930796	0.21661474094541158	-0.056710281961416815	-4.497489425573701e-05	0.03884368243895948	0.07473097411418364	-0.015436832038973634	-0.014511918578992623	0.06289090971547513	-0.32238057206158827	0.0015615185696449718	-0.07705166179274	-0.06329036771846194	0.12436430426830278	-0.12776334384476123	0.016178321697267753	0.04887182444545603	0.004871158479012751	-0.007276458601880118	0.06716596438113823	-0.06888380691640918	-0.10810253784929005	-0.07726897262190113	0.3069016309561019	-0.04115660405368379	-0.14570365362952872	-0.02191598503932697	-0.2390101488780365	-0.06860863498285583	0.06979146550389702	0.06030694234105236	-0.09996197765096171	-0.0287124776293846	0.09359441334402542
mon_weedle	0.1466271600943154	0.06150327641689699	-0.16734656959236305	-0.018241471020959903	0.04316722827726949	0.10193312604438103	0.09412114568712258	0.2692123915086503	0.11755994215044971	0.12829996825884254	0.19241066761478468	0.042346229840892036	-0.19471998305276955	-0.23728794909028902	-0.24070191449924158	0.0012997966764422169	0.043727839267921426	0.16573798343537446	-0.03874597735793577	0.03179674540480594	0.15400136783147153	0.038034707515752865	0.010618763008724838	-0.024458512855133344	0.12607759427381057	-0.2976021557243784	0.037109160295854204	-0.06849356276784845	-0.00543216941769851	0.19576608792339223	-0.09283104882377854	-0.010306698382684703	0.023701019080000878	-0.012988181903884502	-0.01045127067094377	0.0959594830379321	-0.023712475631327883	-0.07067450974896988	-0.10273372700885558	0.2657875497822453	0.03761579029389592	-0.19930266659836826	-0.012438704089636593	-0.23252623191827887	-0.046198052065489804	0.06687278265713527	0.04230419563553451	-0.12028566512839198	0.01173870590613969	0.11363988553700925
mon_kakuna	0.19500353551694177	0.03045315142799111	-0.13552985646060128	0.025285019679649173	-0.004885468177505743	0.09724208744175865	0.19151758949757466	0.2630530653905613	0.1030831300698858	0.13987099545506487	0.13227315377429447	0.005567494547534584	-0.13576361549663288	-0.18013491552256647	-0.22778755242497278	0.012859587902595282	-0.0992829715602464	0.15795255588392962	-0.018581624799562147	0.03353744999607379	0.23216739521525984	-0.034069956708958724	-0.011759215887994919	-0.0536268794711686	0.11275753313819178	-0.2840313282547052	-0.09562730597479442	-0.02594887749995331	0.018385793611682914	0.18585233382354668	-0.10432908645834334	-0.009211239116950319	0.07170475902275403	-0.014104910654383995	-0.0365935782454345	0.009118822963080047	-0.10105011023769538	-0.01739621149842199	-0.09953667038317356	0.3295380568584887	0.03444212563700579	-0.1285087010132088	-0.006173252997256082	-0.21009308808876848	0.024857993043101864	0.07129703241268799	0.03711868336534304	-0.15006084226712646	0.03550135652767243	0.07036262099631499
mon_beedrill	0.20728829781068522	0.057400082756354054	-0.1510180961591405	-0.06191171530220973	0.07473927984395225	0.09623316286944432	0.19943952541756907	0.3174649776959548	0.06898557611058938	0.058156889842810276	0.146960837813354	0.018852492750178602	-0.10478862139163792	-0.16931419366105444	-0.18537373782159774	-0.0537105252957033	-0.061347234701981244	0.18364772941059518	-0.0495125710678503	0.05560009109056991	0.19601337848083072	0.015967403829765844	0.013380881221262584	-0.01845707479627852	0.06203405890703874	-0.30058402217448543	0.008553070824792	-0.0271652066130575	-0.02483898127608716	0.19384187213229886	-0.11759255790149464	0.00458912995153228	0.04059469651384482	-0.013461766332989688	-0.058250904847454904	0.12310304738216325	-0.06002455823767045	-0.023393754100493734	-0.1174410640728997	0.33299792645847426	0.027138413969950096	-0.22176139107146797	0.03209935591385459	-0.20558631580050923	0.015020199254893346	0.08044118694938412	0.0119777679664816	-0.17591132558415057	0.04159140321688012	0.10737945794657003
mon_beedrillmega	0.19778822967558515	0.061466729860296	-0.1368043221168544	-0.00015385989963379558	0.046919596215789866	0.10944165886428743	0.159631349882969	0.2984482277689853	0.07466496949607182	0.05193996504888716	0.125023711761976	0.05223182719387029	-0.0818709659681772	-0.15271680894093848	-0.19522183703247903	-0.007987531243643941	-0.029197654950076365	0.17789854905190056	-0.0012688759557377386	0.059734991348739434	0.21339567508763607	-0.016240725962499213	0.0262752292792526	-0.046809652722759124	0.06933721845506675	-0.2644359964378909	-0.0052382153146491054	-0.07552552002446958	0.0022408040953424985	0.1894102112197593	-0.07722943398943626	-0.014515100315151883	0.03291228705835099	0.004029879528047226	-0.03755250417608173	0.11391855902876663	-0.07273686431849047	0.0003042955898623581	-0.09772537586716012	0.3128100891254508	0.05592312214302085	-0.16681653934758692	0.02648773068885773	-0.17545597221010226	0.02883368798499106	0.08237344391913073	-0.0015563196035561922	-0.14247995016963533	0.02092960387992097	0.06985977551298854
mon_pidgey	-0.11398783133966207	0.00792268003932143	0.0375778053001692	-0.194001920801817	0.11990327910050179	0.16913535176577157	0.23933960413542762	0.03548214273035905	0.06460503304557354	0.16477680409624007	0.1851793050126573	0.09211975434562027	-0.04289296902314658	-0.22530749740814737	0.21421088728026794	-0.16713682120195625	-0.020788367151986783	0.16770617610777422	-0.04896809157402689	-0.09082635335254712	-0.31812857064148325	0.12201198337481418	0.0011034273779519487	0.06483675962994988	-0.11775984549387414	-0.12423626196534666	-0.04710890854958567	-0.06820666926387148	-0.11501932184902178	-0.1844938209986091	-0.21090785776917653	0.03329733192334022	0.06709585308290224	0.08397910178921791	0.05916695312819308	0.07272811317248187	0.027478764490008783	-0.13127233131131355	-0.0004485201236889094	0.0076445788713998776	-0.1266696288596505	0.005355962612721727	-0.06540690901318708	0.07029777189538386	-0.3124611505452875	0.017108103665755384	0.054273260177901975	0.09975435240250614	-0.2689767331895662	-0.04220359122298649
mon_pidgeotto	-0.09094880688456179	-0.0033161059640449747	0.04575373649237459	-0.2015118375977649	0.11721405596772504	0.17336745592776578	0.23938273105725416	0.035073452264488554	0.06685559924395162	0.16797385992066075	0.19244239305858113	0.08921745560213497	-0.023831503229015154	-0.2291979591218795	0.21442097625287054	-0.1479590595068117	-0.011952580250224158	0.16340436684339124	-0.028682094298475132	-0.08073171363591644	-0.3013277839747696	0.11770428904537023	0.0012533919476943943	0.062458107307574846	-0.12742838015085906	-0.1379430142643621	-0.05103542861827845	-0.05921544055000732	-0.10926160820037328	-0.19019358379364698	-0.21920470138619164	0.03756310701967211	0.05633485795707946	0.08011662334236813	0.048066895283971844	0.07897393761580825	0.025320678571741577	-0.13190030048505427	-0.003421833444052623	0.009667566490034777	-0.11537041880455579	-0.004262400288397292	-0.06476010026393174	0.06888546581278003	-0.3097189857311205	0.0068692065240405845	0.04999363043642173	0.09246473840094634	-0.2755259736175131	-0.04620083459883198
mon_pidgeot	-0.115251345899189	-0.013348351326276235	0.060353924069543576	-0.19386318549803994	0.11008613536020143	0.1509988469280005	0.24316456497539862	0.022727592481698533	0.07834189630081909	0.20471245621084913	0.19910900674878007	0.09448692155101579	-0.05347967722210035	-0.23344686018628277	0.19084080061179456	-0.14650697221590075	-0.02651880240039386	0.15856862378641176	-0.027629779260938642	-0.084835593464278	-0.31577962248991753	0.12106384456953291	0.003821578244951111	0.057564020831982414	-0.11475569539577693	-0.13297583104683233	-0.07420888017066762	-0.05704390720092892	-0.09907379499757897	-0.17835554924595787	-0.21089322317477016	0.022235531445040434	0.055308595380895116	0.08089369383811082	0.07437104217087868	0.04629641938160907	0.031213399532856526	-0.12372576146787698	0.0035726020584141956	0.001455440128411517	-0.14284222991097173	2.4510974960327327e-06	-0.06666681960529659	0.05478430929987685	-0.321548964449691	0.020550459148734563	0.0602212597569653	0.09680528075616064	-0.2554724772883149	-0.05867264035039611
mon_pidgeotmega	-0.09479023620502708	-0.03960610095858409	0.061153582587415004	-0.19433348535380507	0.12277663690250835	0.10847428902686176	0.23593920776360505	0.032097345069732545	0.0653770467336906	0.11000070581123322	0.2127425534902593	0.14590637935577933	0.004593456110612347	-0.21049605779725142	0.1903720483875672	-0.1631220490689558	-0.004834451710010493	0.17435152992458228	-0.054182961688654156	-0.0712436206804922	-0.28529321054790474	0.14550013697188188	-0.0056637963254260295	0.014843380192559801	-0.11593450453352198	-0.1413737681005994	-0.055440363428176834	-0.07050514240860897	-0.10972058452650989	-0.13873382276607524	-0.13839375417773173	0.02435296194375473	-0.03339504946661951	0.07089002556669007	0.009209530501603162	0.06370636752051446	0.02874008706832127	-0.15894938421134583	0.005354028709129886	0.06099463061285483	-0.1471943724161874	-0.031163533833502278	-0.0935971373472566	0.03716360679037504	-0.24265077284420303	0.0281999949310802	0.04959887852651543	0.062036397046847123	-0.1774225677211994	-0.04237346008533832
mon_rattata	-0.271235695838944	-0.011934799652614798	0.1530599640804551	0.10385911483110027	-0.07904042491472306	0.15396924132765602	0.1924428218212569	-0.12226690193796845	0.11194284976104592	0.2787114924816206	0.32229798432509654	0.21628909930459064	0.09309424900218372	-0.08182254896498702	-0.0020900432067559	-0.06863394744635531	-0.08293793006101768	0.1147718148616742	-0.17280637604448432	-0.22475389890339556	-0.04896185421885003	0.021298642988604292	-0.05361061782477413	-0.06053335408871517	0.06906137665683139	-0.1786356515126889	-0.1314652506452444	0.07772932980857143	-0.07827677518077689	-0.08368812980346459	-0.08660958275113553	-0.005225431805370297	-0.11832935147370839	-0.05520179003853461	0.10210387814115483	-0.1495047886204459	0.02266988667592805	-0.00541429479003445	-0.00467503422576056	-0.03337048334581928	-0.05323302836128657	-0.02101419545754114	-0.016704993287217394	-0.058242580286073396	-0.20861476210591876	0.0005884768002582845	0.028707315039888204	0.022187717499559174	-0.191125153265918	-0.2746292773257455
mon_rattataalola	-0.15177484889533835	-0.08269069734538001	0.19608888725126622	0.1199081481057138	-0.10086421855300998	0.1594138744655917	0.0005290517379535479	-0.2294144792836076	0.07756710531809724	0.28345972167808753	0.20301024364355252	0.13291033179916803	0.13657787917748881	-0.029178626016514626	-0.015209015083659018	0.0509033162095304	-0.09077872922845598	-0.066084514890677	-0.07078830389024714	-0.1711423334072943	0.005280463093157955	-0.06640393090997228	-0.048020933789254455	0.05434291655817629	0.0429418376249644	-0.009995963747513707	-0.1047616289803487	0.20724597766090525	0.0011480301729482644	-0.17279185854971374	-0.1782043600167852	0.08576264145164898	0.0025054987771592836	0.027090577791301914	0.07704048274071665	-0.14968402535620068	0.045883503878978486	0.09160937293236332	0.025432259159180088	-0.21798393629045057	0.12482966682153251	0.008580640770676752	0.06665054122548097	-0.016281758131175723	-0.1692072372512989	-0.16847520778383376	-0.04262794779471142	0.09270022750102251	-0.31443906892458884	-0.2670126816947097
mon_raticate	-0.26717021254128037	-0.011247691478716688	0.1476491573751568	0.18674852961061003	-0.06668925383974676	0.19211806330493317	0.18200146687241123	-0.14848232823272506	0.11040436793182254	0.2680368841483238	0.29429552581045787	0.22192978001449853	0.13296846627071343	-0.07078336073462861	0.014233968225566192	-0.043955581283564464	-0.09464693697559276	0.12051281603932315	-0.18475797665352606	-0.2345244658097702	0.01617144233650797	-0.028148954856599694	-0.07191350171226818	-0.0698243312623871	0.03638754614281521	-0.14668191922485635	-0.14006419396369357	0.08076387919310858	-0.03146605706400688	-0.057950271985913224	-0.04996537082321263	0.010670691806692317	-0.07721678421822861	-0.03809002911711593	0.0525771708272314	-0.16544951009388464	0.04215624763508894	0.03432578190148926	0.012230197313886903	-0.015310873518825827	0.0019792145991642442	-0.0015267286235538468	-0.010761421192583234	-0.06382452043495594	-0.17162826239300027	0.010191629178710016	0.01925643523113221	0.03373525016929331	-0.22073658267188112	-0.2867605658640735
mon_raticatealola	-0.1724344971616202	-0.09063390407207601	0.1999013033872463	0.18033403099619688	-0.07614081184343334	0.16833993059732857	0.017711737077293906	-0.16257410884525145	0.10506913323644487	0.30882588955558565	0.2306008774373084	0.16458567187354997	0.11218042996115057	-0.02883617916612984	-0.046919778845176306	0.03845267053841345	-0.08257337047811047	-0.0041765702166244294	-0.08625521970379381	-0.17872175162409962	0.030472759382047927	-0.05221388562264485	-0.04284871599013631	0.022366946755677835	0.07172928959080341	-0.013276079787352908	-0.11664152473715202	0.18929324624576546	0.06785356360657133	-0.0995803998815723	-0.190439110290263	0.1349252671207589	0.05049418066496026	0.08745794706648656	0.05666325696233327	-0.15413559652538797	0.037458786803567776	0.0791453711579085	0.019223214871537928	-0.1712062125424937	0.10159249200270895	0.0049593736732890786	0.05321914035245279	-0.05845960437427534	-0.15248829625677038	-0.10435240383299427	-0.024878463241946196	0.12647754292064728	-0.3061077400328874	-0.27899699443979786
mon_raticatealolatotem	-0.17714378942923947	-0.06826516991488212	0.13323925840196577	0.097298907556587	-0.08804907719425072	0.17325778448428197	-0.03466089568723476	-0.2732713319264618	0.05388848203496534	0.21330151020022697	0.16869828336784368	0.09060499693935459	0.14051135224408687	-0.0335720132132964	0.053169681476475335	0.026167887178881074	-0.058992196108485086	-0.0650459726630106	-0.11613379661606425	-0.19070266473881015	-0.025410420507038407	-0.04755814735096796	-0.07279076681740326	0.050815666102008133	0.03197269290472876	0.041621778807498795	-0.023122246233931578	0.14986795437187625	-0.029581074650161316	-0.1763916280903241	-0.09032452060033389	0.09774513875807812	-0.013904708532128397	-0.036613934658727004	0.07276771308323325	-0.16854605410743867	0.06702141328327929	0.0058863454391506805	0.06182198466415235	-0.21145367165645804	0.136714314055405	0.07248304804005751	0.056497997090466955	-0.007864372434780867	-0.1489824491288286	-0.17533997075285165	-0.020734715192224053	0.06979071496345308	-0.29614083329761537	-0.21952219676155196
mon_spearow	-0.039762712238703535	-0.02014709860993318	0.03207288103239863	-0.20128713317569522	0.17137000978011818	0.15547052474831738	0.26616826319448966	0.07202958202318	0.05148019357350051	0.1559577418113802	0.17748919679142655	0.08360962901298591	-0.00563190330637355	-0.21515617331903472	0.21599261452383392	-0.14967981535068475	-0.023986186884144868	0.17046385619174195	-0.019475756992414484	-0.07827750836727576	-0.26002049322574267	0.11560707500815504	0.001745862014291171	0.06487275934828299	-0.15080424444116183	-0.1580853344140692	-0.0395986674627287	-0.06216646449735982	-0.10919314455845633	-0.1610519070661352	-0.2095499484679265	0.035669498914647914	0.06384418932203452	0.0858307036462102	0.021112279702838906	0.09877670754287796	0.007991609592447003	-0.1415792793961867	-0.005966729826457555	0.03162576598322441	-0.11243291728170413	-0.05513128322900039	-0.04497888243070421	0.0528480439967574	-0.2896200080273508	0.008871157332541235	0.03341207266559857	0.08376497836536098	-0.2526500910885076	-0.01276779740953385
mon_fearow	-0.03878022211733451	-0.043000036227065726	0.03166840007238974	-0.22168234394290082	0.16972426604227991	0.15543016628321182	0.264243325117557	0.09121860076363507	0.05934218024626382	0.14614367826709293	0.2084737242351866	0.0999421507161811	-0.009630936954755727	-0.2177662127741974	0.21486973980691026	-0.15026988151124024	0.010796987386427285	0.19152219544845345	-0.013539447833681509	-0.07127329930443137	-0.26388122803098957	0.1404334227331324	0.005231545288150747	0.043641369566037966	-0.17170414495989725	-0.17686566127830403	-0.02184527330043092	-0.08527343677323602	-0.12848084863019163	-0.14302453040605587	-0.18462228291174923	0.024500748102046225	0.04109752550517913	0.09880951630908606	0.010793940477431175	0.11506769095259112	0.0021012728541797256	-0.1404899783973021	-0.0066760584193300745	0.05471693868642988	-0.12659408106154746	-0.07226701747854525	-0.043196011667792404	0.03162741156140429	-0.2756406427966309	0.03839578682587895	0.04121192747435313	0.08115954898055829	-0.2265371826645616	-0.03577857433901665
mon_ekans	0.002215257471998413	-0.01282529202540983	0.07352745640515164	0.13431964104833552	-0.10000611535296329	0.02386426991403958	0.3410805171280708	0.07583667464085148	0.06703208535829464	0.33059395901417965	0.08349378040901077	-0.005370446740597563	0.05219936551299008	0.0038099278965129345	-0.13801940308672728	-0.026447716442268152	-0.3281136196982885	0.07932447020911813	-0.05682327970508263	-0.11153862054186968	0.17743161421284379	-0.10893273197389242	-0.10576915599078815	-0.048285310068116545	0.13360661881073474	-0.232971895716947	-0.2989008483396831	0.08284193758454426	-0.08896049217814873	0.02600738184037571	-0.14808048562866621	-0.04150651800345464	0.10198092131154866	-0.06026737214207464	0.012338336927949181	-0.2131166585533902	-0.21408808283431205	0.09657123471779133	-0.05622011179025278	0.14760571727082705	-0.05269746743470023	0.005465811243489384	-0.003718522146962021	-0.06745507267915907	-0.044871614091909554	0.043412250441466425	-0.007176575922382373	-0.08795073259059058	-0.04308677399823133	-0.13628507320391475
mon_arbok	0.03130709821445918	-0.040846572519565305	0.047978638957365906	0.18599916961043605	-0.12378130427651063	0.010917712346785615	0.29925509496346653	0.04947384226970545	0.03832656584151857	0.32868981374263173	0.046709912677274576	-0.0183930934622127	0.032102104799991184	0.006796124855738868	-0.0961587304588578	0.06559406849152481	-0.3265414423668895	0.04943473927529714	-0.03475222937438977	-0.10108499044361434	0.2045302217889617	-0.1323440220203452	-0.11921569189507684	-0.05752003675115074	0.13077014944998444	-0.19124434567155568	-0.33628073220907206	0.05994466197080814	-0.06664401678643908	0.045983329086525276	-0.14535587074545986	-0.018091568691916086	0.1313964946866016	-0.03151895143434669	-0.02025536180165007	-0.23739494079657988	-0.20578569869986102	0.13328565464763367	-0.026195778587061458	0.09861788345842568	-0.06685282895987063	0.03836396845642206	-0.022887835626215755	-0.042514733867333135	-0.03927897230288506	0.06076397303422199	-0.02029574539164097	-0.06823215661217591	-0.0060829069116006985	-0.14293243418861293
mon_pikachu	-0.17411221113126663	0.06824945032381767	-0.04713863018757749	0.03896947396419253	0.04740298590788591	-0.15013990182034534	-0.19041758606335005	-0.08131066233499773	-0.06008742233432432	0.054683969397542026	-0.08822974751091071	-0.10764480868590473	-0.11199827582984724	0.08606221170013693	0.07167186477646391	0.021808675523082407	0.24957508745396828	-0.09978259090419556	-0.1820034329972687	-0.015978889501070636	-0.05776920064791167	-0.022315380543459974	-0.09064924121176675	0.02756998654530987	0.09075884381307146	0.133672006816931	0.1977867459182774	-0.20888755186170205	-0.23759227390828042	0.21690608859359084	0.2653497387869372	-0.05321216389139306	0.04252678496256013	-0.10273846608687201	0.1730564496011706	-0.05734509742036826	-0.031367465522185195	0.11506715853053522	0.08085522068219352	-0.1755825458382393	-0.16608711218595687	0.1702185055548403	0.0674548056375751	-0.03304303453171544	-0.08209723580311429	0.19140808333690473	-0.014498015623830388	0.06605454807382234	0.28637152876014965	-0.01739536324000921
mon_pikachucosplay	-0.1863173686844036	0.07951039966141911	-0.043306745959886095	0.024263190534069036	0.05001400636497048	-0.17028686229347947	-0.14333650455760882	-0.014107717401451524	-0.05538287967628155	-0.044240464238393624	-0.12399154299059723	-0.10602109814846998	-0.11454201973437426	0.1369550748123076	0.06640729671555796	-0.03694667505218348	0.207311868315861	-0.06630400154204141	-0.15998910189044152	-0.011653657548853603	-0.10953618881670725	0.021992766268740603	-0.08257466622198108	-0.02273214868441209	0.07389296810639875	0.13923030958657967	0.1675027865018595	-0.2020134042533951	-0.20221866237997257	0.17895525577951643	0.24551791903567363	-0.04769119789773602	0.03434945907598735	-0.048714064946870576	0.10228043459702708	-0.04056651613715232	-0.03055783278663035	0.07851670422218973	0.09513901026926092	-0.0880996337736458	-0.18923143258012726	0.11607220499819693	0.040491818229096296	-0.016502561090975646	0.00033800354945080297	0.20348233748383104	0.0004926174006199543	0.04642057408407232	0.3158988347141313	0.009597613866132828
mon_pikachurockstar	-0.16818558747430382	0.1038043429723113	-0.05496828779216371	0.03611726133466668	0.08370590871182039	-0.13396920415255922	-0.09228744511755077	0.017230839242278508	-0.05260937270067707	-0.020721691419719405	-0.1020555595107278	-0.10713945457432328	-0.08934639812805668	0.13318407335502994	0.1036393946602785	-0.04503783340312743	0.20298252091926888	-0.044063203261029235	-0.1598853942449797	-0.0008392003494886737	-0.06126493702225366	0.008825108821220382	-0.07703777731986695	-0.02403055443619204	0.05166431439888952	0.10983474201905848	0.16728005261898385	-0.20148625724258723	-0.20923846081123637	0.1793723114870998	0.23247691650306157	-0.04096216989689666	0.047969708339775465	-0.07268021170724126	0.10982580426393375	-0.037861253313608095	-0.04095011319028115	0.10067729116084104	0.08613108704357372	-0.07378233615605757	-0.18516319602653333	0.11916727192007998	0.06209106239812879	-0.020030558052580798	-0.018968559724428954	0.21414622533278047	0.008778242915388368	0.027239812476290155	0.30718125278608677	-0.022978621405642947
mon_pikachubelle	-0.19180641749894253	0.10136408686602869	-0.05390402592576349	0.05924781760048543	0.05832540762408646	-0.12927696705315733	-0.11344599195319945	0.015679222770973517	-0.054989375865029826	-0.02484954553133484	-0.14535076190674487	-0.1599267383499544	-0.11993574604590057	0.15022874795351832	0.09877666209387248	-0.04557266146336349	0.19688354492906956	-0.0545821275064829	-0.15806718837371195	-0.02037354711329841	-0.08992260737100088	-4.961313469905677e-05	-0.07616419867461845	-0.01129040686277754	0.045919740352394565	0.13255909893183498	0.1674578510433366	-0.19815813303805666	-0.21603594743511517	0.17058031780134209	0.2595844836836231	-0.029297930659510713	0.09803294499868616	-0.0614877004252625	0.10717472110147569	-0.06877826822549687	-0.06133850400125518	0.09550017983812475	0.0987652394899539	-0.08358455720188387	-0.17130098534131133	0.14200276544523313	0.0545367503708528	-0.03015435012560016	0.0049163219334872905	0.20495472837051087	0.0007182940476762351	0.0652281866844262	0.2961668054725456	-0.01217763789128324
mon_pikachupopstar	-0.1978942513337004	0.07095541821032858	-0.04570319472768051	-0.013511478908229353	0.055244662983315186	-0.1594636420696668	-0.122581738558591	0.04163798075831739	-0.029435019663055114	-0.07318839071970125	-0.09785772918974332	-0.09873241396193078	-0.14123097855271244	0.1297678697526468	0.06363813953278616	-0.08399385289279891	0.2032299204624645	-0.032755558081458684	-0.13128445112607012	-0.001960548212189493	-0.1550681496937809	0.04540929265665094	-0.06382101660063541	-0.04335501677765616	0.04662801672850436	0.103603399173394	0.15907406629228296	-0.2006247924449752	-0.1846554909123697	0.14741608925915053	0.2441425748194442	-0.06987517011927712	0.020441855018686703	-0.022764982751056175	0.0940054516503881	-0.0025240787378734224	-0.042595162596581304	0.07326003563163128	0.10094032486796502	-0.02878535400617198	-0.2015041407628456	0.09866018953170529	0.026621397859571877	-0.06780843641911112	0.02618297847240569	0.2061574836338885	0.02488313827357613	0.04502338557674379	0.3141729748291824	-0.004357751987050818
mon_pikachuphd	-0.13528274557927483	0.12320475502322871	-0.0777316503666529	0.029444644310070465	0.10805737306505162	-0.16392872136121978	-0.11193802476091108	0.02889166037078558	-0.08529766448003535	-0.04262460055243069	-0.16240138514929275	-0.1274120244950666	-0.10480389319467054	0.13807177780536384	0.0780449961157531	-0.030149919889447385	0.1901749885166799	-0.06546813416489139	-0.14996066602553682	-0.0008239516985298332	-0.06811489303457388	-0.01489126422752231	-0.09968807023381857	0.011691250721565133	0.07420178175025718	0.13276304030583877	0.184516992110716	-0.21540440509980674	-0.20298704623172892	0.18742252295905537	0.21523762800124277	-0.02013356796829042	0.07944193085212997	-0.039097956203915915	0.09606020465718856	-0.01710400794534815	-0.048919463338634624	0.09519076263027744	0.08395088347779683	-0.09284501558739815	-0.15648953211991326	0.09421313677630157	0.060717314655432175	0.020696509084373507	-0.03104456092108193	0.18346207587713634	-0.03387133409863351	0.04854460726908646	0.29978721151066584	0.038951921587174275
mon_pikachulibre	-0.1921043848331031	0.09970655462775604	-0.04846584180397341	0.048056712954195065	0.07117929475247867	-0.1416520159982953	-0.13098209321946153	0.003347357929844657	-0.05090131776668937	-0.04992345498669079	-0.11504415566699097	-0.11144157943579208	-0.09013257979338005	0.14799502684342847	0.0783479575261175	-0.04672590085306786	0.19773195232474675	-0.04910539374390239	-0.1580369665359775	-0.01407808073873474	-0.08230964778507348	0.008427243665031814	-0.08050288227641092	-0.03124057020158717	0.06035999894963242	0.12841980007978354	0.16257523052887576	-0.19598767948150456	-0.17612445104898497	0.1628632200572509	0.2414466749279243	-0.03709139567401319	0.03864519398246899	-0.06398173857069563	0.09558503498332196	-0.037151991891398825	-0.02887168484615628	0.0737272848772795	0.08438400600470922	-0.07816105765967546	-0.16507928994364318	0.11839965304640973	0.04462161160153114	-0.01564224783252133	0.001962808906879174	0.18749430697961073	0.003445021134534457	0.0510519453218759	0.29304618759503404	-0.006071324692997623
mon_pikachuoriginal	-0.1602326544796352	0.04620639378249837	-0.045326650621024415	-0.010500918881937995	0.031399310531888595	-0.13569635392365645	-0.15059360802867308	0.0012683123550278328	-0.05325939341351407	-0.030167605831654773	-0.10452410487913377	-0.10954991744478355	-0.14415327628523575	0.08970893585903976	0.07830967178976875	-0.037287288888229	0.21181975781889195	-0.04638072390551538	-0.13763393421911482	0.016384488166046308	-0.12475484519681247	0.013812255371016383	-0.050171878024934	0.0046946325586557855	0.02068772854026657	0.1173880141737804	0.16576027909176969	-0.20606504272312187	-0.23345223723908987	0.1829805509386414	0.2776780631350722	-0.07954427449836653	0.05899217164579957	-0.043827350665754314	0.14927752496747204	-0.004254819517743757	-0.06052084431857397	0.10474900517717067	0.0807770124746793	-0.05644501291852316	-0.18123136955545593	0.15936237697005914	0.03632008353698352	-0.05083168685919577	-0.01979028907462871	0.21558738031940497	0.005332093187854663	0.06450082887000723	0.28552531826838656	-0.0018084298329137005
mon_pikachuhoenn	-0.16234790410872127	0.05878234761589105	-0.05011522165368369	-0.004837847433432632	0.026852363313872325	-0.1450940590873952	-0.14278108233380377	0.03308274085728879	-0.046250184253777527	-0.03815603532425209	-0.10577299154495327	-0.09925722036174259	-0.14487302867447355	0.09321487817610277	0.0566381082116516	-0.04638292377850355	0.21204885524688452	-0.04556671308894442	-0.15291228096516965	0.014203970017890985	-0.12219855371316632	0.01155644889654422	-0.06133573640141174	-0.011935848594782639	0.05129286854304288	0.11042012752133959	0.17165867375559213	-0.21790063362160667	-0.22989118492446609	0.21009047762190045	0.2714861140461351	-0.06941609164982565	0.05503322882144334	-0.03916472401129082	0.13922259098649997	0.0018401563042020521	-0.055130643269654576	0.10211198243423728	0.07656773608741146	-0.030001146099156512	-0.1805925852666138	0.1390647385246771	0.03403785882527161	-0.06539516229722253	-0.008371095277030761	0.2279499247674209	0.0012765271032040095	0.04958526180540151	0.30838905123359633	0.008435688082196583
mon_pikachusinnoh	-0.16766850609666814	0.059824131210081025	-0.05617348679279878	-0.0038407317550749184	0.04363595326454573	-0.12338457849513795	-0.14374638367100614	0.026743048454060427	-0.04661897710690187	-0.05014136109166888	-0.10105482850116343	-0.10776002552192485	-0.14274812285754812	0.09821522149224073	0.07564539690898188	-0.05502110638641384	0.21842485249745902	-0.03378822736980501	-0.14866602554759845	0.007703289928329827	-0.12935737308213546	0.018871693427683817	-0.045613573880599584	-0.009002670153367875	0.018749690587433854	0.11609906768516262	0.18245612316963514	-0.21277230298238983	-0.22261315957645286	0.18833205194006225	0.28332585644032715	-0.06923736624378034	0.05969757988228286	-0.0401404648368008	0.13434990696908244	0.0026201724834757517	-0.04491051615398261	0.09051012257401332	0.08680418598298702	-0.031951261336393456	-0.16895224578352303	0.13451633178845132	0.04332944243330451	-0.06434177711624225	-0.005073473614822518	0.22065680868368967	0.009504892698899542	0.057519999190240215	0.2927130662749512	0.001472878831082631
mon_pikachuunova	-0.16328138449455043	0.06315899197621068	-0.05513882780111048	-0.0001108357315248089	0.03664599763602593	-0.14186220587085416	-0.1769245556596816	-0.003424073764781738	-0.05429279597495509	-0.014778157863106529	-0.10363511931335503	-0.09890869965125479	-0.15866068947787193	0.07438822048767554	0.05636025324615806	-0.02192733226122848	0.24870411288495672	-0.05971827357617498	-0.15894123363414717	0.012385683302255987	-0.1232949160643825	9.943259106040236e-05	-0.06836842163369031	0.004606241510200924	0.052270684749308315	0.12461639019988191	0.18686608557935003	-0.2346111485379565	-0.2231593567566556	0.2104056989053711	0.2712994231946849	-0.0716583475581985	0.05551983684576844	-0.039474991483828964	0.15232907537304705	-0.0054911822701926875	-0.03821532803570844	0.10403281273858407	0.08179554025423477	-0.07061225739647181	-0.17690070730817745	0.14881651686832884	0.0358319246383327	-0.04632387076518126	-0.03662185525367789	0.22644249722040086	-0.00010125946445507885	0.06488321401514918	0.2967320841893465	0.016837032573288422
mon_pikachukalos	-0.16734622624309017	0.05395224320369432	-0.05187081553189218	-0.002759540484454483	0.03346460037205753	-0.11998773483948066	-0.1465019174162021	0.014010025157429959	-0.044706911109110216	-0.02032560520769417	-0.09434376525015677	-0.0966377287624018	-0.15071986108134397	0.07821229831980943	0.06949183493727192	-0.04319474631687042	0.21988344015786657	-0.03862042434531826	-0.15230335132172534	0.009042527597598937	-0.12353881506048466	0.006722622994303277	-0.047224272035971813	-0.00379511375386249	0.027091499746722023	0.11425064215009965	0.17177972900925356	-0.2189412756639318	-0.22023565391947256	0.19716103126755075	0.2749704376305027	-0.07462975894528553	0.0648375010185749	-0.04064842208566721	0.15618839617948527	-0.0063430304021035045	-0.044765505444393235	0.10741075750699951	0.08160659424606484	-0.03843472701094826	-0.17233367688036852	0.153351111191062	0.0427269439814138	-0.06670965173032084	-0.023772617953114444	0.22989354277198	0.014355303417192022	0.05886710841668334	0.2801726068038226	-0.003345488037626962
mon_pikachualola	-0.17209925628940503	0.04964687081583495	-0.051138726957690755	-0.013012535817910391	0.043468090477733826	-0.13754524377919258	-0.14928808956608688	0.01913628154967421	-0.04122870958902875	-0.04517490671813577	-0.07670386322460787	-0.08320935941054457	-0.14217226799790195	0.09036411567308879	0.06570221409932081	-0.05262961694236976	0.23345162217524526	-0.029724763104831405	-0.15557913410742583	0.009540756684381145	-0.14021459914194825	0.028243012134327547	-0.05373789957048919	-0.018737119843979164	0.029958809499868767	0.10453306592752096	0.1814171007220202	-0.22980527296296152	-0.22711909186538518	0.19700398007991538	0.2884401473641968	-0.08268940240069396	0.03298602730499291	-0.03985203189043016	0.13664080688865013	0.018679799952568486	-0.03879464863800963	0.08407634028751328	0.08498445236723902	-0.029472406472668335	-0.18884300273757496	0.13251056304432499	0.03653952962110233	-0.07440369713296882	-0.012759785253772587	0.23386828732004414	0.012499011903299674	0.0573222783511363	0.30695930019881545	-0.0030785536846520056
mon_pikachupartner	-0.15825393591115006	0.048241912736149986	-0.044292709942892916	0.0028571012936271533	0.027548340000327378	-0.1236040972513767	-0.13390579295516694	0.010961028984582632	-0.04659497871916182	-0.02846362689011948	-0.09280321687918314	-0.10601098608818355	-0.12616463890906315	0.09392172779954201	0.07577510260801743	-0.044444836480400415	0.2012890767340834	-0.04189730422610034	-0.13811424529093835	0.010913198161488651	-0.11201236749697442	0.016838273370984	-0.04732141506714089	-0.004725459644649272	0.025583756669586146	0.10999915089964171	0.16120509746188505	-0.19843744808622898	-0.21673359909247367	0.17933001747359242	0.2652336005734106	-0.06766665372515644	0.05808535756139274	-0.04649247038681346	0.13390920759711727	-0.009361599794022745	-0.0520890089232608	0.09591034015538724	0.07850773659623185	-0.047002058196207994	-0.17156941075917906	0.14588188457668338	0.042577418243545266	-0.06151113203844347	-0.0029375980250374908	0.20645254268105062	0.008874402400128751	0.05250013695531122	0.279217380607684	-0.00919768934921848
mon_pikachustarter	-0.18396394630992594	0.06929329684719042	-0.05443132007052866	0.009465336250070273	0.03721218341231758	-0.1482808775624226	-0.1548254029066933	0.00789224692620063	-0.05338127767573438	-0.027687143474286424	-0.10408544095578477	-0.10765062122892823	-0.146113334526162	0.1003794247714639	0.07043504301653726	-0.04288090616399833	0.22907203626162387	-0.05126693427960159	-0.16189624474292671	0.0033745003690895743	-0.12370141892493654	0.012310074851949813	-0.0683770947644423	-0.012144438034695695	0.047278948070620004	0.11899949636121203	0.17701728821137888	-0.22413779078877535	-0.23027931014667039	0.19764118364888772	0.2767803442222025	-0.0735445373404114	0.04711318398016284	-0.05276184015901291	0.14193381177975511	-0.01715793283616989	-0.052115604679364255	0.10486994158042993	0.0826437104615379	-0.058430909957153714	-0.19609298358167132	0.15195176840564736	0.037920012543721925	-0.04813046610696423	-0.012859545226819978	0.22960397975670832	0.008098521645051593	0.05266106787820661	0.31644202186500864	-0.006343134422632225
mon_raichu	-0.1952124135574899	0.06378504840405641	-0.047684320127731245	0.058139473480299235	0.04686556854144384	-0.12654519729652247	-0.17509886930914262	-0.09112840754232376	-0.05684217163391069	0.08325854730585795	-0.055915520960263726	-0.07811433975962526	-0.12452330697104916	0.04697446755023871	0.06904577534844285	0.0241681280400361	0.24495684716014515	-0.09139597532895595	-0.18485094564017746	-0.015476253746700537	-0.06321251800437072	-0.03461388321493028	-0.10146986741695889	0.023643462791844445	0.0758707037959208	0.11835140115925952	0.16471628802462898	-0.22383975693013838	-0.22381101649220145	0.23073821517918525	0.25797150239091027	-0.0657461531973835	0.04682999075483113	-0.09844197336157659	0.1745173053207505	-0.05940342094037898	-0.01754299443050376	0.12460981039172557	0.0590123388988332	-0.15542800800759238	-0.17455336746565897	0.1950121148469786	0.0422093213347926	-0.028502564471401263	-0.08447545814406045	0.20749953864627355	-0.0009348235761094842	0.06750267653462529	0.24690752261261634	-0.02602113178222941
mon_raichualola	-0.21247565401601323	-0.002963083948386674	-0.16188952913503152	0.06257074559724946	-0.027640179735976787	-0.038199095127808315	-0.35389837587148554	-0.138799239034445	0.022986111087186623	0.08434312354587634	0.05057304500558032	-0.006388920571709541	-0.17196070524148951	-0.12084344429124586	-0.11537094407816964	0.07128310677676998	0.35068362994470287	-0.09287347951987085	-0.05496229304968226	-0.01676166054562609	-0.04637057436824044	-0.04020842092496535	0.0238839578331322	0.08749176256712446	-0.05737010352642396	0.07455984999317984	0.24725143485844298	-0.10968881801353038	-0.025353518630748906	0.14761298427886863	0.31794332267368686	-0.0569242256560373	-0.060854811015849226	-0.08971020596369804	0.21972675036451814	0.03936556118344407	0.12250247415982832	0.11165549097379428	-0.0018002259585562202	-0.1464302719779962	0.07039483842916001	0.12441038193763126	0.029875129051697716	-0.15628280471531583	-0.02580994385998729	0.042877891548181904	0.0147991572680627	0.09685287453570968	0.1403192856214427	-0.07844973782748203
mon_sandshrew	-0.06378264946237847	-0.04934337321451532	0.15238478228986743	0.21215333700026312	-0.09907575936320498	-0.18149168060091647	0.10404157391158765	-0.17584002799716428	-0.09555055355887515	0.1750185168899207	-0.0009154402109000433	-0.07449620334583251	0.2055628578513678	0.027209074532106203	0.09594716385580282	0.11161251900626043	-0.15003595626290994	-0.09006927542728049	-0.1573635009848614	-0.1313547253469611	0.036626813841082136	0.04211952057063854	-0.25473627121338593	-0.047229627991233446	0.21736012797614532	0.06408127780998624	-0.1744356677625878	-0.05989263382092785	-0.09247341287940207	0.032449602504852806	-0.10800031995091808	0.14920651481713518	0.04959732823591437	0.027875908461643742	-0.2885444974122672	-0.21710013193821395	-0.06974262662688974	-0.12788825233114234	0.04800620765005122	-0.1653377348648443	-0.18579706343256547	0.0065589030586051785	-0.09387938808301349	0.06876489300106452	0.02972672913804693	-0.04981206424674496	-0.12978277410187483	0.021861313184030833	0.0894009414705342	-0.01792690570696594
mon_sandshrewalola	-0.08608331270881704	0.006991225387208688	-0.11056818384442023	0.03698596540317221	-0.10703646949849561	0.10283518830804915	-0.13657818066389743	-0.17261385999234777	0.008857271024762753	-0.10655340555158888	-0.050815780714922314	0.0060335108498908736	-0.11452704081688865	0.0009686768031103199	-0.10952582277173475	-0.043615720466217534	-0.09445483843468852	-0.14477270605583456	-0.2349406625949949	-0.1644251060822344	-0.10552451686868208	0.05832671489956408	-0.08235387659128426	0.12194730263857421	0.1674680357135642	0.19390955059736573	0.21020954946591114	0.06887185411080403	-0.10203844205070377	0.0008406155730982214	0.011487388231391976	0.21603446861491601	0.10075467678904317	0.05028324274200747	-0.059967475862450735	-0.15852396610495273	0.1395643975896573	-0.24792596460946115	0.1625895930519969	-0.06912652252614292	0.24689122486159018	-0.05086334078187271	0.09385980361220957	-0.08041095117210983	0.04003068872441606	-0.20464620929381921	-0.07689274628553734	0.020858417751596303	-0.18059295919283574	0.24431873643881075
mon_sandslash	-0.0573987365406038	-0.04171277220597982	0.15758164210284478	0.2233916885136933	-0.08182849403950346	-0.1560037706606173	0.10425698421338223	-0.18987756053733074	-0.09184056550159293	0.1701944772241439	0.02564929405312753	-0.07641727947238292	0.23344413188788032	0.02491941505224149	0.1275213819675449	0.11179320797987605	-0.13169256316009012	-0.08000616185730113	-0.16891912229951028	-0.13357911739528067	0.04723702583136678	0.052643487228884525	-0.2482017046500286	-0.03797593052448523	0.1994081030442486	0.06643053685691333	-0.15019970595813184	-0.05693510340237591	-0.10734836729757997	0.026041096487036244	-0.102256625144686	0.16839878075909506	0.051900343826955006	0.017263030056022574	-0.2968263282961462	-0.2058910744258678	-0.05262357146790594	-0.14277517666099163	0.05160610024497125	-0.18784962536258304	-0.17892730552791017	-0.00017891788767893712	-0.0819885673397045	0.0666895403345077	0.018294888985451056	-0.06641879945042915	-0.13452607661698707	0.04458632607391947	0.07548243018676253	-0.030759395568453095
mon_sandslashalola	-0.07970063988859488	-0.0009567312569389746	-0.11138823693815912	0.04066507923681965	-0.10781219213403082	0.1150238223564549	-0.1331152379897568	-0.17713220466341298	0.013664301987242422	-0.11028964588031413	-0.045567476257144406	0.00334494586428807	-0.09668274806361786	0.010011804926759295	-0.09539553583181525	-0.0435190145611532	-0.09529995319329652	-0.1410841647007681	-0.2278504289864779	-0.17121494009616192	-0.1033059627263879	0.05961935233706397	-0.07907001206316287	0.12250115442978539	0.15528454985168227	0.1868603453891247	0.20997400290364995	0.07653935031223708	-0.10573285068733328	-0.01358107997484406	0.019361599533072545	0.22142492320248283	0.09954175137371714	0.04499856813387451	-0.06682762816923894	-0.1511393121018107	0.13583035159811727	-0.2505441290914464	0.16719880622232933	-0.0716451067536132	0.2543479618866669	-0.053353101458267334	0.10139118440111336	-0.08434206014023096	0.04563191707259898	-0.21132026654951713	-0.08161849896907283	0.024550026202154223	-0.1842908584816477	0.23458115093581058
mon_nidoranf	0.009443719470979911	-0.021175108022709357	0.13528161770943778	0.249316557685114	-0.13265066690806157	0.04214113433461754	0.24400456189431388	0.08016197174932987	0.06480350082275037	0.29835181341311257	0.08387800138864887	0.16114786687485172	0.021906995688582544	0.03976373752527862	-0.23125760246806457	0.07730693594647388	-0.25020756765651997	0.04531253403914674	0.06440937819247743	-0.03984424490509347	0.1874172720584992	-0.12134738503177989	0.09626102927232408	0.003927358824477363	0.02856203626397166	-0.1429540276481855	-0.27044145298670336	0.1705787544640349	0.08955927196371717	0.09807824272218124	-0.15959791886169483	-0.0047569034370560275	0.10475786359222461	0.14269758962596948	0.004274055170286993	-0.10570232978935452	-0.05857301192061971	0.23665959996397087	-0.10473143603524444	0.001087486938728874	0.0006229919471355193	-0.10415618884729917	0.06758053163482632	-0.029884035272255763	-0.010812936299092288	0.09099391418775057	-0.12224987830280912	0.06840193158947003	-0.12988661204919238	-0.19268817301895572
mon_nidorina	0.018263040799514633	-0.02064652267608503	0.10600677196573327	0.18041005187056944	-0.0925172140829943	0.027321265460485158	0.231010423271201	0.2139882157419855	0.09974727043377307	0.22894109252870104	0.052337449853511075	0.13553131069962052	-0.09287464689123051	0.08981046085677337	-0.2671829729476672	-0.0016695539789890284	-0.1693756929585826	0.09679063675600581	0.11259916023733543	-0.0027332555422505808	0.10109707249327236	-0.043850047330623615	0.19898109917493365	-0.008166508070997534	-0.04217292153684561	-0.1538012486745644	-0.20040873960899389	0.09564508852590561	0.05404927166464567	0.14804061631708354	-0.04219772310130938	-0.03112719291953397	0.16058294266147347	0.23194074745558638	0.019906343893027405	0.0013898126620221672	-0.058542548097584815	0.2178510461438951	-0.07406767615086456	0.08767159843576375	-0.052499147975912853	-0.14974116076495653	0.11757424818064671	-0.1336113037821228	0.04994856130760944	0.18852359099427946	-0.11106522509595124	0.12606863435637872	-0.024314133525577982	-0.15172284645087364
mon_nidoqueen	0.0062091328561732365	0.007035481203039169	0.12322809950342148	0.23520597187843081	-0.14656866025903742	-0.09905026921086536	0.2756412935762767	0.20374502971835515	0.05018035325448424	0.20691304566934388	0.031575840899600416	0.10148583389726354	-0.029775309139885537	0.13876969457291935	-0.25635544481824274	0.006069911442300032	-0.2441637529818575	0.08342001000925717	0.007271388364721497	-0.03985227220049223	0.1054268331429385	-0.0035869935489608244	0.054426308877023453	-0.04935235383613716	0.09850620675149593	-0.12575971841709094	-0.23246042380149595	0.08713318794880733	0.028009102390929286	0.17126554434101732	-0.10625595887739064	0.0184430250855407	0.09807795243150699	0.24086865552806974	-0.13357302272995739	-0.03325302155184846	-0.08733181154826578	0.13948603202336105	-0.07076488114296411	0.08208203174134354	-0.15192190938570274	-0.1892201580587926	0.0389491665279675	-0.08218649303186117	0.11733147684978254	0.18357569438923946	-0.16497768367149276	0.06909791465175227	0.10090690944214971	-0.10117724033327967
mon_nidoranm	0.007757662176254817	-0.02155588093722786	0.1290483066813395	0.25545420262912155	-0.12078230878975557	0.025379241276514822	0.25059806247115	0.1128081434830048	0.0804507961075361	0.3018201585044042	0.06468350647385816	0.14501653035733375	-0.03560029515935883	0.04957321077618587	-0.24810023222303584	0.06432898651786143	-0.22927532503119036	0.05523263211441651	0.07199875415434512	-0.06189767906081813	0.13144228796821186	-0.09264699493922854	0.09609486099579198	0.005594067911094813	0.028801769259323255	-0.1477413459108987	-0.2568547420965041	0.14866895379152306	0.07630424691092558	0.10971164253409375	-0.15425884344104368	0.042740421592926015	0.15905738780958747	0.2106394517792003	-0.029207624379233615	-0.09567226988673927	-0.05131050407265355	0.18285473979730024	-0.07843564243519051	0.010526893992153908	-0.017347872717382713	-0.1433411615763709	0.07077004063738113	-0.0472615024448488	-0.016523295124084944	0.10891269634799287	-0.14237968107943674	0.131589436773117	-0.11415030472807838	-0.14196403743386327
mon_nidorino	0.03524500960874233	-0.017306797014872696	0.14039562821676557	0.21951982224442074	-0.08629578753899532	0.016972897713950767	0.27210243160210706	0.10539345880992536	0.07932295988432403	0.3058564598738363	0.06001977088728092	0.13762022589261624	-0.021012008261887472	0.08435861769697103	-0.25657997504002117	0.04285528209664462	-0.25802987845337927	0.03861368934834026	0.09171098656721409	-0.048203668434337	0.15517616174432428	-0.07996155086642615	0.12515867510540438	0.038477274580359454	0.020109747377245184	-0.15302846616138252	-0.2612511706161404	0.18798305277745103	0.0670026932300558	0.08902103443480393	-0.17006657315240475	0.04099026339223647	0.1647628117760051	0.18948367784384396	-0.007340072279048261	-0.07288724003082803	-0.055633670848297984	0.1680277109115895	-0.1046803313950565	-0.01026392419589979	-0.02710364550178908	-0.14439934668727783	0.09971408053326808	-0.0388623871865283	-0.01897243839554684	0.07211142494759773	-0.14625765579980776	0.12415289176381357	-0.11982525437122557	-0.13206535859715296
mon_nidoking	0.0543995922737071	0.04071524159350639	0.07742968436256115	0.31757616477347	-0.1487956211685112	-0.06625734716198158	0.3080499644694072	0.12485724426396741	0.03518110895271159	0.2142728577288672	0.07243623910555295	0.12164123781987983	0.018545684994062173	0.1854500160418151	-0.2717014568000393	0.01679846241770142	-0.24332279042120228	0.033581122123032554	0.05908746995144109	-0.08121389902620135	0.1390091092596268	-0.08764590362950073	0.03575796548040111	-0.01398836283534721	0.09207902944600563	-0.15001426213585056	-0.21096607098958667	0.21345092024579473	0.015596603602146028	0.13843645321922904	-0.13737245392144032	0.07547564550105425	0.11967750160611053	0.17438997139282508	-0.09484919908029696	-0.040558789036857376	-0.0580172435794745	0.10566603308511421	-0.11702490523469952	0.014019800494139662	-0.10584161637421788	-0.16598315021675006	0.06640488169293834	-0.04946185530471819	0.0740115251682141	0.038682908211742445	-0.19582306341222747	0.11041442656248122	0.055708462733955605	-0.12095090198837775
mon_clefairy	-0.1287220668328823	-0.14520966360467494	-0.07564124002187426	-0.0072198093602831945	-0.016940853010604467	0.10467205388249402	-0.3139853303227012	-0.12392042748636868	0.10778048748877053	0.019020387093172157	0.1883869039084397	0.060305969042391085	-0.20384419424585595	-0.21007568176549002	-0.10278455615625408	0.13489130428295373	0.3605022411958948	-0.0006767193058770445	0.10907734971462567	-0.02476144422436673	-0.06860251414324872	0.019179552643685153	0.11552772612780482	-0.04231612575581356	-0.1612742566766	-0.03334121548650263	0.1313965514950691	-0.07060099987714456	0.2083151877889957	0.012931733171429304	0.29028562897466637	-0.1464074114166504	-0.16913439031689168	-0.08896611157531513	0.06552139796985418	0.04191329414101949	0.1924520119462304	-0.055177814093384195	0.004567042502649115	-0.06643782477169846	0.12196385097454848	0.04385738266470723	-0.04506425465987214	-0.1587750904370237	-0.005075963561674625	0.04915046374698208	0.1312411149537513	0.06246941484802681	-0.032317111416942546	-0.06491726050447724
mon_clefable	-0.08902750539071362	-0.172378889226764	-0.08981092864691738	0.024320985549549378	0.01787815987725765	0.12038683812024227	-0.3276016314133289	-0.170521091333153	0.05471990805758929	-0.05978377861052225	0.14629277708020547	0.0034500629775319077	-0.06750242764440462	-0.12625889463430565	-0.02676512888332474	0.1557669710041653	0.31117870405897124	-0.027668967753569314	0.13182682901519532	-0.06117665869166746	0.012173933407730216	-0.01044896959296857	0.129608634394801	0.0001519226534841224	-0.22164731474848895	-0.012586067925535394	0.19701208217302535	-0.005130735330161552	0.18058107748188118	-0.05103396412287287	0.3587200827215424	-0.06051730148045247	-0.13313824956858294	-0.16205985774224513	0.02325406596714056	0.04080000522490119	0.17472571779412974	-0.07904008083547225	0.017009592490533302	-0.10727239738559155	0.21600054131659088	0.015654297686188586	0.012872184896383953	-0.12176697265357977	0.03964720747902795	-0.00925608428367217	0.05030981646341079	0.05196110216292391	-0.029108393286367322	-0.12354106408343067
mon_vulpix	-0.14343312644013137	0.12730089229377206	0.18161180962002027	0.040683865961826056	-0.16691770850881713	-0.05984919588712649	0.09308359840785471	-0.09246600788945433	0.03893966235488636	0.20003182667019587	0.05988572950397136	-0.07537826543588577	0.04438269097306771	0.0788350617061128	-0.14419940709458642	-0.10508019524093448	-0.289237291971133	-0.03761547383364105	-0.08709694744408272	-0.064599522288725	0.021672189628691288	0.019969232293702163	-0.02073399181447139	0.004003769887997116	0.22924268567419046	0.013681080863821434	-0.19962798064952358	0.2624307025493275	-0.03577852223611467	-0.16896452602592235	-0.20879560929077778	-0.03575122619986102	-0.08437726838553385	-0.21003815447644134	0.22479951747735943	-0.24337584346270041	-0.07788395931930182	0.03836640573205138	-0.07575444929630193	-0.10460503279892627	-0.08275571218913684	0.06507039154128554	-0.03299189315803244	0.050606545726941184	-0.03745426278202078	-0.17044024266951435	0.04056965146321062	-0.1088511692599289	-0.0001616530047919045	-0.15773935673992368
mon_vulpixalola	-0.043641225747507895	0.014603206586852442	-0.12405324885896667	0.04604152348197207	-0.11214682561181051	0.0967360281042117	-0.14871121788812078	-0.16142875298677836	-0.005906968619412114	-0.10277446580153704	-0.09906388235476221	-0.012345967344628044	-0.125809056242025	-0.029161386042069474	-0.12298076217849792	-0.0069382453364445216	-0.09540648012645661	-0.16630749713827567	-0.18655136562887462	-0.12623559768217538	-0.06552104919495576	0.02033862862090078	-0.07198474735966154	0.13221884876320464	0.16392725697977803	0.2022901171072779	0.19366174837008937	0.07990813118221751	-0.038920369352237576	0.017677234478897866	-0.011178082092429925	0.21067571477432467	0.11678305651811476	0.05538386615231055	-0.05931630364622297	-0.1623368864699409	0.1435284256253572	-0.20309344265383356	0.1314769123722724	-0.06884194916726055	0.26898039358065123	-0.034656910324109655	0.07583413685706224	-0.05385623586888395	0.040028365268195996	-0.19756935043859877	-0.0693118612751481	0.011615857787216934	-0.1988611827265818	0.2749312603551037
mon_ninetales	-0.13268973428876693	0.13725611215198202	0.18077720761420438	0.04432962213659044	-0.17061431634670504	-0.07015168960645844	0.08280225186327575	-0.07872686232199187	0.03682152456949264	0.20253279379031086	0.03816858896372932	-0.08135469401864008	0.017972647648059302	0.07288691855239286	-0.16334228445438942	-0.0840727589765856	-0.27866704595009223	-0.04913287745634169	-0.07032280783347568	-0.05439953424344209	0.022262726439438267	0.015522117887254034	-0.018138077666114284	0.0032272776129723315	0.2389768885534593	0.025751136577005795	-0.20772317659843983	0.25640843570864574	-0.019240312017434844	-0.15778489865282438	-0.21677998139533963	-0.03898869001278347	-0.07948482518351883	-0.1978494029027936	0.23181451706620101	-0.24736174338465192	-0.0748884744097362	0.04554735514859801	-0.08498422405246366	-0.10915272194689227	-0.08691035728048714	0.060939571872244164	-0.04308841257509252	0.07545523665211745	-0.03825911499282612	-0.1584559796532169	0.040864739537450574	-0.11662028886234956	0.020594736825197812	-0.14524001728135816
mon_ninetalesalola	-0.04016992313385207	-0.004186505786482486	-0.13816991784969584	0.046877211827786334	-0.10536769767823015	0.10498480434620606	-0.19427965256438395	-0.17495917425966095	-0.0005195096515689198	-0.10365093871591045	-0.10078470001632982	-0.014704396294306558	-0.15475078303621465	-0.05909290782923511	-0.13223879635603228	0.025608413452591145	-0.057903282406052164	-0.1762337184213163	-0.16231619935133823	-0.11646050344422385	-0.056939505444444954	0.018823095255107756	-0.045582342403929006	0.13645229475828705	0.14219753776123406	0.2130313546246802	0.20758644238480045	0.0725945216888769	-0.0011618797272480148	0.02789573131806971	0.02360110293938995	0.19876873980287735	0.1166210169640007	0.05343679894223112	-0.0549789270573823	-0.16068257398161426	0.17297107650594895	-0.20480628524967093	0.13401579765770213	-0.08203375420943324	0.2880041861887447	-0.02437963767356143	0.07556613199730694	-0.07241036685336792	0.043464887076477166	-0.19503062869590224	-0.054549718604225306	0.024874753120357848	-0.20246393034202692	0.28367744276122525
mon_jigglypuff	-0.1516344894825503	-0.14229125679704585	-0.020953937795705337	0.012480250705488867	-0.052018928212729944	0.143423599699979	-0.28952601386722865	-0.15092689634220569	0.1467824415658899	0.09822567403046074	0.2244759469130229	0.0750209881948165	-0.18241769552675932	-0.20903434878307028	-0.07774145259347019	0.14926084463946399	0.36087368532159014	0.025252164077529858	0.09799318947740177	-0.06427113071033004	-0.08483584457882153	0.028664709466359274	0.09084236231534373	-0.06163566883920492	-0.135635194239021	-0.03623916243092705	0.0940400773822651	-0.06955034778265622	0.21005550731615044	-0.04034201602586596	0.21289014523973118	-0.14937615748015134	-0.17962073548657376	-0.07421444975799385	0.0842677331264221	0.007693622661859608	0.18983504104364182	-0.06554176023813758	0.026596775490476492	-0.10242304815162924	0.08107664039096109	0.07480670733241752	-0.06502362386034961	-0.126090870454222	-0.08687091484003717	0.060108241958161175	0.15272371256532696	0.08726135827576043	-0.10284844191976283	-0.10428957261495783
mon_wigglytuff	-0.12210231419200956	-0.14429365627214116	0.018272819614700724	-0.012805763346291774	-0.10207014759211568	0.09148490879306023	-0.3232309781360131	-0.19778024796338842	0.1539033737275814	0.10603270237185534	0.1889441897531267	0.06332092671352868	-0.17161668952662656	-0.1593197645498995	-0.0900324151668789	0.17062380586760093	0.37567870273143433	-0.017005268433927224	0.15405948144791068	-0.025407715880989612	-0.07587290003826298	0.03914413891742465	0.08779224843362213	-0.05291005454672034	-0.1217090873847334	0.01396253040863808	0.0906476172150632	-0.03596656474823399	0.21270668140023488	-0.06037218254981432	0.17796008730793797	-0.17163887642249678	-0.21457010225346065	-0.06868177836947506	0.09928977406972012	0.007618033195887652	0.1758230195069802	-0.03193635355319813	0.03710490349213183	-0.16492126441026395	0.044817532639804876	0.1002058917580676	-0.09207581339098304	-0.06270373328539922	-0.09876801490445915	0.0563273171309953	0.14874698804514472	0.09963329166499359	-0.08672683623998494	-0.10870842535317062
mon_zubat	-0.0333091207466296	-0.05480612065911862	0.03877287701844813	-0.2840005280791838	0.05457719603600208	0.06940074085825769	0.22235655863909093	0.09336505478940361	0.0710453124372198	0.09759807567218613	0.11659102680639588	0.04549449750017418	-0.12409378834960014	-0.18979553039215669	0.1198264278009417	-0.19669317199125344	-0.08399316249716085	0.11333652791907538	0.09097737123156448	0.037889565574378364	-0.3257308371593626	0.13765726970963177	0.10920905215522908	0.0802191257422748	-0.18576961168032774	-0.1073230611198467	-0.12233550821475273	-0.012464767128123425	-0.05659376131081727	-0.2123873075245794	-0.16997207496979125	-0.08934926759573016	0.03085817914962472	0.12019226296751867	0.11020360025969415	0.11553210939020442	-0.060903812350994194	-0.06483194593904999	-0.06562908212752797	0.10463904319722545	-0.15684050643192687	0.05083192248249376	-0.07209837127608353	0.03597183450025549	-0.1560324532772882	0.03177793457100418	0.09145505447522406	0.032558239233073084	-0.17468851628996815	-0.018350283987443254
mon_golbat	-0.0656373780612314	-0.06307997397221113	0.04175094473023039	-0.2941602760705141	0.053629766070166715	0.08815054077925048	0.2131749844057858	0.0744794009148016	0.0725831389077795	0.1254579600480539	0.13480115038553359	0.08282881476288695	-0.14051434303771154	-0.253010223959369	0.1317097689042164	-0.20925625088800426	-0.06598805046661552	0.11402142947075654	0.05994792808253256	0.022664004092863226	-0.34721878566461656	0.13953917187846634	0.08833562951774278	0.08230517642839173	-0.1726846543917407	-0.10681927938692223	-0.12051114258269362	-0.02587544424414689	-0.03962583074263612	-0.20539506882289255	-0.18837372801199706	-0.08411882104710879	0.02116159699501158	0.13642509317920967	0.11420688327218798	0.10159676909137501	-0.030211163269549778	-0.05324358016087651	-0.055405740573764815	0.1000244597863696	-0.16272270615846082	0.055882124413494286	-0.08670090354028177	0.025982327585358532	-0.1976372489801256	0.04934769536989805	0.10658623345968747	0.03677631713770572	-0.21231208178042618	-0.0065737608670495065
mon_oddish	0.10662801521805416	0.029552562102737674	-0.004051272907780931	-0.17135738147058943	-0.08680643602999503	-0.041585697468430986	-0.14385217003815085	0.09208502544860238	-0.0170032093075875	0.08318893356646839	-0.10307134147389856	0.10495361310956382	-0.14840147214623928	-0.24055060178790239	-0.24653154699973875	0.02673034312827845	-0.0026322643614753905	-0.09949520161217379	0.16525650443783665	0.23580049519322113	0.06231802938714288	-0.1331064055853205	0.1141323820244031	0.059184901420041215	0.09789274267590053	0.04145056898855221	-0.09866048268066889	0.024248469835300678	0.35795192602249015	0.06315209373841484	-0.24087140728128034	-0.07259105913502768	0.004496445350410577	0.13335975606319594	0.15966217340155958	0.10735235962072372	0.062069190175769624	0.23941891925677883	-0.18877129852688349	0.036505445516959535	0.10531105032935266	0.08026857019755357	-0.06947449181216746	-0.010605836845560691	-0.036730398668961106	-0.024307850309749846	0.06324681791349243	-0.07455535427890926	-0.2135770529414574	0.16534180563674022
mon_gloom	0.1441439905963558	-0.015665963655138126	0.02779300412828073	-0.16869530939211616	-0.1444396240467923	-0.11394707493615908	-0.1395827005141558	0.06360075926725525	-0.03328700116604856	0.09053701810843813	-0.10034183645667048	0.12257926571173135	-0.1620740894862881	-0.18366851926861275	-0.2873533059541644	0.06442819234544604	-0.03513887740654039	-0.15949726282737173	0.1977850561072488	0.2491255207767899	0.007015356791262999	-0.12029371780867408	0.11567815229411939	0.08305026939027742	0.08348252599189636	0.061878285536334406	-0.13346799108077337	0.027637756607712366	0.2629249218305769	0.06739412987734969	-0.2295031348839342	-0.12974462396481087	0.016507997492636168	0.19335083257051672	0.13637688007383975	0.1200942677900482	0.02432905377982225	0.2705021233734595	-0.17891252400324298	0.0102085573429173	0.0533765352284461	0.05249585176479112	-0.05620408371231584	0.046524614762916305	-0.010717324429592067	0.028043390918418832	0.026544481166943974	-0.07199146587317319	-0.11728286322079942	0.12966354649741554
mon_vileplume	0.12897507257400093	0.028819257982925728	-0.013240935365600377	-0.1358575590452427	-0.0766595172448047	-0.0450527979071773	-0.1552701787380631	0.09277231369427177	-0.031909028167236536	0.05151109609239572	-0.1349364255411658	0.0833755002184378	-0.15603400425744599	-0.21267095996439747	-0.23158318193335628	0.0351957798227125	0.011231527480698432	-0.11540949051723852	0.17565344432060853	0.25663763350675284	0.09581499957235733	-0.1442570184801888	0.12538950998769116	0.05380767228593284	0.07255556554854176	0.06989036931372417	-0.09156769466278347	0.006559479440255308	0.37457974169435815	0.08603952871362393	-0.19344131547876203	-0.059182564028152355	0.012410466982889274	0.11670681189659532	0.14730146778625586	0.09683498302680392	0.06800694835700247	0.24366977619122088	-0.17689197144663757	0.03652217962887123	0.11459754929850322	0.09071212341338596	-0.05405527928870337	-0.002896847733437208	-0.006536910551570107	-0.013166221413403354	0.0646050713413176	-0.0666720899712848	-0.1796408171968593	0.16840190928783116
mon_paras	0.2387129274308361	0.04248320745016386	-0.07168195632390441	-0.09516506386035561	-0.032172890549507394	-0.016765211299860742	-0.08676480484723297	0.18124772077132797	-0.045953395194072114	0.04928036821680825	-0.11678162206178828	0.06148840096608639	-0.14508524773366113	-0.21275025329213204	-0.2633787488928543	0.04596660218958216	0.00650332304043274	-0.0631854287559073	0.17439463955884518	0.29059484793987533	0.2155890908476635	-0.15904939596497672	0.11758755651889219	0.04033961844479716	0.06314859164852356	-0.004566368807436204	-0.08180349798415769	-0.04237796858659484	0.34692598446967937	0.17623708366511848	-0.16509992040957663	-0.03934715442827659	0.04427765191688899	0.0915329509284953	0.10113587034102665	0.14544926996231178	0.045047888595129704	0.233524426441778	-0.20539748080463985	0.12713925937374318	0.12483388441113581	0.022471186882034425	-0.017312618472714834	-0.03504219685160543	0.02931092455391749	0.026025227013067	0.03445188692344645	-0.10949104477623815	-0.12217664327138811	0.18988253051999196
mon_parasect	0.2225561826635874	0.02794736849126805	-0.07170739175403083	-0.11239619274887225	-0.0509228672153649	-0.009410841904170394	-0.11892407023934985	0.13579298942981596	-0.024414559569111798	0.05336472912108067	-0.09224848359052154	0.09432051287560848	-0.18392469630548341	-0.2341183124608085	-0.28506409531516147	0.024369064954211345	0.0426036886696519	-0.07046115138026403	0.1548695556587324	0.29804840846460917	0.21171306934126552	-0.13267160814608675	0.13475921541449792	0.043886866614565374	0.062744083834682	0.007892863908301823	-0.05372412332366675	-0.06415075932108164	0.34391308763749523	0.1979364601756377	-0.12223416304723549	-0.05127270224133226	-0.0005052710555708854	0.06202110810815431	0.12271678101642927	0.13091427460529562	0.062483141510870685	0.2215696210366601	-0.20169714401546646	0.1371939515930269	0.11570507909809202	0.04118671687111064	-0.006969134488813871	-0.06791086668864184	0.009720744522952249	0.03384590355201857	0.05345839649906935	-0.10570651240989895	-0.1127430686567959	0.17326111597751992
mon_venonat	0.10214553897043831	0.05176041852115073	-0.12258251715623673	-0.07693271144923461	0.04059432482005625	0.11873183643034657	0.21091202317117466	0.2934341610985435	0.12651620303948746	0.15868624805530218	0.22060187708743761	0.045267461590912404	-0.18281446775683088	-0.2581993914725403	-0.18912822933872886	-0.07248378496624841	-0.02953906641610162	0.21663114513998916	-0.06428318585793244	0.009056585759913818	0.08327277462301304	0.05498348071849558	-0.025440733460843273	-0.034593401880328285	0.10418145425907752	-0.34240382676763015	-0.0168619764539101	-0.06816136972740332	-0.05216895099495032	0.15041739324124628	-0.1354092806835763	-0.008683234658511323	0.013921316056740175	-0.011304480095112226	0.0014090720630982462	0.07282240007690188	-0.07669753786643736	-0.0653163860070004	-0.09802690558719782	0.3229627657767488	-0.03481604415652067	-0.1654219603834742	-0.028664637824889254	-0.23853244454241113	-0.06799327403050447	0.08884264029077334	0.057108204263164805	-0.1343081158563854	-0.0023295844861268558	0.061938358470289286
mon_venomoth	0.13297872831879767	0.03235094449815537	-0.15635290880438601	-0.04708200172233885	0.056550386228635834	0.14067505859877405	0.13862107872872909	0.2956222799978769	0.12495144870574941	0.11437485363286022	0.19082058543069153	0.028888190018004165	-0.20405662706063132	-0.2534550595521288	-0.21723359933555006	-0.02914852851121768	0.03582683997342118	0.21021253913381752	-0.007058100266584033	0.04149163881603283	0.1392302729113774	0.017618611033250946	0.027843288357411063	-0.028165067785333862	0.053825564496161056	-0.3181989490305729	0.029391601289393263	-0.08562280567016907	-0.001760039434782577	0.18470737213674757	-0.06175395825900453	-0.04749421224101286	0.037613517136581245	-0.013111496143701997	-0.005920184309134391	0.10395230556780119	-0.05518278298392464	-0.05953714351538107	-0.11436736856186906	0.3244025891730456	0.043283566524962624	-0.1599241905764407	-0.00029508292449442156	-0.2481568253424695	-0.02868421038697967	0.09017233617411878	0.0591547562666175	-0.12552954203919378	-0.01793956465540822	0.07222082649140182
mon_diglett	0.0591553921774632	-0.018212560450025683	0.09041126375670702	0.21329921140806676	-0.01267818809144689	-0.20585270657986537	0.08894303744261114	-0.06177132042873728	-0.1075006387213137	0.0861548609416863	-0.0639700663765847	-0.12763278649332294	0.20127440943981492	0.08083906495595017	0.04960111930862022	0.15476894667945004	-0.12616066410307683	-0.07779801315266167	-0.1257898030222039	-0.09952389015441132	0.0862851910867867	0.051245718535183685	-0.25071157495637647	-0.014652208624964514	0.2526044936068909	0.06396396147656955	-0.0665745678893457	-0.04953216037655567	-0.09158857364165612	0.1152605254947419	-0.09039817765096272	0.16761069341830706	0.07225844480348936	0.056083864903021335	-0.3614781209481616	-0.08989777447873094	-0.05965571752698246	-0.18711786401565048	0.023746469642645086	-0.1186512650197204	-0.16131600067399382	-0.11653002948198962	-0.054381813909734	0.07734727050304963	0.10675016897711403	-0.04150862904120703	-0.1840261375526443	0.003329219545029717	0.1850144002753657	0.10290258835188314
mon_diglettalola	-0.009913454387559577	-0.0023939865721830313	0.10822472835612447	0.156049104941322	0.016861180711090093	-0.2672247588585402	0.023909708813032907	-0.05164045816983659	-0.11845114934400132	0.002814753705971593	-0.08252601615634395	-0.12500366689610393	0.15727528844370564	0.129625045771465	0.04101477094267936	0.11814064718794492	-0.051582811339624134	-0.06012088973227395	-0.1703477629180236	-0.08903375479227515	-0.023733692032249946	0.10459800906524497	-0.2609987342792399	-0.058690029375495584	0.2504009047506716	0.06467665411559247	-0.020378615376402107	-0.15057320113435665	-0.15959847403656732	0.11036457894349436	-0.014231482525320398	0.13106764606008187	0.04829968626749867	0.08280437702326504	-0.36033571526941593	-0.031637221456031143	-0.06788508903659798	-0.2197518318704492	0.0675720620567206	-0.09322947431594454	-0.19930722376207344	-0.1464419813626875	-0.06963368865472291	0.06534216111289157	0.10464259176939945	0.003729320291396509	-0.17481190916386158	0.03554128137105142	0.24663899898606867	0.1270421799636406
mon_dugtrio	0.05866210686106897	-0.007596632909523806	0.07436534754993145	0.20438827960091666	0.004508005543466285	-0.22782827203418335	0.06823412919902774	-0.04915915311776803	-0.12429997490388317	0.041663318440447926	-0.08402817948938227	-0.1272787450565928	0.19547041660644546	0.09417336888100938	0.05185466240094271	0.14348186679205469	-0.09395592442136677	-0.0797213359195589	-0.13355710835002504	-0.08839422795179598	0.06596546886708017	0.052256014924957246	-0.266453031636002	-0.019270899268737703	0.24913896291328866	0.07588189733580918	-0.038573744181560905	-0.0875322911289546	-0.10382329166808592	0.13539322855951766	-0.05989398233959804	0.1641118301222944	0.06481275553867567	0.057996147012608655	-0.3732709850723287	-0.06738992020193428	-0.061896897243280694	-0.1907832840547204	0.03005146071158463	-0.10609630347362967	-0.17134537132353933	-0.11655699431879382	-0.06392083288468012	0.08933451839826641	0.11352367958917338	-0.021036984371575473	-0.19036331888767075	0.004774202474813914	0.22160717258773194	0.12114351410183596
mon_dugtrioalola	-0.010073518662326317	0.008142498755539867	0.10320909193580896	0.1603488839814238	0.011483180305855187	-0.2656711864570357	0.030028734142946198	-0.05659618191288858	-0.1182531568304079	0.00045183200106506226	-0.0820199619003467	-0.11189724491805515	0.15455444055476172	0.12236667007616792	0.03374210320952264	0.11342863723622695	-0.06460598492584711	-0.06401540086556307	-0.16154918645350633	-0.08179629728706037	-0.01914862121633674	0.09692134825495853	-0.26478591393357354	-0.05123782581709583	0.2576230851035262	0.07225528985939274	-0.02828566049319511	-0.13738971307558434	-0.15073356404610339	0.1062673045198117	-0.037444642462897096	0.12999190301668243	0.038737148603094455	0.0802526253839881	-0.35254090680266786	-0.038523141253436005	-0.06487718742708821	-0.2067094857520624	0.05470596480457781	-0.09976575868038126	-0.19780741789536502	-0.1396326162585532	-0.07429290685160772	0.08517506438790173	0.10058428429184349	-0.002241109501813383	-0.17473418537980914	0.02505578772688435	0.2382411278629951	0.13050998987731033
mon_meowth	-0.11702551967275417	-0.06676095061912733	0.15667568063243945	0.11793740404177507	-0.11988919240942116	0.11739874967476557	0.017646023084875926	-0.19456016554842617	0.08830271967494234	0.34619231442988535	0.1874254035728022	0.05507801701381318	0.15789551110583033	-0.1261991276773526	0.06378182704418366	0.16933610210953084	0.05965878291951397	-0.04618875750421203	-0.09257582237640201	-0.19885920088140652	0.048883486002004234	-0.07971336870328216	-0.2330586490653504	-0.06983135648305316	0.0952020909208705	-0.11886139829586481	-0.11615945971776555	0.03223760293470775	-0.03510538862821293	-0.1306044447609956	-0.14561982607448934	0.044322064820583235	-0.09060744198811163	-0.031155489949494238	-0.011521486632822413	-0.18012815545285674	-0.011437678241652713	0.04774199241667365	0.04950972061450833	-0.19493217058286927	0.033392284225194926	0.025025138173695508	-0.0475640424489741	-0.025289179290993172	-0.2893093571515588	-0.06296977615554336	-0.029179597054294692	0.0013614203279839752	-0.2271813157820567	-0.20029484778079434
mon_meowthalola	-0.09133284575368826	-0.1707643890024716	0.11107886632271878	-0.07935572194577128	-0.05849029624411303	0.01998380982001423	-0.09810701984428909	-0.3111489688599302	0.05351158973845384	0.30019360875323103	0.19817859867220594	0.11623537649886317	0.09371468040532654	-0.10566372876248592	-0.005588689088196196	0.1683523784103714	0.03893990245736398	-0.1432395572286196	0.0025531627570973244	-0.15676633608292198	-0.010463489694029842	-0.03717478711276868	-0.19663149249015624	0.0050791754641577045	0.08984711855317457	-0.09129222361936548	-0.06875827685318904	0.0699884105156068	-0.004002826301207253	-0.16520049719878024	-0.12804418966533304	-0.06565340607996757	-0.17924479752689385	-0.041762201619805164	0.0929318256000499	-0.06188895199070619	0.0031498175163169394	0.11919502917830871	0.07235084759322095	-0.24219920826924488	0.029532553357353254	0.0423966812807167	0.007546966332197645	-0.08982020090176855	-0.2640939452416363	-0.1144166958963857	0.010906545511059953	-0.019609037180265503	-0.2392242791302499	-0.18206243539130645
mon_persian	-0.1512174150918919	-0.12796034299753814	0.1053042080567836	0.07823255347844205	-0.08241108954796697	0.12496032931131665	0.1341815638078351	-0.1865393915616317	0.11835523765986652	0.3490332257229946	0.23262733341791764	0.1120711481174594	0.16402470810027076	-0.12815295619909586	0.0978611319057167	0.1254377644406301	-0.09321033011664678	-0.02651019795982697	-0.0943162727088403	-0.23469126095435394	0.027256592514728492	-0.07295349181321895	-0.11092428715003458	-0.08378452490528715	0.014993054973313075	-0.12949109734174769	-0.10717426665000936	0.08848835481759826	-0.008020644083280293	-0.1165244751387408	-0.13864177119019502	-0.008548722369223358	-0.12077415720813152	-0.10039902713611315	0.049356911224862625	-0.28031205123846287	-0.022576494949725755	0.055462949146831836	0.03379003336541303	-0.12797724909974656	-0.0018913580273938275	0.01783346085151074	-0.059752225485125585	-0.013453841844415277	-0.2233271993360502	0.0035406958353281404	0.04239687214801875	-0.05236271593592219	-0.20241828147426064	-0.26632411310324655
mon_persianalola	-0.09947256771145506	-0.07633894539550126	0.07738440205200556	0.018871998227992695	-0.054405878443379393	0.08121601501696588	-0.052231377218786255	-0.2591640952139411	-0.0031290435567696106	0.2607236553150561	0.15335962853027907	0.09188295469828871	0.17120913125785786	-0.08222227044887546	-0.00902345948196764	0.10224736650429046	-0.08496939672348008	-0.10361018941286783	-0.14092119426370436	-0.22087192137093772	0.04637422092891168	-0.11406403570309459	-0.22595707549895347	0.006987374650949134	0.1319525017855384	-0.07266717430170426	-0.06133903551975945	0.07678713997855367	-0.0006707601601354162	-0.1488481836695126	-0.1802065566446225	0.010225650301307709	-0.06966542181488698	-0.07018240156959837	0.041734383236769396	-0.09533510352718434	0.014363173673643691	0.07911067561615218	0.05644270214541306	-0.16416983118274128	0.16915974405344966	-0.020630904387175523	0.039600456105191015	-0.04515712166592496	-0.25496438192103854	-0.16267436441264352	-0.030569571151319856	-0.04571525903877369	-0.329951216054644	-0.11872379847649635
mon_psyduck	0.2989047680754273	0.05307076837595883	-0.008805593158299312	0.1249240776613523	0.16222596304287112	0.12990494779947856	0.07093656083629608	-0.05436503774460149	-0.10549459483252126	-0.10814197721216177	-0.14549567429527158	-0.12636512111475198	0.2906652919472599	0.22821560662356086	0.19442878081792586	0.10555956027827199	-0.04437610596310517	0.005020432726577769	0.11990620305936021	0.042038463753291795	0.3403176789568498	-0.13491353884448706	0.1087866903296436	0.06992150009500922	-0.18074437885662048	0.06868089374517379	0.05800052200457003	0.09233491322058804	0.023869878123685795	-0.023361707598825616	0.021842735772566797	0.13014325351963232	0.16875739905833922	-0.09332432253282155	-0.08999552686558894	0.008308350075252088	0.0296798607425154	0.0020267526382885194	0.015149282661330405	-0.14930588188650096	0.21009242343669207	-0.030847287592555363	0.1896251776070404	0.15716229194355796	0.024818560972265154	-0.15687746582841405	-0.10736322972035785	0.09893875918870244	-0.11365796813640054	-0.01343376389701784
mon_golduck	0.27077604965592	0.031972807004511876	0.012316358028250197	0.1015788049599927	0.15407442507111022	0.14869854586338935	0.049856247984650895	-0.09822662630590437	-0.08882336636076858	-0.08519369295637477	-0.10429333729360146	-0.10026392652229689	0.32644774464666654	0.1966214280309153	0.23123027218475464	0.10721985005866279	-0.013544219962419512	-0.013705111514053701	0.12373869590052983	0.015743808010724062	0.3091331873479001	-0.1292668959775629	0.10835593815573108	0.08062259561815423	-0.19783598723544332	0.05462162926946947	0.06959727152973219	0.1080538357291855	0.02414069405735607	-0.07678897096183264	0.019873234874768952	0.14232883713441402	0.12325126208653966	-0.12261190136301692	-0.07452620534502759	0.0038273340489296498	0.042120859152429024	-0.019356090060404885	0.01202247303593013	-0.1971973251807559	0.2165287736250298	-0.02171868562517067	0.17144266408111444	0.16626435110515367	-0.015574046712226227	-0.1980593354594997	-0.10726806102892697	0.1064432423693327	-0.15562019266899213	-0.04606026852332708
mon_mankey	-0.14197733053484163	-0.11762498134695634	0.10511148809118091	0.07047026042976491	-0.07893183214720409	0.05700679597173888	0.17527924857288052	-0.25904658573201167	0.07003854140998508	0.12878250904318228	0.3195151536016665	0.141813386767907	0.2706890796181734	0.08515434934447867	0.16348127492365885	-0.10615458190400444	-0.22817227113099936	0.05611282985113139	-0.19136997472696207	-0.11532979182645711	0.09426006421500852	0.0382845993634711	-0.08301496957486931	-0.03560260803477449	0.03319796535151308	-0.04494070173754474	-0.15359105361744183	0.16298147812359937	-0.1876811292775737	-0.03273713640955574	0.01234942497900839	-0.06024148036244134	-0.13801374650812548	-0.20257672928144574	0.04746896054041062	-0.14208635772080414	-0.005582074460070367	-0.011869685390509456	0.038845629185878514	-0.059108638474505454	-0.08414158891657687	0.1342214343420436	0.04651194912435934	-0.059933402813899986	0.017878619104620984	-0.10830450395918789	0.049911663567638986	-0.07905754193598603	-0.06455471762736727	-0.28238695420277216
mon_primeape	-0.16704744102218022	-0.10727265697454211	0.10961678100406713	0.09286417258917926	-0.08585031753517888	0.04473443311589655	0.18177490645257324	-0.26806688509251103	0.04879261415701104	0.14643611133282333	0.2920162548633528	0.13300384164633128	0.2806505637974592	0.06968567895029054	0.1709799446300779	-0.08590158492459127	-0.23202121100664294	0.030633650869523413	-0.19312639741341123	-0.12947315698270243	0.08346278408431734	0.025291205356568838	-0.10202308367322527	-0.029860058772044725	0.044417764420713816	-0.04448323629938613	-0.16085516996551172	0.1563098193987209	-0.16978859175991298	-0.05124116252992257	-0.004784600233898368	-0.042290059314534806	-0.13593392850023553	-0.18945200727658482	0.019536836445161656	-0.1706352799868871	-0.01752569703305813	0.005333022386016915	0.03927238065675917	-0.08040593401707617	-0.10202135084413341	0.13427247045783547	0.023054129173334784	-0.03918659358320589	0.006046927353923565	-0.09563219715471694	0.027755675353971807	-0.07217310985422806	-0.060585894687612434	-0.28319016996705637
mon_growlithe	-0.16785458377240364	0.08310977154709343	0.17953001316119502	0.0655700258600526	-0.13008033811359918	-0.0942185272588363	0.1363010791476716	-0.13421551806409435	0.04078087828829484	0.23967183119212077	0.10968058356910926	0.005560095226623255	0.06550066978058516	0.09985443853034247	-0.10149230449327315	-0.12329142337777019	-0.3240461086622344	-0.029150301121210705	-0.10042022641557853	-0.09836674237105998	0.007480195167214399	-0.00706553443243364	-0.04699190381574954	-0.013035833380026899	0.19742437466935261	-0.001157889634759024	-0.2321195071808702	0.2230331655115118	-0.06887576614177399	-0.11705954789813708	-0.15211303499682252	-0.060555853462372224	-0.08891482327015006	-0.20641537375595528	0.22387705167653416	-0.24509855837631678	-0.06736769558284227	0.07088149375700215	-0.028893178338431705	-0.10769430360471578	-0.12758393590874068	0.06844512223046557	-0.0022652064454862777	-0.011420452597246106	-0.07614137596083569	-0.11932167409358901	0.027859571662903877	-0.06805502677879847	0.022640492414118862	-0.2259513755565459
mon_arcanine	-0.19509741445213263	0.0838457520160043	0.1753028110382857	0.01846360572153727	-0.12969320047359853	-0.05116792124262775	0.15185809551910187	-0.12094100280761046	0.04439292121900152	0.19572181882672735	0.1535038172665101	0.022888607089526933	0.07301539671958893	0.06214348373321579	-0.06993773317537154	-0.17057069947111558	-0.3177063493851132	0.0018809274236825772	-0.13469023533124	-0.1056175779063877	-0.025109462321588016	0.02940428156996739	-0.03508394228721056	-0.030739360691013216	0.1772785942862138	-0.0124310359861257	-0.2148720084197519	0.21920621413767555	-0.0806859750428533	-0.1458550150339566	-0.14027901009642918	-0.07486912008861954	-0.13221507984773634	-0.2316842842712223	0.22910388846206642	-0.23279418359743553	-0.0507070509975653	0.03843333232836242	-0.038504780133190204	-0.03704148280975193	-0.11890472294720165	0.06666944176120285	-0.03372848670751921	-0.01599681239168491	-0.06012678993010332	-0.11144661754565378	0.06770859423141688	-0.13882608210155473	-0.00010217887834775442	-0.2312577184357934
mon_poliwag	0.3059252601735443	0.0448877589803495	-0.04655849103857771	0.07893127256455008	0.19589377310415967	0.10404934969427836	0.030663968434979684	-0.024638746224584417	-0.11867546746999082	-0.17152051958252057	-0.12409228425924805	-0.09795093919272475	0.29772499313739054	0.21660563690744306	0.1872554312663387	0.08797224011372672	0.0031262602654543023	-0.007135826256790713	0.13153491884559304	0.07416620746621559	0.32529540939053675	-0.09765222952496062	0.11637462895699495	0.07880109654620446	-0.18601391430768396	0.06429558084598318	0.1358414172928946	0.06775334094722427	0.011568004311145711	-0.0015710280400002589	0.05274992531635859	0.12547245834413742	0.11635309268696302	-0.10318153260446807	-0.10139467253743352	0.09505953161571278	0.048345465302676895	-0.022338137580975744	0.0031041722913158795	-0.12990248164542492	0.19008440735015172	-0.05601414869104598	0.2008358756339485	0.11867491839953644	0.05797372318181272	-0.14385605922542483	-0.12396896495621773	0.07400435420671704	-0.07174525050286032	0.017988126568859203
mon_poliwhirl	0.31808845390564705	0.06142241311873686	-0.06263683110485507	0.051340685458629805	0.21897698248564532	0.06354678326439403	0.05303381569138337	0.0067310886019203	-0.13999653350543248	-0.1963896653572991	-0.12756565391698194	-0.08308798624826681	0.30254334764917856	0.2495967990361849	0.18501856109534792	0.06369457012203439	-0.03249585362640619	-0.01037330323899373	0.1262553528390773	0.08832259229389189	0.30697137396484675	-0.09454905158027029	0.1112469038733007	0.088009018947823	-0.16515531900552566	0.06019971305596744	0.13568604281608812	0.06098706241011632	0.0030001740059625807	0.005461441522098718	0.01999419565165688	0.09835740436835165	0.10977149787844438	-0.0929537009725388	-0.10361616906566344	0.12069559164486746	0.03784647460312061	-0.03680835992875358	-0.0002457239120348173	-0.12114903196220922	0.17890790570025	-0.07077411573484044	0.20403584293322988	0.12294053142422574	0.07248990073556265	-0.1560218540846757	-0.13566293455340503	0.06727635211428644	-0.04970636337540793	0.049272664318508214
mon_poliwrath	0.3142754166667984	0.04271294216288755	-0.03687696889011352	0.08941160138809728	0.19163345586875744	0.09517362109794107	0.05491087004945167	-0.04988852643124772	-0.12409905469810549	-0.17748324111068636	-0.1090255348720318	-0.08987090643826708	0.34571043810414376	0.23701126240255954	0.2084107411930206	0.08886826381549755	-0.02766733360620057	0.0004263610315457366	0.11173587822046206	0.07189901589518122	0.370627023686659	-0.10319488568576746	0.1050667571734739	0.06104934746950126	-0.18544338669984278	0.06966960605510011	0.12840021520521192	0.08343918543581355	0.002573944705945145	0.011916249048722898	0.05332410161778349	0.12212045702105542	0.08021213023001951	-0.12886380939604225	-0.09561787855170946	0.07217258456151225	0.047555789322174774	-0.005794042286448968	-0.0035771223006255837	-0.12800786182040372	0.17729365956074303	-0.061085630826691696	0.2051201724765011	0.12288886602461323	0.06854801197959025	-0.12726246450287873	-0.11570779484863769	0.03941810592061728	-0.04910629573112416	-0.014160014071770158
mon_abra	-0.2736085619443848	-0.13277905089607314	-0.01557521293472697	-0.08976934356004257	-0.17481456457825847	0.04247484481730267	-0.1195069967656516	-0.09855054809412367	0.035147921033541585	-0.20409310212498916	0.15647129080410174	0.03191736040825667	-0.09368345021273863	0.020225860887166363	0.0586855497132401	-0.14171436004000068	0.11992926945596942	0.017551761651584938	-0.010103833583689383	-0.015221130503720747	-0.2649475813389721	0.13128155251960533	0.0575487659833261	-0.07886486501162424	-0.210835766646374	-0.037846019900648696	0.045272923162497404	0.02962213456962945	-0.059403776363687155	-0.1909046537018983	0.2756968488520053	-0.1917514080028123	-0.24242081033295948	-0.06873500632326275	0.02187798973292011	0.0413550721902552	-0.023516867323205178	0.012472444701732584	-0.005432394778866097	0.11460523627752778	-0.07588224204941792	0.1709958829420397	-0.07857749808987241	-0.1191692130337592	0.24064490040029538	0.06812260515331084	0.1134980293287187	-0.043238362228224476	0.11102132785047586	-0.19224195560722826
